%YAML:1.0
---
opencv_ml_svm:
   format: 3
   svmType: C_SVC
   kernel:
      type: LINEAR
   C: 2.6699999999999999e+00
   term_criteria: { epsilon:1.1920928955078125e-07, iterations:1000 }
   var_count: 64
   class_count: 5
   class_labels: !!opencv-matrix
      rows: 5
      cols: 1
      dt: i
      data: [ 1, 2, 3, 4, 5 ]
   sv_total: 10
   support_vectors:
      - [ 0., 0., 0., 0., 0., 0., 0., 0., 0., 0., 0., 0., 0., 0., 0., 0.,
          2.20587580e-07, -2.96333873e-08, -4.61162948e-08,
          -6.58666153e-08, 8.25920807e-08, -3.13076148e-10,
          5.50387558e-09, 3.88922006e-10, 9.52862789e-10, 5.23300692e-09,
          1.14554055e-09, -3.44797151e-08, 7.56853140e-08,
          -8.77031496e-08, -1.33603715e-08, 3.52295508e-08,
          1.73935355e-08, 1.24274626e-08, -3.37933059e-08,
          -9.03434000e-07, -1.37137454e-06, -1.02049718e-07,
          -6.40068043e-09, 4.87273013e-08, 6.12899811e-08,
          -2.87331270e-09, 4.98691044e-09, -2.92949065e-09,
          -1.02102780e-08, 7.85818521e-09, -7.17985360e-09,
          4.23604476e-08, -8.89422336e-06, -3.76933758e-06,
          -6.91268269e-06, -3.83112820e-06, -1.48665470e-06,
          -4.39574887e-06, -3.78383129e-06, -6.69073552e-06,
          -8.10508391e-06, -4.06653953e-06, -4.81165671e-06,
          2.90272425e-07, -6.67652387e-07, -7.45851958e-06,
          -2.27241730e-06, -7.00162900e-06 ]
      - [ 0., 0., 0., 0., 0., 0., 0., 0., 0., 0., 0., 0., 0., 0., 0., 0.,
          1.47421147e-07, -2.90973698e-08, -6.82481129e-08,
          2.69141553e-09, 7.58684067e-08, -5.52969726e-10,
          -1.78389026e-09, 2.06862513e-11, 9.23416968e-11,
          -6.99195979e-10, -4.19387053e-10, 1.95171701e-08,
          5.90972746e-08, -6.97390092e-08, -3.26544871e-08,
          1.07298312e-08, 7.75317255e-10, 2.39708409e-09,
          -7.17392412e-09, 4.40569998e-08, 6.83370871e-08,
          -3.87659504e-08, -8.32133917e-09, 2.06065298e-08,
          1.30698128e-08, 1.20902466e-09, 3.00988567e-10, 5.48428802e-10,
          6.02810868e-09, -1.46119145e-10, 1.67305969e-09,
          1.26707285e-08, -2.90434491e-06, -2.74634499e-06,
          -2.10445796e-06, -1.15096748e-06, -7.68938264e-07,
          -1.64977894e-06, -1.90019762e-06, -2.61036894e-06,
          -4.91197898e-06, -3.55071779e-06, -3.00677380e-06,
          -7.13337442e-07, -1.11264160e-06, -1.51089284e-06,
          -1.40833833e-06, -2.69619636e-06 ]
      - [ 0., 0., 0., 0., 0., 0., 0., 0., 0., 0., 0., 0., 0., 0., 0., 0.,
          -4.04140224e-08, -1.75289649e-09, -1.08078586e-08,
          -2.49896481e-09, 1.79965038e-08, 2.95362512e-10,
          4.25122187e-10, -4.11354596e-11, 1.29443997e-10,
          3.81180337e-10, -3.52949892e-11, 3.70386366e-09,
          1.12334737e-08, -9.58953894e-09, -2.35078623e-09,
          -5.85542370e-09, -9.91527416e-10, 2.04129913e-09,
          -5.35571543e-09, 2.21878995e-08, 2.21232508e-08,
          -5.72580072e-09, 1.30483735e-10, 1.10175935e-09,
          3.40765860e-09, 8.16373913e-10, 3.89302507e-10, 5.06441389e-10,
          1.18019150e-09, 3.14160059e-10, 1.56230950e-09, 2.72693468e-09,
          -2.08786264e-06, -6.30626232e-07, -1.08394204e-06,
          -1.46123128e-07, 3.52319915e-07, -1.41184239e-06,
          -9.80252025e-07, -1.71634747e-06, -2.06139975e-06,
          -6.43906105e-07, -9.05653792e-07, 1.08244990e-07,
          1.89605174e-07, -1.82505664e-06, -8.55043311e-07,
          -1.27354929e-06 ]
      - [ 0., 0., 0., 0., 0., 0., 0., 0., 0., 0., 0., 0., 0., 0., 0., 0.,
          -4.07947844e-08, -1.02385300e-08, -1.20085941e-08,
          2.27354802e-09, 1.50351624e-08, -5.30992306e-10,
          1.66091974e-10, 7.21492380e-11, -1.34402309e-10,
          -1.66109043e-10, -2.02352440e-10, 3.09413689e-10,
          1.71283201e-08, -1.21058665e-08, -1.16481580e-08,
          -8.07044476e-09, -7.22350713e-09, -1.53770940e-09,
          -2.49794896e-09, -5.15381604e-09, -1.08465512e-08,
          -5.17827647e-09, -3.72867071e-09, -3.58520391e-09,
          9.33003674e-10, 2.93865487e-10, 1.32484204e-10, 2.57053351e-10,
          4.64882466e-10, 3.14140852e-10, 6.40150433e-10, 1.07765252e-09,
          -1.85894680e-06, -6.66427297e-07, -6.67719860e-07,
          -1.63730789e-07, 2.30289530e-07, -7.15293481e-07,
          -9.91170737e-07, -1.31501429e-06, -1.87894307e-06,
          -8.75759042e-07, -6.62696436e-07, -3.46781590e-08,
          3.53579743e-08, -8.29216788e-07, -9.26847576e-07,
          -1.20657751e-06 ]
      - [ 0., 1.36348474e-10, 4.31171737e-10, 3.04884451e-10,
          3.99986710e-09, 1.29351518e-09, 9.54439194e-10, 0., 0., 0., 0.,
          0., 0., 0., 0., 0., 9.36291030e-07, -1.83140870e-07,
          -5.10090274e-07, 2.64733817e-08, 4.69102758e-07,
          -5.90731331e-09, -9.92116433e-09, 6.24640062e-10,
          -4.81020279e-10, -9.62203295e-09, -3.37705397e-09,
          1.25939209e-07, 3.47657277e-07, -4.75436082e-07,
          -2.12788422e-07, 8.83954741e-08, 4.79720121e-08,
          -3.21286926e-08, -2.92566362e-08, 3.70999885e-07,
          2.87000972e-07, 2.84015513e-08, -2.87973521e-08,
          -3.42126754e-08, 7.37879731e-08, 1.15244108e-08,
          2.98400415e-09, 7.81430476e-09, 2.35400304e-08, 3.37930151e-09,
          1.71078476e-08, -2.76946430e-08, -5.54169355e-06,
          -1.08792174e-05, 7.88065392e-07, -7.55110364e-07,
          -1.75188802e-06, -3.32660920e-06, -9.41826420e-06,
          -3.96008500e-06, -7.74222735e-06, -1.92708812e-05,
          -8.38911728e-06, -2.43180978e-07, -2.77834079e-06,
          -5.52718166e-06, -4.71102430e-06, -1.97930217e-06 ]
      - [ 0., 0., 0., 0., 0., 0., 0., 0., 0., 0., 0., 0., 0., 0., 0., 0.,
          -1.47008805e-07, -7.22354754e-09, -3.70752424e-08,
          1.44681271e-08, 6.15202254e-08, -8.87462413e-12,
          1.39702902e-10, 1.11655182e-11, 1.41941944e-10, 1.47534471e-10,
          -7.86985699e-10, 1.51623318e-08, 5.87578519e-08,
          -3.37579600e-08, -8.99656616e-09, -2.07530757e-08,
          1.42921204e-08, 8.00336242e-09, 3.96824712e-10, 2.05991640e-07,
          2.92555853e-07, 6.26005292e-09, 1.19607826e-08,
          -1.34865963e-09, 1.36569120e-08, 3.16673265e-09,
          1.39472140e-11, 1.42557466e-09, 6.86162016e-09, 6.59651722e-10,
          5.82937143e-10, 7.00858349e-09, -4.00597946e-06,
          -1.60661966e-06, -1.79821234e-06, -3.04388436e-07,
          3.91139622e-07, -2.35535890e-06, -1.78334540e-06,
          -2.19038066e-06, -4.33409787e-06, -1.41095120e-06,
          -2.90231105e-06, 1.08886049e-07, 3.21901922e-07,
          -4.13392263e-06, -2.16720696e-06, -2.19704771e-06 ]
      - [ 0., 0., 0., 0., 0., 0., 0., 0., 0., 0., 0., 0., 0., 0., 0., 0.,
          -1.91600265e-07, -2.66010858e-08, -4.10225844e-08,
          1.23003776e-08, 3.96272988e-08, -2.06704920e-09,
          -3.73055059e-10, -2.79216320e-12, -4.33979824e-10,
          -8.87921903e-10, -1.01653397e-09, 7.20061255e-09,
          4.13238865e-08, -3.79592748e-08, -2.96950926e-08,
          -3.49299185e-08, -1.41724765e-08, 1.73427064e-10,
          8.61477201e-09, 1.08887754e-07, 1.66266858e-07, 9.39615941e-09,
          -2.44618215e-09, -1.66369762e-08, 5.80108495e-09,
          1.50873414e-09, 3.89931698e-10, 1.07614107e-09, 3.90511001e-09,
          1.16232957e-09, 1.25189814e-09, 2.25750751e-09,
          -2.53673306e-06, -1.70365161e-06, -8.78167214e-07,
          2.62424237e-07, -1.01432839e-07, -1.27462602e-06,
          -1.76493461e-06, -1.74235527e-06, -2.13566932e-06,
          -2.30634123e-06, -2.20786887e-06, 5.31090905e-07,
          3.05176400e-07, -1.47940307e-06, -1.71391628e-06,
          -1.46375828e-06 ]
      - [ 0., 3.83114061e-11, 1.21151311e-10, 8.56669111e-11,
          6.90444812e-10, 2.42302622e-10, 2.29868430e-10, 8.56669111e-11,
          0., 0., 0., 0., 0., 0., 0., 0., -1.15440606e-07,
          5.84731872e-08, 1.21051073e-07, -4.66044341e-08,
          -3.48019711e-08, 8.41735215e-09, -2.05403111e-10,
          1.35337397e-09, 1.07160769e-08, 5.26245825e-10, 8.62401883e-09,
          -1.96477501e-08, -1.72526846e-08, 6.90683351e-08,
          6.02712547e-08, 2.47344161e-07, 3.13206989e-08, 1.62703806e-08,
          -7.41504103e-09, -4.70443560e-08, -7.85866803e-08,
          -2.75347034e-09, 4.64844412e-08, 2.68518523e-08,
          1.91502671e-08, -5.01473840e-09, 4.18428847e-09,
          6.80373313e-09, -6.24355501e-09, 1.40364631e-09,
          3.57141511e-10, 2.08949960e-08, -6.51075879e-06,
          -6.20837966e-07, -3.87134332e-06, -5.89288584e-06,
          -1.60635670e-06, -6.38468646e-06, -2.28842691e-06,
          -7.91648472e-06, -5.59039381e-06, 1.96216138e-06,
          -2.62787216e-06, -3.52032566e-06, -5.84754025e-06,
          -4.38404186e-06, -8.30081319e-07, -6.30590557e-06 ]
      - [ 0., 8.16676934e-12, 2.58255934e-11, 1.82614531e-11,
          1.29216515e-09, 1.76096332e-10, 3.43766904e-10, 0., 0., 0., 0.,
          0., 0., 0., 0., 0., -2.93020690e-07, -4.25696030e-08,
          -5.61625413e-09, 3.54907286e-08, 1.72099117e-08,
          -1.59367186e-09, -6.16028228e-10, 4.50794846e-10,
          3.18421012e-10, -1.10731102e-09, 5.26833910e-10,
          1.79618875e-09, 7.04095271e-08, -2.20459579e-08,
          -5.65886467e-08, 1.63196701e-09, -1.33861535e-08,
          -1.04324123e-08, -1.83306188e-08, -1.64627295e-07,
          -2.19214471e-07, -2.64825228e-08, -6.87851642e-09,
          -2.23694450e-08, 1.32831328e-08, -1.61579028e-09,
          4.63745625e-10, -4.53559745e-10, -4.16673362e-09,
          2.02593409e-09, -1.29420349e-10, 3.90151556e-09,
          -2.98762143e-06, -1.45941578e-06, -7.54514929e-07,
          -1.88317176e-06, -1.34401466e-06, -8.71091459e-07,
          -2.86086265e-06, -5.07883396e-06, -3.59832575e-06,
          -2.12030500e-06, -1.26082296e-06, -2.21212758e-06,
          -2.63024072e-06, -1.96882161e-06, -3.69568943e-06,
          -3.47244804e-06 ]
      - [ 0., 0., 0., 0., 0., 0., 0., 0., 0., 0., 0., 0., 0., 0., 0., 0.,
          -4.30247354e-07, -6.85574435e-07, -1.89801398e-07,
          3.75999889e-07, 7.15018587e-07, -3.28308722e-08,
          1.18012426e-08, 1.10155673e-09, -2.39973375e-10,
          -9.26065891e-09, -2.46918486e-08, 1.27293404e-07,
          8.27755116e-07, -1.96577219e-07, -4.72060520e-07,
          -7.61697777e-07, -1.31302011e-06, -3.81034397e-07,
          -4.50100998e-07, 2.01952925e-08, 3.83718657e-08,
          -4.51627187e-07, -4.41018585e-07, -8.93459571e-07,
          -4.76584688e-07, -2.17461178e-08, 1.15055077e-08,
          -2.04871533e-08, -1.52932991e-08, 7.15686665e-09,
          -3.73032236e-08, -1.05618078e-07, -2.92117329e-06,
          -1.06487059e-05, 7.17665216e-06, -2.21736968e-06,
          -1.88490424e-06, 9.05247452e-06, -1.15305711e-05,
          -1.03678267e-05, -5.71890951e-06, -1.80533643e-05,
          -6.10184861e-06, -3.57486442e-07, -1.01677333e-05,
          -2.66751863e-06, -1.66088867e-05, 7.34687717e-07 ]
   uncompressed_sv_total: 52
   uncompressed_support_vectors:
      - [ 0., 0., 0., 0., 0., 0., 0., 0., 0., 0., 0., 0., 0., 0., 0., 0.,
          8.01161328e+03, 2.93057526e+02, 1.80400146e+03, 5.45839600e+03,
          5.63196338e+03, 8.70970917e+01, 6.03149490e+01, 3.03972416e+01,
          1.00649109e+02, 5.44286003e+01, 8.39149475e+01, 1.64695081e+03,
          9.82319238e+03, 1.36120422e+03, 3.32179382e+02, 1.25187073e+03,
          7.24226416e+03, 2.62299731e+03, 2.22509888e+03, 5.38678589e+02,
          1.18326465e+03, 1.16876160e+03, 2.39412695e+03, 5.44207813e+03,
          4.38969580e+03, 1.56278992e+02, 5.16812935e+01, 3.54744377e+01,
          8.60508652e+01, 7.18760834e+01, 1.78021683e+02, 2.00622021e+03,
          2.34124422e+05, 1.25691602e+05, 1.70092281e+05, 9.27857813e+04,
          1.81534375e+05, 5.35460273e+04, 5.73659844e+04, 1.55942797e+05,
          2.12713578e+05, 1.35372250e+05, 2.03638766e+05, 7.59935000e+04,
          7.08271719e+04, 6.97998281e+04, 6.33227148e+04, 1.37984688e+05 ]
      - [ 0., 0., 0., 0., 0., 0., 0., 0., 0., 0., 0., 0., 0., 0., 0., 0.,
          4., 1.13137083e+01, 8.94427204e+00, 5.04615283e+03,
          7.23221191e+03, 1.34164085e+01, 5.89007378e+01, 9.48683357e+00,
          2.54868336e+01, 5.32438812e+01, 1.34164085e+01, 1.30155664e+03,
          1.09743311e+04, 1.16832390e+01, 7.07106781e+00, 3.16227770e+00,
          5.74893750e+03, 2.58815527e+03, 4.03864111e+03, 3.47404419e+03,
          3.54474878e+03, 3.99254419e+03, 2.68163623e+03, 3.24235522e+03,
          4.42845361e+03, 4.17614471e+02, 1.01591644e+02, 9.20933990e+01,
          3.58680878e+02, 1.54352753e+02, 3.62754578e+02, 1.94984937e+03,
          2.69569938e+05, 5.77087578e+04, 1.37563109e+05, 2.01603938e+05,
          2.31239031e+05, 1.21046289e+05, 4.73778438e+04, 7.77182969e+04,
          2.73065063e+05, 5.22037070e+04, 1.66734203e+05, 2.04854922e+05,
          2.24117797e+05, 7.37604375e+04, 5.14365938e+04, 1.22411023e+05 ]
      - [ 0., 0., 0., 0., 0., 0., 0., 0., 0., 0., 0., 0., 0., 0., 0., 0.,
          1.53268115e+03, 2.58519783e+01, 2.91500824e+02, 6.66650488e+03,
          6.10945313e+03, 5.32912788e+01, 3.11126976e+01, 1.26491108e+01,
          7.54868317e+01, 6.73860168e+01, 3.27154198e+01, 2.29142725e+03,
          1.05192451e+04, 2.28916458e+02, 3.44001160e+01, 2.07181595e+02,
          6.14360547e+03, 2.43976099e+03, 3.83294897e+03, 2.31356665e+03,
          2.49372925e+03, 2.35230005e+03, 2.38905396e+03, 4.25368115e+03,
          4.20548193e+03, 2.62837433e+02, 1.08813820e+02, 8.80203629e+01,
          1.45999146e+02, 6.29634781e+01, 3.76199585e+02, 1.67671997e+03,
          2.37845547e+05, 8.00407422e+04, 1.73917063e+05, 1.62587578e+05,
          1.64474063e+05, 1.11725688e+05, 5.46407695e+04, 1.58759969e+05,
          1.76835906e+05, 8.42439063e+04, 1.97920734e+05, 1.77827938e+05,
          1.66911375e+05, 9.06772578e+04, 4.61622188e+04, 1.34575859e+05 ]
      - [ 0., 0., 0., 0., 0., 0., 0., 0., 0., 0., 0., 0., 0., 0., 0., 0.,
          4.80890674e+03, 2.38529068e+02, 8.91161255e+02, 6.33261279e+03,
          5.78544336e+03, 5.02672195e+01, 6.36880836e+01, 6.32455540e+00,
          9.00094299e+01, 4.27729454e+01, 6.64274597e+01, 2.47431592e+03,
          9.50727930e+03, 1.05707520e+03, 1.79665741e+02, 1.34424036e+03,
          7.11277588e+03, 2.42027515e+03, 2.42896753e+03, 6.15508850e+02,
          1.28761548e+03, 1.42124585e+03, 2.22950732e+03, 5.00462158e+03,
          4.53476904e+03, 1.94273499e+02, 7.09006042e+01, 2.36289692e+01,
          1.31953522e+02, 5.68395882e+01, 1.83530594e+02, 1.98938440e+03,
          1.90973781e+05, 1.36144781e+05, 2.15526297e+05, 1.13993945e+05,
          1.22590969e+05, 8.10795625e+04, 6.65203125e+04, 1.44907938e+05,
          2.07533188e+05, 1.32119375e+05, 2.09204750e+05, 8.85854063e+04,
          8.54690391e+04, 7.22463281e+04, 5.39783906e+04, 1.35008609e+05 ]
      - [ 0., 0., 0., 0., 0., 0., 0., 0., 0., 0., 0., 0., 0., 0., 0., 0.,
          8.32455540e+00, 2.40416298e+01, 2.68328171e+01, 5.02136621e+03,
          8.08430518e+03, 6.39687195e+01, 5.84417458e+01, 1.26491108e+01,
          2.46491108e+01, 5.56133194e+01, 4.47213593e+01, 1.83445618e+03,
          1.12799063e+04, 3.26637688e+01, 2.68700562e+01, 9.48683357e+00,
          5.67991943e+03, 2.45845190e+03, 3.97202173e+03, 5.82918018e+03,
          5.81611230e+03, 4.16459814e+03, 2.45487598e+03, 2.82100317e+03,
          4.13892383e+03, 4.73151825e+02, 1.43137512e+02, 1.28081421e+02,
          4.95532349e+02, 1.14949501e+02, 5.22742126e+02, 1.35299146e+03,
          2.98218563e+05, 3.86190664e+04, 1.21122195e+05, 2.12452031e+05,
          2.31284703e+05, 5.81784844e+04, 3.48458789e+04, 5.99242148e+04,
          3.76335656e+05, 3.74773633e+04, 7.12270313e+04, 1.80061359e+05,
          2.88450031e+05, 1.00854305e+05, 4.58440547e+04, 8.93450547e+04 ]
      - [ 0., 0., 0., 0., 0., 0., 0., 0., 0., 0., 0., 0., 0., 0., 0., 0.,
          1.66491108e+01, 2.40416298e+01, 1.78885441e+01, 5.59205859e+03,
          6.87215625e+03, 5.36959496e+01, 1.05073547e+02, 1.89736671e+01,
          4.69736671e+01, 8.64592819e+01, 4.61318283e+01, 2.10041040e+03,
          1.03826768e+04, 1.92399025e+01, 2.40416298e+01, 6.32455540e+00,
          5.35434229e+03, 2.44802612e+03, 3.89812231e+03, 4.77771924e+03,
          4.69030127e+03, 3.99033569e+03, 2.34318091e+03, 3.14765723e+03,
          4.21316211e+03, 4.22243774e+02, 1.45926956e+02, 1.12188484e+02,
          3.82031616e+02, 1.28190689e+02, 4.81111664e+02, 1.81709314e+03,
          3.28034094e+05, 3.54452969e+04, 8.13257500e+04, 1.61128797e+05,
          2.49466766e+05, 1.24232922e+05, 3.55526367e+04, 2.96356230e+04,
          3.63094344e+05, 3.07120176e+04, 1.29575117e+05, 1.69607188e+05,
          2.40037766e+05, 1.00725141e+05, 4.37393281e+04, 8.84458281e+04 ]
      - [ 0., 0., 0., 0., 0., 0., 0., 0., 0., 0., 0., 0., 0., 0., 0., 0.,
          1.43245554e+01, 1.41421356e+01, 1.03030872e+01, 5.54970703e+03,
          7.51058545e+03, 4.60801773e+01, 4.57138252e+01, 1.58113880e+01,
          5.46491089e+01, 5.25553970e+01, 3.44485893e+01, 2.65780396e+03,
          1.04015635e+04, 1.34164085e+01, 1.97989883e+01, 3.16227770e+00,
          5.78274316e+03, 2.73809644e+03, 4.04621753e+03, 4.48204639e+03,
          4.53990576e+03, 4.22384229e+03, 2.48515820e+03, 3.32304395e+03,
          4.38921826e+03, 4.14409027e+02, 1.52153503e+02, 9.03991013e+01,
          4.83879608e+02, 1.09125450e+02, 4.75103729e+02, 1.80499011e+03,
          2.87952188e+05, 4.21099063e+04, 1.27171711e+05, 2.01036547e+05,
          2.24296500e+05, 6.65639688e+04, 4.01386133e+04, 6.17657031e+04,
          3.84752938e+05, 3.79750391e+04, 7.73102891e+04, 1.85572750e+05,
          2.43062078e+05, 8.06232500e+04, 4.22454336e+04, 9.59876484e+04 ]
      - [ 0., 0., 0., 0., 0., 0., 0., 0., 0., 0., 0., 0., 0., 0., 0., 0.,
          3.91258716e+03, 9.37598419e+01, 6.59484192e+02, 6.60946631e+03,
          5.09829150e+03, 3.44437256e+01, 5.20591660e+01, 1.89736671e+01,
          6.00726852e+01, 5.77160187e+01, 3.44485893e+01, 2.27310132e+03,
          9.49808203e+03, 5.70593689e+02, 1.27707817e+02, 5.33214600e+02,
          6.19663525e+03, 2.45360278e+03, 3.44825928e+03, 2.02485278e+03,
          2.19366821e+03, 3.42838770e+03, 2.56618335e+03, 3.85817236e+03,
          4.35320264e+03, 3.26313232e+02, 9.70753174e+01, 4.45830574e+01,
          2.06222946e+02, 1.07370941e+02, 3.14999512e+02, 2.12291992e+03,
          3.79969094e+05, 1.05027789e+05, 1.97568219e+05, 1.61065672e+05,
          1.48494375e+05, 8.39221172e+04, 5.39512148e+04, 1.46730609e+05,
          4.42585719e+05, 9.45723828e+04, 2.15787563e+05, 1.28765227e+05,
          1.07183234e+05, 5.54097344e+04, 4.65310352e+04, 2.05766234e+05 ]
      - [ 0., 0., 0., 0., 0., 0., 0., 0., 0., 0., 0., 0., 0., 0., 0., 0.,
          10., 1.16432686e+02, 1.18339795e+03, 6.53200830e+03,
          5.87617285e+03, 6.59515228e+01, 4.41871605e+01, 6.32455540e+00,
          8.63245544e+01, 7.04742584e+01, 7.29025955e+01, 1.84348682e+03,
          1.05181230e+04, 1.25793604e+03, 6.38977242e+01, 0.,
          6.32254492e+03, 2.57542920e+03, 3.99750513e+03, 2.02689404e+03,
          2.04689404e+03, 3.99750513e+03, 2.57542920e+03, 3.84254517e+03,
          4.33337744e+03, 3.72092285e+02, 8.31648941e+01, 7.24700928e+01,
          2.40470093e+02, 8.31648941e+01, 3.72092285e+02, 1.85337720e+03,
          2.75523031e+05, 5.37789883e+04, 6.96182109e+04, 1.20020039e+05,
          2.39588813e+05, 3.46585094e+05, 1.44883469e+05, 1.06217469e+05,
          2.74717531e+05, 6.96883203e+04, 1.21254172e+05, 9.19157188e+04,
          2.12548297e+05, 3.72755344e+05, 1.29460477e+05, 1.42329031e+05 ]
      - [ 0., 0., 0., 0., 0., 0., 0., 0., 0., 0., 0., 0., 0., 0., 0., 0.,
          1.30894629e+03, 3.91825981e+01, 3.12291565e+02, 6.26466699e+03,
          6.49852197e+03, 5.02492256e+01, 5.25553970e+01, 6.32455540e+00,
          6.83245544e+01, 5.15447769e+01, 3.27154198e+01, 1.90902063e+03,
          1.09652891e+04, 2.14815216e+02, 4.50689468e+01, 2.85487427e+02,
          6.52974902e+03, 2.63812988e+03, 3.77667236e+03, 2.30088232e+03,
          2.45998755e+03, 3.78641699e+03, 2.63734033e+03, 3.89992334e+03,
          4.33294189e+03, 3.59272705e+02, 7.36697083e+01, 7.45149231e+01,
          2.70523682e+02, 1.27726532e+02, 3.59547852e+02, 1.68610754e+03,
          4.07311656e+05, 8.57457656e+04, 1.69112422e+05, 1.77774078e+05,
          2.00784328e+05, 1.21564234e+05, 7.58101484e+04, 1.80125078e+05,
          3.99249563e+05, 8.71024688e+04, 1.84367969e+05, 1.95734734e+05,
          2.18367094e+05, 8.96556953e+04, 6.39252734e+04, 2.09001672e+05 ]
      - [ 0., 0., 0., 0., 0., 0., 0., 0., 0., 0., 0., 0., 0., 0., 0., 0.,
          0., 3.26149559e+01, 6.07820251e+02, 6.47010791e+03,
          5.85786133e+03, 4.26441536e+01, 7.89292221e+01, 1.58113880e+01,
          4.29736671e+01, 4.90012398e+01, 3.85980225e+01, 2.55927173e+03,
          9.77221484e+03, 6.39689819e+02, 1.55563488e+01, 6.32455540e+00,
          6.07762598e+03, 2.44176270e+03, 4.04261938e+03, 2.41866479e+03,
          2.38689819e+03, 4.11567383e+03, 2.54513477e+03, 3.68158228e+03,
          4.05895630e+03, 3.66047638e+02, 9.58475418e+01, 1.02235825e+02,
          2.46235825e+02, 1.19569160e+02, 2.77929993e+02, 1.83803784e+03,
          3.54696750e+05, 4.68902773e+04, 6.32807617e+04, 1.13096531e+05,
          2.45807859e+05, 3.23743250e+05, 1.15939445e+05, 1.06191070e+05,
          3.57240219e+05, 4.57930664e+04, 9.47147813e+04, 7.71469453e+04,
          2.11395250e+05, 2.95206750e+05, 1.13317250e+05, 1.48945781e+05 ]
      - [ 0., 0., 0., 0., 0., 0., 0., 0., 0., 0., 0., 0., 0., 0., 0., 0.,
          1.18996826e+03, 2.59148350e+01, 2.80700562e+02, 6.16557031e+03,
          6.07027295e+03, 3.40742340e+01, 3.55848351e+01, 9.48683357e+00,
          6.86491089e+01, 4.61728134e+01, 3.85463715e+01, 2.40031494e+03,
          9.86551367e+03, 2.25367722e+02, 2.85137672e+01, 1.58746048e+02,
          6.58768750e+03, 2.58111182e+03, 4.17636328e+03, 9.49324316e+03,
          1.43003594e+04, 4.21991699e+03, 2.61945923e+03, 3.69902271e+03,
          4.54860156e+03, 3.60232880e+02, 1.13597588e+02, 9.03263168e+01,
          4.21813141e+02, 1.18069725e+02, 3.33483521e+02, 1.79827905e+03,
          4.16465531e+05, 8.84113906e+04, 1.88644938e+05, 1.86236094e+05,
          1.83972438e+05, 9.95026328e+04, 6.00264922e+04, 1.61964047e+05,
          4.17878469e+05, 9.68857969e+04, 1.95224734e+05, 1.88316313e+05,
          1.68180203e+05, 8.56162188e+04, 5.43004492e+04, 1.90717328e+05 ]
      - [ 0., 0., 0., 0., 0., 0., 0., 0., 0., 0., 0., 0., 0., 0., 0., 0.,
          6.32455540e+00, 9.89949417e+00, 1.75465965e+01, 5.58373633e+03,
          7.02952588e+03, 3.13049526e+01, 5.89007378e+01, 1.26491108e+01,
          2.06491108e+01, 5.01859589e+01, 2.68328171e+01, 2.00910620e+03,
          1.05854307e+04, 3.71359024e+01, 1.83847752e+01, 6.32455540e+00,
          5.40815283e+03, 2.63473755e+03, 4.12508057e+03, 1.42877783e+04,
          1.92657695e+04, 4.06047485e+03, 2.62817065e+03, 3.04027539e+03,
          4.12702246e+03, 4.34140839e+02, 1.30621887e+02, 1.12777321e+02,
          5.32229370e+02, 1.22541855e+02, 4.96803253e+02, 1.73549170e+03,
          3.73844406e+05, 6.61614453e+04, 1.31557172e+05, 2.42806078e+05,
          2.67201063e+05, 9.83676953e+04, 5.15306445e+04, 1.11476445e+05,
          3.10846063e+05, 6.59891797e+04, 1.83143422e+05, 2.35556703e+05,
          2.41588766e+05, 8.02625391e+04, 5.38605742e+04, 1.50909188e+05 ]
      - [ 0., 0., 0., 0., 0., 0., 0., 0., 0., 0., 0., 0., 0., 0., 0., 0.,
          1.58334091e+02, 2.14426975e+01, 1.07961456e+02, 5.74830322e+03,
          7.08551416e+03, 3.57770882e+01, 4.42996101e+01, 1.89736671e+01,
          6.26491089e+01, 5.27848930e+01, 2.68328171e+01, 2.20307178e+03,
          1.06514385e+04, 7.88147354e+01, 1.41421356e+01, 4.17576675e+01,
          6.14319482e+03, 2.74084839e+03, 4.17491260e+03, 1.14016406e+04,
          1.58536094e+04, 4.19868652e+03, 2.77287793e+03, 3.41537915e+03,
          4.47925977e+03, 3.64664246e+02, 1.20423805e+02, 1.19029930e+02,
          4.68516754e+02, 1.29368073e+02, 3.74563751e+02, 1.80880066e+03,
          4.43062750e+05, 7.07835000e+04, 1.70445391e+05, 1.76275234e+05,
          2.26138750e+05, 1.17136773e+05, 7.03762344e+04, 1.64978609e+05,
          4.91404563e+05, 6.70779844e+04, 1.12603047e+05, 1.87128453e+05,
          2.56745484e+05, 1.03646406e+05, 6.96577188e+04, 1.86587359e+05 ]
      - [ 0., 0., 0., 0., 0., 0., 0., 0., 0., 0., 0., 0., 0., 0., 0., 0.,
          8.65294678e+02, 3.07996643e+02, 1.28180945e+03, 5.89779297e+03,
          5.72256348e+03, 6.41970139e+01, 5.45456429e+01, 1.58113880e+01,
          7.46491089e+01, 4.88887901e+01, 6.50261688e+01, 1.89056042e+03,
          9.53932227e+03, 1.57490491e+03, 2.41970337e+02, 7.38891418e+02,
          6.33947949e+03, 2.56873560e+03, 3.56871802e+03, 6.52486877e+02,
          1.61413184e+03, 2.96245068e+03, 2.53935645e+03, 4.09520898e+03,
          4.36455078e+03, 2.64396729e+02, 8.67876282e+01, 6.58046341e+01,
          1.81543335e+02, 4.88116837e+01, 3.44705505e+02, 1.97928760e+03,
          304660., 1.42858797e+05, 2.47677391e+05, 1.35883641e+05,
          1.33873797e+05, 6.67877500e+04, 5.91855664e+04, 1.73020547e+05,
          3.58601438e+05, 1.34071953e+05, 2.52810500e+05, 1.21584680e+05,
          9.43058828e+04, 5.88694336e+04, 5.77851641e+04, 1.64944703e+05 ]
      - [ 0., 0., 0., 0., 0., 0., 0., 0., 0., 0., 0., 0., 0., 0., 0., 0.,
          7.14319336e+03, 2.42669525e+02, 1.57324316e+03, 5.59471875e+03,
          5.73831885e+03, 7.95785522e+01, 7.55523453e+01, 1.26491108e+01,
          7.31437531e+01, 7.35018616e+01, 4.12749367e+01, 1.89869885e+03,
          9.81325879e+03, 1.14909241e+03, 3.26221832e+02, 1.09951831e+03,
          6.63210010e+03, 2.51095020e+03, 3.03561597e+03, 1.52171155e+03,
          1.57771155e+03, 3.03561597e+03, 2.51095020e+03, 4.35410010e+03,
          4.22181934e+03, 2.40492844e+02, 8.22926331e+01, 6.16779442e+01,
          1.73677948e+02, 8.22926331e+01, 2.40492844e+02, 1.94381946e+03,
          3.52954813e+05, 1.40887203e+05, 2.40986844e+05, 1.32869656e+05,
          1.31327391e+05, 5.24469258e+04, 5.36909648e+04, 1.64560469e+05,
          3.97978531e+05, 1.22517648e+05, 2.19539813e+05, 1.23148477e+05,
          1.00353859e+05, 7.46032109e+04, 6.07709336e+04, 1.56571797e+05 ]
      - [ 0., 0., 0., 0., 0., 0., 0., 0., 0., 0., 0., 0., 0., 0., 0., 0.,
          7.43487854e+01, 4.03673172e+01, 2.84830322e+02, 6.70461084e+03,
          5.94022900e+03, 4.02492256e+01, 5.41991043e+01, 6.32455540e+00,
          8.86491089e+01, 3.27564049e+01, 2.23606796e+01, 2.08260767e+03,
          1.07130156e+04, 1.48256927e+02, 2.16721935e+01, 1.57619904e+02,
          5.94064063e+03, 2.38032178e+03, 4.20143164e+03, 2.88915649e+03,
          2.33018848e+03, 4.40064404e+03, 2.42735645e+03, 3.42160645e+03,
          4.06143628e+03, 3.87437347e+02, 1.13740471e+02, 6.51591797e+01,
          3.05714264e+02, 8.93513870e+01, 4.02303406e+02, 1.65784583e+03,
          3.93417813e+05, 4.99352930e+04, 6.76435156e+04, 1.26664750e+05,
          2.72240156e+05, 302544., 9.59595313e+04, 9.50703984e+04,
          4.05252906e+05, 4.50403086e+04, 1.03139617e+05, 1.27759453e+05,
          2.94623844e+05, 2.42247484e+05, 1.02570391e+05, 1.45062797e+05 ]
      - [ 0., 0., 0., 0., 0., 0., 0., 0., 0., 0., 0., 0., 0., 0., 0., 0.,
          2.63570099e+02, 4.77200714e+02, 1.07871667e+03, 6.20948242e+03,
          5.69381543e+03, 5.81377678e+01, 4.59433174e+01, 2.09104080e+01,
          6.03245544e+01, 5.91302299e+01, 2.68328171e+01, 1.64941248e+03,
          1.01419092e+04, 1.38539905e+03, 2.79675232e+02, 3.16227760e+01,
          5.99938379e+03, 2.34489795e+03, 3.66858984e+03, 1.91577832e+03,
          1.96377832e+03, 3.66858984e+03, 2.34489795e+03, 3.77138354e+03,
          3.89970532e+03, 3.51540680e+02, 4.60727196e+01, 1.13988869e+02,
          2.13988861e+02, 4.60727196e+01, 3.51540680e+02, 1.67170532e+03,
          2.88815344e+05, 1.01950297e+05, 2.16536203e+05, 1.53519359e+05,
          1.57228609e+05, 8.36556719e+04, 4.98467031e+04, 1.14252305e+05,
          3.68735844e+05, 1.07125422e+05, 2.49417203e+05, 1.46348859e+05,
          1.52606969e+05, 5.83923008e+04, 4.10408945e+04, 1.36204719e+05 ]
      - [ 0., 0., 0., 0., 0., 0., 0., 0., 0., 0., 0., 0., 0., 0., 0., 0.,
          4., 1.16606400e+02, 1.27827307e+03, 6.60706201e+03,
          6.01036230e+03, 4.47393570e+01, 4.54843292e+01, 9.48683357e+00,
          1.11486832e+02, 5.59828491e+01, 5.15581093e+01, 2.40823730e+03,
          1.02028135e+04, 1.31773718e+03, 7.39504776e+01, 0.,
          6.70220508e+03, 2.77937305e+03, 3.31044482e+03, 1.75978198e+03,
          1.81578198e+03, 3.31044482e+03, 2.77937305e+03, 4.23220508e+03,
          4.37291650e+03, 2.96301666e+02, 8.74280624e+01, 4.44231148e+01,
          2.60423126e+02, 8.74280624e+01, 2.96301666e+02, 1.90291663e+03,
          2.55366813e+05, 5.96918438e+04, 7.75609766e+04, 1.38500688e+05,
          2.32694672e+05, 3.06459844e+05, 1.44982125e+05, 1.00415758e+05,
          2.86826094e+05, 7.36982422e+04, 1.37887844e+05, 8.61965469e+04,
          1.74569281e+05, 3.65219469e+05, 1.36682594e+05, 1.47394563e+05 ]
      - [ 0., 0., 0., 0., 0., 0., 0., 0., 0., 0., 0., 0., 0., 0., 0., 0.,
          2., 1.27279224e+01, 2.25846603e+02, 5.75646143e+03,
          6.24126465e+03, 5.20144310e+01, 4.12416878e+01, 6.32455540e+00,
          7.23245544e+01, 1.55563488e+01, 5.47017479e+01, 2.47610913e+03,
          9.47491992e+03, 2.88058929e+02, 9.89949417e+00, 0.,
          5.89601758e+03, 2.26828589e+03, 3.84622192e+03, 2.97416260e+03,
          2.74124658e+03, 4.00160840e+03, 2.46507813e+03, 3.33602881e+03,
          4.06932397e+03, 3.27102570e+02, 1.01853882e+02, 8.08394775e+01,
          2.23677200e+02, 8.29559326e+01, 4.09043427e+02, 1.55163074e+03,
          2.84341031e+05, 4.79466328e+04, 8.59855078e+04, 112875.,
          2.81474094e+05, 2.96310156e+05, 1.01823266e+05, 8.16006328e+04,
          2.87308313e+05, 3.43679141e+04, 5.23849531e+04, 7.61729141e+04,
          2.40896219e+05, 3.14342844e+05, 1.00138641e+05, 133793. ]
      - [ 0., 1.41421354e+00, 4.47213602e+00, 3.16227770e+00,
          4.14868317e+01, 1.34164085e+01, 9.89949417e+00, 0., 0., 0., 0.,
          0., 0., 0., 0., 0., 5.02333450e+01, 1.86142712e+01,
          3.13809547e+01, 6.26638184e+03, 6.60702051e+03, 4.47213602e+00,
          4.14711838e+01, 1.26491108e+01, 6.86491089e+01, 5.13706779e+01,
          1.78885441e+01, 1.90240369e+03, 1.10141289e+04, 2.69088173e+01,
          8.48528099e+00, 2.16569214e+01, 5.99854932e+03, 2.33352271e+03,
          3.93266797e+03, 3.80593335e+03, 3.86993335e+03, 3.93266797e+03,
          2.33352295e+03, 3.30654932e+03, 4.04522900e+03, 2.92728668e+02,
          1.09125450e+02, 9.84179535e+01, 3.62417938e+02, 1.09125450e+02,
          2.92728668e+02, 1.35322900e+03, 4.16295125e+05, 5.71990469e+04,
          8.98279219e+04, 1.68501719e+05, 3.09736875e+05, 2.29427109e+05,
          8.76519766e+04, 1.10400594e+05, 4.17565156e+05, 5.84311797e+04,
          1.31426172e+05, 1.54759781e+05, 2.65019375e+05, 1.86729031e+05,
          8.84328125e+04, 1.60878250e+05 ]
      - [ 0., 0., 0., 0., 0., 0., 0., 0., 0., 0., 0., 0., 0., 0., 0., 0.,
          5.62645947e+03, 2.98071350e+02, 1.31283447e+03, 5.77703076e+03,
          5.84863867e+03, 6.87903519e+01, 3.32153969e+01, 1.58113880e+01,
          7.38113861e+01, 6.38621788e+01, 6.08985405e+01, 1.91287451e+03,
          9.80623535e+03, 1.18829883e+03, 3.36287933e+02, 2.29319531e+03,
          6.66724854e+03, 2.50888916e+03, 2.98107642e+03, 1.38372266e+03,
          1.42372266e+03, 2.98107642e+03, 2.50888916e+03, 3.89724878e+03,
          4.33014111e+03, 2.60016510e+02, 5.00565300e+01, 5.56723480e+01,
          2.15672348e+02, 5.00565300e+01, 2.60016510e+02, 1.56014124e+03,
          3.40629906e+05, 1.34385078e+05, 2.34378844e+05, 1.31712734e+05,
          1.28807438e+05, 6.26773984e+04, 5.39781484e+04, 1.60137469e+05,
          394432., 1.31689609e+05, 2.38918422e+05, 9.57837344e+04,
          8.05194688e+04, 5.57667344e+04, 4.39926758e+04, 1.77836109e+05 ]
      - [ 0., 0., 0., 0., 0., 0., 0., 0., 0., 0., 0., 0., 0., 0., 0., 0.,
          7.73354370e+02, 4.46099586e+01, 3.10199402e+02, 6.15746045e+03,
          6.30019336e+03, 5.41522751e+01, 4.99564629e+01, 9.48683357e+00,
          7.06491089e+01, 5.27848892e+01, 2.68328171e+01, 2.19945313e+03,
          1.03581289e+04, 2.15667480e+02, 2.74147625e+01, 2.30668701e+02,
          6.00045801e+03, 2.68502686e+03, 3.62347485e+03, 2.32449268e+03,
          2.46256860e+03, 3.58364209e+03, 2.68266626e+03, 3.64240918e+03,
          4.25902686e+03, 3.24323242e+02, 1.05619789e+02, 8.98543243e+01,
          2.38323090e+02, 1.16287163e+02, 3.11484619e+02, 1.86101294e+03,
          4.09147438e+05, 8.74839141e+04, 1.68316234e+05, 1.77735703e+05,
          1.81334688e+05, 1.00943227e+05, 6.39584102e+04, 1.82181094e+05,
          4.28333656e+05, 8.38213281e+04, 1.75556656e+05, 1.48613266e+05,
          141391., 9.55152109e+04, 5.36113594e+04, 1.89272703e+05 ]
      - [ 0., 1.41421354e+00, 4.47213602e+00, 3.16227770e+00,
          2.54868336e+01, 8.94427204e+00, 8.48528099e+00, 3.16227770e+00,
          0., 0., 0., 0., 0., 0., 0., 0., 1.31104258e+04, 7.68243408e+02,
          1.74636646e+03, 5.44985645e+03, 5.38660596e+03, 1.10917923e+02,
          1.10816116e+02, 3.74683075e+01, 2.71559509e+02, 1.08627708e+02,
          1.07996666e+02, 1.72412695e+03, 9.42941211e+03, 1.36266650e+03,
          9.38810608e+02, 5.11634277e+03, 6.75942383e+03, 2.48623755e+03,
          3.40144971e+03, 1.63149878e+03, 1.52260034e+03, 3.45804834e+03,
          2.63925195e+03, 3.85754980e+03, 4.37383789e+03, 2.90206177e+02,
          1.06453445e+02, 4.81453705e+01, 1.86256149e+02, 8.07754440e+01,
          2.80490784e+02, 1.54682227e+03, 4.32830875e+05, 1.10671953e+05,
          1.71681938e+05, 1.23787953e+05, 1.88251328e+05, 1.96488078e+05,
          1.20759859e+05, 1.67276219e+05, 4.70243563e+05, 1.10950047e+05,
          1.96492125e+05, 1.05940141e+05, 1.41269578e+05, 1.97936047e+05,
          1.12925391e+05, 1.97925047e+05 ]
      - [ 0., 0., 0., 0., 0., 0., 0., 0., 0., 0., 0., 0., 0., 0., 0., 0.,
          2.07562012e+03, 1.02304602e+03, 2.50562695e+03, 5.32358301e+03,
          4.65884326e+03, 1.01621323e+02, 1.05964798e+02, 2.72349625e+01,
          6.69736633e+01, 7.28931808e+01, 1.18790131e+02, 1.90733801e+03,
          8.63970703e+03, 1.80771069e+03, 1.09262476e+03, 1.70230664e+03,
          6.82579395e+03, 2.53163550e+03, 3.03248730e+03, 1.14484290e+03,
          3.80231659e+02, 3.69911475e+03, 2.57319629e+03, 3.93469800e+03,
          4.21847559e+03, 2.59777710e+02, 6.73025055e+01, 7.49691086e+01,
          1.00257164e+02, 9.18975983e+01, 2.05835342e+02, 1.59131738e+03,
          3.43702344e+05, 1.02132563e+05, 1.26305375e+05, 1.10551172e+05,
          1.46497359e+05, 2.21697875e+05, 1.75842234e+05, 2.19684313e+05,
          3.71153375e+05, 1.06333617e+05, 1.35927844e+05, 6.93344297e+04,
          1.00705844e+05, 2.64199375e+05, 1.79495359e+05, 2.18646281e+05 ]
      - [ 0., 0., 0., 0., 0., 0., 0., 0., 0., 0., 0., 0., 0., 0., 0., 0.,
          3.99067047e+02, 1.03335498e+03, 2.64925781e+03, 5.32213770e+03,
          4.84122510e+03, 9.51997528e+01, 8.60002899e+01, 2.09104080e+01,
          8.14868317e+01, 8.10691605e+01, 1.55015549e+02, 1.83254675e+03,
          8.46010547e+03, 2.37751465e+03, 1.27923096e+03, 5.34342461e+01,
          6.83603662e+03, 2.56627319e+03, 3.13900977e+03, 1.13386938e+03,
          1.30110266e+03, 3.07059619e+03, 2.56145996e+03, 4.39040283e+03,
          4.19575000e+03, 2.15694962e+02, 7.28643951e+01, 5.64735527e+01,
          1.00649109e+02, 9.70388260e+01, 2.76513031e+02, 1.74034241e+03,
          3.91057375e+05, 1.23918328e+05, 1.52447859e+05, 1.11462539e+05,
          1.58093859e+05, 2.10946453e+05, 1.74513531e+05, 1.87816828e+05,
          4.12267063e+05, 1.27311164e+05, 1.73749828e+05, 9.32829844e+04,
          1.18520258e+05, 2.34823656e+05, 1.67174703e+05, 2.09553063e+05 ]
      - [ 0., 0., 0., 0., 0., 0., 0., 0., 0., 0., 0., 0., 0., 0., 0., 0.,
          2.74680811e+03, 3.53971100e+02, 1.82590369e+03, 6.34677002e+03,
          4.68962988e+03, 4.13049545e+01, 4.98440132e+01, 9.48683357e+00,
          1.09143753e+02, 5.64418411e+01, 5.15182114e+01, 1.69457947e+03,
          9.70646387e+03, 1.30353345e+03, 5.26233765e+02, 1.27971130e+03,
          6.47723730e+03, 2.61529883e+03, 3.78407031e+03, 1.77419373e+03,
          1.89274854e+03, 3.81800439e+03, 2.53912769e+03, 3.47252734e+03,
          4.11088721e+03, 2.67640686e+02, 9.82425232e+01, 9.90735474e+01,
          1.39001450e+02, 7.13983307e+01, 3.31602936e+02, 1.04122583e+03,
          4.31542063e+05, 9.69766406e+04, 1.79200406e+05, 1.31536828e+05,
          1.62719719e+05, 1.58573672e+05, 9.98937969e+04, 1.40436516e+05,
          4.53385188e+05, 1.11135945e+05, 2.41551641e+05, 1.04273234e+05,
          1.35227828e+05, 1.71338875e+05, 8.96318281e+04, 2.00159766e+05 ]
      - [ 0., 0., 0., 0., 0., 0., 0., 0., 0., 0., 0., 0., 0., 0., 0., 0.,
          1.69959265e+03, 7.37804565e+02, 2.31326001e+03, 6.11808252e+03,
          4.72986914e+03, 7.70969315e+01, 1.02731697e+02, 6.32455540e+00,
          8.63245544e+01, 1.03546890e+02, 8.20928497e+01, 2.03205579e+03,
          9.26885254e+03, 1.79267517e+03, 7.56473328e+02, 1.40342102e+03,
          6.51293945e+03, 2.70187549e+03, 3.07849731e+03, 1.42041248e+03,
          1.54494031e+03, 3.13317065e+03, 2.65214551e+03, 4.30425879e+03,
          4.06582251e+03, 2.62548309e+02, 4.34479065e+01, 2.65817184e+01,
          2.29419434e+02, 7.13516998e+01, 2.27669601e+02, 1.95435352e+03,
          3.72417500e+05, 9.49213281e+04, 1.22384375e+05, 1.14090891e+05,
          1.55655172e+05, 2.24176922e+05, 1.55782719e+05, 2.08253344e+05,
          3.92145688e+05, 1.02179016e+05, 1.45585047e+05, 6.91012656e+04,
          1.01056727e+05, 2.64798656e+05, 1.53050500e+05, 2.28234891e+05 ]
      - [ 0., 0., 0., 0., 3.51622772e+01, 4.47213602e+00, 7.07106781e+00,
          0., 0., 0., 0., 0., 0., 0., 0., 0., 1.82920313e+03,
          8.77537292e+02, 2.23151587e+03, 5.94368994e+03, 4.66561621e+03,
          1.21116020e+02, 6.74077530e+01, 2.36289692e+01, 8.43245544e+01,
          9.05894699e+01, 1.04943512e+02, 2.09029077e+03, 9.05697754e+03,
          1.77762183e+03, 7.92721680e+02, 1.45202466e+03, 7.16091895e+03,
          2.65203345e+03, 2.86886182e+03, 1.10451355e+03, 1.31950220e+03,
          2.69612842e+03, 2.81318213e+03, 4.39304102e+03, 4.56869092e+03,
          2.64030792e+02, 9.39148560e+01, 1.26491108e+01, 1.24649109e+02,
          1.02859131e+02, 2.72286560e+02, 1.93435632e+03, 4.79597219e+05,
          1.31880438e+05, 1.75308156e+05, 1.09217172e+05, 1.50735375e+05,
          1.92494672e+05, 1.44734563e+05, 1.57647969e+05, 4.81081031e+05,
          1.50875703e+05, 2.04933484e+05, 7.50765625e+04, 9.81720547e+04,
          1.64501313e+05, 1.21295711e+05, 2.21023359e+05 ]
      - [ 0., 0., 0., 0., 0., 0., 0., 0., 0., 0., 0., 0., 0., 0., 0., 0.,
          1.55627954e+03, 4.98201965e+02, 2.04454114e+03, 5.36985986e+03,
          4.93080469e+03, 4.29489975e+01, 9.80397263e+01, 6.32455540e+00,
          6.23245544e+01, 9.41586151e+01, 6.14764442e+01, 1.97802502e+03,
          8.70044727e+03, 1.53155774e+03, 6.71998413e+02, 1.16984741e+03,
          6.37169141e+03, 2.60096094e+03, 3.69597607e+03, 1.61769250e+03,
          1.63696643e+03, 3.81568579e+03, 2.51725684e+03, 3.91101807e+03,
          4.01225537e+03, 2.83715057e+02, 9.01691132e+01, 3.23692894e+01,
          1.81811386e+02, 1.17111046e+02, 2.46801270e+02, 1.53035242e+03,
          3.94230563e+05, 111092., 1.64341672e+05, 1.44148641e+05,
          1.95666641e+05, 1.96591313e+05, 1.32926859e+05, 1.81711141e+05,
          4.12269094e+05, 1.17275297e+05, 1.93995328e+05, 1.27794586e+05,
          1.60964969e+05, 2.39311063e+05, 1.36540516e+05, 1.90810891e+05 ]
      - [ 0., 0., 0., 0., 0., 0., 0., 0., 0., 0., 0., 0., 0., 0., 0., 0.,
          2.99519714e+02, 6.82582581e+02, 2.22341724e+03, 5.83637451e+03,
          4.83099463e+03, 5.23300323e+01, 7.86044159e+01, 1.26491108e+01,
          6.26491089e+01, 7.22046967e+01, 3.23606796e+01, 1.23206934e+03,
          9.35218262e+03, 2.35607739e+03, 7.50271301e+02, 5.95454712e+01,
          6.20960840e+03, 2.56543750e+03, 3.69713086e+03, 4.72607971e+02,
          1.41539050e+03, 3.06040356e+03, 2.50396606e+03, 4.17494238e+03,
          4.05996240e+03, 2.22361511e+02, 7.54924622e+01, 4.94641762e+01,
          2.00821198e+02, 6.57519302e+01, 2.32235245e+02, 1.95015613e+03,
          3.62800281e+05, 1.67919750e+05, 2.17694266e+05, 1.67703688e+05,
          2.13669609e+05, 7.05231016e+04, 6.33774766e+04, 1.53032438e+05,
          396809., 1.82509031e+05, 2.47212578e+05, 1.74526859e+05,
          1.93076313e+05, 3.96975664e+04, 4.32070273e+04, 1.39456672e+05 ]
      - [ 0., 0., 0., 0., 0., 0., 0., 0., 0., 0., 0., 0., 0., 0., 0., 0.,
          3.24516266e+02, 6.83366394e+02, 2.19599438e+03, 5.69726709e+03,
          4.84672852e+03, 5.84236145e+01, 9.67655487e+01, 1.26491108e+01,
          7.37481308e+01, 6.58269501e+01, 4.65364990e+01, 1.50582324e+03,
          8.92741504e+03, 2.39170361e+03, 7.57563843e+02, 7.21945801e+01,
          6.46213086e+03, 2.49580322e+03, 3.18479663e+03, 1.25713855e+03,
          1.42343457e+03, 3.03140112e+03, 2.56702319e+03, 4.00625830e+03,
          4.08519067e+03, 2.44754730e+02, 9.15582581e+01, 3.54526176e+01,
          1.15452621e+02, 9.19001999e+01, 2.76244019e+02, 1.65038806e+03,
          2.91529156e+05, 1.76014438e+05, 2.41292109e+05, 1.86702156e+05,
          2.24923297e+05, 6.26858477e+04, 5.84573984e+04, 1.49043406e+05,
          3.70192219e+05, 1.99145531e+05, 2.69992031e+05, 1.67468391e+05,
          1.96760766e+05, 4.38680195e+04, 4.31645781e+04, 1.62424781e+05 ]
      - [ 0., 0., 0., 0., 0., 0., 0., 0., 0., 0., 0., 0., 0., 0., 0., 0.,
          3.37569946e+03, 5.79177307e+02, 2.12510669e+03, 5.47797852e+03,
          4.62355225e+03, 7.84842987e+01, 3.46296120e+01, 2.16569214e+01,
          1.01486832e+02, 4.14711838e+01, 9.63728409e+01, 1.46072656e+03,
          9.10829102e+03, 1.57883240e+03, 6.02837524e+02, 1.72172986e+03,
          6.25326904e+03, 2.39824683e+03, 3.86093701e+03, 1.46462451e+03,
          1.44783887e+03, 3.66191333e+03, 2.69350757e+03, 3.80477417e+03,
          4.04052539e+03, 2.22662323e+02, 1.18595169e+02, 8.98548355e+01,
          1.39530273e+02, 1.14464981e+02, 2.72620300e+02, 1.63259631e+03,
          4.60825688e+05, 1.11706141e+05, 1.79176703e+05, 1.27948727e+05,
          1.84799172e+05, 1.74509641e+05, 1.17989609e+05, 1.60536016e+05,
          4.76719250e+05, 1.25202813e+05, 2.17986781e+05, 1.10525430e+05,
          1.35809313e+05, 2.10465266e+05, 1.28189422e+05, 1.74601297e+05 ]
      - [ 0., 0., 0., 0., 0., 0., 0., 0., 0., 0., 0., 0., 0., 0., 0., 0.,
          1.16839490e+03, 3.37184937e+02, 1.92043481e+03, 5.80428613e+03,
          5.52680273e+03, 1.00936600e+02, 3.86427574e+01, 1.26491108e+01,
          7.66491089e+01, 9.74657211e+01, 5.68628044e+01, 2.00583289e+03,
          9.85359961e+03, 1.24192932e+03, 5.18088501e+02, 1.03848755e+03,
          6.09792285e+03, 2.53785718e+03, 3.89430371e+03, 1.77471619e+03,
          1.81310156e+03, 3.97189966e+03, 2.60970142e+03, 3.46604224e+03,
          4.05140479e+03, 3.00429840e+02, 1.02381935e+02, 9.63038864e+01,
          1.57291046e+02, 9.13630981e+01, 2.92602631e+02, 1.55332410e+03,
          4.59138969e+05, 9.50794141e+04, 1.67396609e+05, 1.22358039e+05,
          1.50522906e+05, 1.62021297e+05, 1.01222930e+05, 1.48971359e+05,
          4.80535375e+05, 1.06209938e+05, 2.04594984e+05, 1.09327477e+05,
          1.29320898e+05, 1.75736938e+05, 9.58808438e+04, 1.88130016e+05 ]
      - [ 0., 1.41421354e+00, 4.47213602e+00, 3.16227770e+00,
          1.91622772e+01, 4.47213602e+00, 1.83847752e+01, 0., 0., 0., 0.,
          0., 0., 0., 0., 0., 3.10086517e+02, 6.90548767e+02,
          2.07299756e+03, 5.76412646e+03, 4.62554785e+03, 7.36183853e+01,
          6.03149490e+01, 1.77481308e+01, 9.77481308e+01, 7.86997223e+01,
          7.80905228e+01, 1.95870996e+03, 8.45183496e+03, 2.07933276e+03,
          8.03619812e+02, 4.74341660e+01, 6.56858154e+03, 2.55415552e+03,
          3.34845239e+03, 1.30956299e+03, 1.41398743e+03, 3.38225195e+03,
          2.51474048e+03, 4.14549268e+03, 4.43376563e+03, 2.52266663e+02,
          6.69261932e+01, 7.10014420e+01, 1.51001450e+02, 6.72681427e+01,
          2.74188965e+02, 2.03085352e+03, 4.29383656e+05, 1.30714422e+05,
          1.89651109e+05, 1.15216531e+05, 1.64143484e+05, 1.88867953e+05,
          1.31029094e+05, 1.63510953e+05, 4.73552469e+05, 1.25381844e+05,
          1.92124297e+05, 1.11803484e+05, 1.45560500e+05, 1.87542453e+05,
          1.26985250e+05, 2.06486313e+05 ]
      - [ 0., 0., 0., 0., 0., 0., 0., 0., 0., 0., 0., 0., 0., 0., 0., 0.,
          4., 6.83433990e+01, 8.40044800e+02, 5.78915283e+03,
          5.19938281e+03, 4.26462440e+01, 5.15447769e+01, 6.32455540e+00,
          5.43245544e+01, 3.99675102e+01, 3.84947205e+01, 2.38564795e+03,
          8.57499805e+03, 8.98840637e+02, 5.24765968e+01, 0.,
          5.57007568e+03, 2.50419092e+03, 4.31748828e+03, 2.45824731e+03,
          2.57638574e+03, 4.36560205e+03, 2.38821948e+03, 3.46506909e+03,
          3.94715649e+03, 3.20717255e+02, 1.32799774e+02, 1.10790451e+02,
          1.89815323e+02, 1.30719055e+02, 3.75930115e+02, 1.70109045e+03,
          4.64550563e+05, 6.40522188e+04, 8.22841875e+04, 1.33154813e+05,
          2.78556063e+05, 3.77366406e+05, 1.43443219e+05, 1.39831875e+05,
          5.15980656e+05, 4.51104648e+04, 6.81427500e+04, 1.15578523e+05,
          3.04379281e+05, 3.98024500e+05, 1.67946078e+05, 2.11091078e+05 ]
      - [ 0., 0., 0., 0., 0., 0., 0., 0., 0., 0., 0., 0., 0., 0., 0., 0.,
          4.43188972e+01, 1.32817062e+02, 1.26021619e+03, 5.42738770e+03,
          5.11350195e+03, 4.36159859e+01, 5.06449509e+01, 2.91717052e+01,
          3.66491089e+01, 3.03869705e+01, 6.46580200e+01, 1.67586853e+03,
          8.89914746e+03, 1.20208496e+03, 1.80279419e+02, 0.,
          5.61316357e+03, 2.41060132e+03, 4.00073022e+03, 2.10373218e+03,
          2.06460156e+03, 4.04463892e+03, 2.33035107e+03, 3.36515259e+03,
          4.00896997e+03, 3.36799500e+02, 1.01482964e+02, 7.47040939e+01,
          2.02256317e+02, 8.74602890e+01, 2.87836914e+02, 1.67989941e+03,
          3.63796031e+05, 5.99645859e+04, 7.61565391e+04, 1.30756625e+05,
          2.83594406e+05, 4.52847250e+05, 183316., 1.56163984e+05,
          4.12713531e+05, 4.55967813e+04, 6.18345313e+04, 1.09587453e+05,
          2.49476594e+05, 5.40054688e+05, 2.00092766e+05, 1.78790922e+05 ]
      - [ 0., 0., 0., 0., 0., 0., 0., 0., 0., 0., 0., 0., 0., 0., 0., 0.,
          9.07793555e+03, 5.11883636e+02, 1.90745557e+03, 5.30223242e+03,
          5.70267920e+03, 6.95111237e+01, 9.77221832e+01, 1.14235744e+01,
          9.45858536e+01, 8.14727554e+01, 5.01992950e+01, 2.06062866e+03,
          9.32391211e+03, 1.48164929e+03, 5.60079956e+02, 1.69829785e+03,
          6.70445459e+03, 2.66609644e+03, 2.95717334e+03, 1.34233374e+03,
          1.48881543e+03, 2.79784009e+03, 2.71948022e+03, 4.15122363e+03,
          4.68133936e+03, 2.64614716e+02, 9.19001999e+01, 3.54526176e+01,
          1.47452621e+02, 9.15582581e+01, 2.31310287e+02, 2.08954395e+03,
          6.66624938e+05, 1.64816859e+05, 2.38805203e+05, 1.37845094e+05,
          1.43819016e+05, 1.24977063e+05, 9.80719453e+04, 2.73654094e+05,
          6.71929125e+05, 1.69343797e+05, 2.44577016e+05, 1.10093039e+05,
          1.06776328e+05, 9.96853828e+04, 7.85788672e+04, 3.04579563e+05 ]
      - [ 0., 0., 0., 0., 0., 0., 0., 0., 0., 0., 0., 0., 0., 0., 0., 0.,
          4.10457581e+02, 7.61295898e+02, 2.25635474e+03, 6.31989893e+03,
          4.58309863e+03, 9.26593933e+01, 9.13151932e+01, 2.60447350e+01,
          9.06491089e+01, 7.11286774e+01, 1.15253052e+02, 2.09973145e+03,
          8.80167969e+03, 2.32157959e+03, 7.10200439e+02, 2.60179596e+02,
          6.85378516e+03, 2.82585938e+03, 2.57879199e+03, 1.24536597e+03,
          1.13166565e+03, 2.77488452e+03, 2.75709546e+03, 4.73238818e+03,
          4.34470264e+03, 2.70872345e+02, 9.83869934e+01, 1.26491108e+01,
          1.32649109e+02, 9.35729065e+01, 2.48039108e+02, 2.21475586e+03,
          3.63767406e+05, 7.38039297e+04, 7.49961328e+04, 1.44312766e+05,
          2.54914313e+05, 3.82849125e+05, 2.89071250e+05, 1.64583609e+05,
          4.13900156e+05, 9.57145547e+04, 1.10087273e+05, 1.08736141e+05,
          1.87833922e+05, 4.13486781e+05, 2.97284938e+05, 2.32802156e+05 ]
      - [ 0., 0., 0., 0., 0., 0., 0., 0., 0., 0., 0., 0., 0., 0., 0., 0.,
          1.09169121e+04, 2.14056671e+02, 1.50660229e+03, 5.48852832e+03,
          5.46762305e+03, 4.84798050e+01, 6.03149490e+01, 2.09104080e+01,
          4.66491089e+01, 7.91033173e+01, 5.46718979e+01, 2.07854883e+03,
          9.28973047e+03, 9.94191223e+02, 3.10431793e+02, 1.15743359e+03,
          6.28470605e+03, 2.52042212e+03, 3.51053638e+03, 1.75502417e+03,
          1.90487329e+03, 3.56728735e+03, 2.46209766e+03, 3.84973022e+03,
          4.10875879e+03, 2.53370987e+02, 8.87768250e+01, 5.97677498e+01,
          2.02514328e+02, 1.00844475e+02, 2.44869308e+02, 1.79171240e+03,
          5.75727250e+05, 1.50581188e+05, 2.72743875e+05, 1.70824734e+05,
          1.59072938e+05, 9.96770078e+04, 7.88377109e+04, 2.44125453e+05,
          5.87990625e+05, 1.57248063e+05, 3.10987188e+05, 1.48547922e+05,
          1.06363820e+05, 8.00706172e+04, 6.55571250e+04, 2.40728891e+05 ]
      - [ 0., 0., 0., 0., 0., 0., 0., 0., 0., 0., 0., 0., 0., 0., 0., 0.,
          1.06016907e+02, 3.99545654e+02, 1.64357947e+03, 5.54457275e+03,
          4.66708203e+03, 5.46721039e+01, 3.25269127e+01, 6.32455540e+00,
          1.03423576e+02, 4.38336945e+01, 4.71284485e+01, 1.56766895e+03,
          8.74472461e+03, 1.60745911e+03, 3.81762848e+02, 4.52679863e+01,
          6.72132764e+03, 2.52025439e+03, 3.31205078e+03, 1.47345386e+03,
          1.60452905e+03, 3.19336792e+03, 2.64523999e+03, 3.88545264e+03,
          4.14437109e+03, 2.24871582e+02, 9.63723373e+01, 4.17771721e+01,
          1.21777176e+02, 1.07774094e+02, 2.59361633e+02, 1.34058484e+03,
          3.58556844e+05, 7.22107578e+04, 7.57417891e+04, 1.42630172e+05,
          2.60018891e+05, 4.19340719e+05, 2.36762094e+05, 1.60125109e+05,
          3.90302594e+05, 5.54755977e+04, 6.71677344e+04, 7.73918984e+04,
          1.99111766e+05, 5.01480813e+05, 2.58689781e+05, 1.99431578e+05 ]
      - [ 0., 0., 0., 0., 0., 0., 0., 0., 0., 0., 0., 0., 0., 0., 0., 0.,
          8.67322852e+03, 2.02234390e+02, 1.21946460e+03, 5.85486328e+03,
          5.09889014e+03, 2.37120380e+01, 5.72016296e+01, 2.21359444e+01,
          4.46491089e+01, 5.21991997e+01, 4.98460770e+01, 1.64203406e+03,
          9.55368555e+03, 8.83995178e+02, 2.71802856e+02, 1.30049231e+03,
          5.81538623e+03, 2.20050439e+03, 4.14318604e+03, 1.92876489e+03,
          2.08764136e+03, 3.91873682e+03, 2.28481274e+03, 3.52587573e+03,
          3.88525806e+03, 2.84314270e+02, 9.05736084e+01, 4.56133461e+01,
          2.18514328e+02, 9.75032272e+01, 2.79133453e+02, 1.59144348e+03,
          5.71985500e+05, 1.40193297e+05, 2.72983406e+05, 1.71701828e+05,
          1.55965016e+05, 9.35746484e+04, 6.94880703e+04, 2.34055531e+05,
          5.75435438e+05, 1.44826563e+05, 3.25071469e+05, 1.61059344e+05,
          1.53494422e+05, 7.59598750e+04, 5.51084766e+04, 2.22621844e+05 ]
      - [ 0., 0., 0., 0., 0., 0., 0., 0., 0., 0., 0., 0., 0., 0., 0., 0.,
          2.88736176e+02, 6.85512695e+02, 2.24253345e+03, 6.29675391e+03,
          4.59068750e+03, 7.97890701e+01, 8.77610397e+01, 2.99535255e+01,
          9.34868317e+01, 5.87882843e+01, 8.05099335e+01, 1.91643481e+03,
          8.88823633e+03, 2.40293433e+03, 7.27338806e+02, 2.85142403e+01,
          6.72025879e+03, 2.65214551e+03, 3.13317065e+03, 1.50694031e+03,
          1.45841248e+03, 3.07849731e+03, 2.70187549e+03, 4.24093945e+03,
          4.22635352e+03, 2.27669601e+02, 7.13516998e+01, 2.34194412e+01,
          2.32581711e+02, 4.34479065e+01, 2.62548309e+02, 1.64982251e+03,
          3.50174875e+05, 7.34010547e+04, 7.45926484e+04, 1.61888203e+05,
          2.58419109e+05, 3.92666656e+05, 2.75402813e+05, 1.78140234e+05,
          3.87871500e+05, 8.24112422e+04, 9.78883047e+04, 1.02228859e+05,
          2.00853844e+05, 4.48698594e+05, 2.81514906e+05, 2.15779766e+05 ]
      - [ 0., 0., 0., 0., 0., 0., 0., 0., 0., 0., 0., 0., 0., 0., 0., 0.,
          7.22705261e+02, 1.57637561e+03, 2.38171704e+03, 4.73972559e+03,
          3.94565381e+03, 1.22032700e+02, 5.25553970e+01, 6.32455540e+00,
          1.39684875e+02, 4.02864647e+01, 1.26199982e+02, 1.64562573e+03,
          6.98555469e+03, 2.22923120e+03, 2.10512939e+03, 1.27337151e+02,
          6.57108447e+03, 2.45259863e+03, 3.67692432e+03, 7.91833679e+02,
          8.99183655e+02, 3.41634692e+03, 2.65971606e+03, 4.15092920e+03,
          4.10699268e+03, 1.88328293e+02, 9.38369370e+01, 7.58494415e+01,
          9.51096115e+01, 7.60475616e+01, 2.42715317e+02, 1.68233472e+03,
          4.56846406e+05, 1.12240609e+05, 1.21813656e+05, 1.25238836e+05,
          1.76766078e+05, 3.02757188e+05, 2.61510781e+05, 2.56899750e+05,
          5.13352625e+05, 1.22398352e+05, 1.48252375e+05, 7.95575938e+04,
          1.25642727e+05, 3.73480188e+05, 2.96069281e+05, 2.76810875e+05 ]
      - [ 0., 0., 0., 0., 0., 0., 0., 0., 0., 0., 0., 0., 0., 0., 0., 0.,
          1.20213848e+04, 9.18597595e+02, 2.31882861e+03, 5.58103271e+03,
          4.20124561e+03, 8.70149155e+01, 8.52105865e+01, 2.48191986e+01,
          4.63245544e+01, 8.38975906e+01, 8.42875671e+01, 1.78033655e+03,
          8.46749902e+03, 1.76644836e+03, 9.06012756e+02, 2.33530176e+03,
          6.29286035e+03, 2.43205249e+03, 3.48500146e+03, 1.47343359e+03,
          1.41202795e+03, 3.57324805e+03, 2.52303906e+03, 4.11101953e+03,
          3.88445923e+03, 2.83189606e+02, 8.09527664e+01, 6.64078293e+01,
          1.16945946e+02, 1.12995300e+02, 2.59551178e+02, 1.78916931e+03,
          6.51031563e+05, 1.76972641e+05, 2.38713125e+05, 1.95258484e+05,
          2.23130547e+05, 1.20407992e+05, 9.81491719e+04, 2.32118563e+05,
          6.46979938e+05, 2.09688453e+05, 2.85673438e+05, 1.76443250e+05,
          2.28396938e+05, 8.91110781e+04, 7.35148750e+04, 2.50592250e+05 ]
      - [ 0., 0., 0., 0., 0., 0., 0., 0., 0., 0., 0., 0., 0., 0., 0., 0.,
          7.34916382e+02, 1.93592981e+03, 2.30804028e+03, 4.64414063e+03,
          3.90419946e+03, 1.10820107e+02, 8.48044357e+01, 1.58113890e+01,
          7.98113861e+01, 9.32897186e+01, 1.11472267e+02, 1.76419434e+03,
          6.70597314e+03, 2.30927759e+03, 2.27969946e+03, 1.38675171e+02,
          7.25469385e+03, 2.95913037e+03, 3.37937427e+03, 6.35878906e+03,
          8.38495898e+03, 3.38903003e+03, 2.97409277e+03, 5.00345068e+03,
          4.16636377e+03, 2.83570343e+02, 8.03294067e+01, 5.48858032e+01,
          2.13487991e+02, 7.38007507e+01, 2.61188782e+02, 1.97412732e+03,
          4.58705375e+05, 1.18626289e+05, 1.22355945e+05, 1.12676750e+05,
          1.48688484e+05, 2.78824375e+05, 2.65210406e+05, 2.45768547e+05,
          5.12634188e+05, 1.35520563e+05, 1.41761328e+05, 8.25679922e+04,
          1.20477156e+05, 325928., 2.92028531e+05, 2.85143688e+05 ]
      - [ 0., 0., 0., 0., 0., 0., 0., 0., 0., 0., 0., 0., 0., 0., 0., 0.,
          2.91523584e+03, 1.98752905e+03, 2.17871143e+03, 4.78371826e+03,
          3.88574121e+03, 1.46015305e+02, 6.14368134e+01, 6.32455540e+00,
          1.20072685e+02, 8.94277420e+01, 1.18038033e+02, 1.91466797e+03,
          7.19457275e+03, 2.03753247e+03, 1.51705652e+03, 2.23905737e+03,
          6.94906543e+03, 2.72184473e+03, 2.64795435e+03, 9.52188477e+02,
          1.01786395e+03, 2.64348218e+03, 2.73174414e+03, 4.60790283e+03,
          4.30984619e+03, 2.38420395e+02, 5.01282539e+01, 4.02523727e+01,
          1.40252380e+02, 5.01282539e+01, 2.38420395e+02, 1.97184631e+03,
          4.29609406e+05, 1.17498422e+05, 1.18114430e+05, 1.23249414e+05,
          1.68432625e+05, 3.02668313e+05, 2.84200781e+05, 2.88762750e+05,
          4.87662563e+05, 1.08248141e+05, 1.28668820e+05, 6.46908281e+04,
          1.03875055e+05, 357401., 3.09244188e+05, 2.99427094e+05 ]
      - [ 0., 0., 0., 0., 0., 0., 0., 0., 0., 0., 0., 0., 0., 0., 0., 0.,
          3.30413379e+03, 2.11118994e+03, 2.64007983e+03, 4.87070996e+03,
          4.75514551e+03, 1.09224327e+02, 1.19885185e+02, 4.02523727e+01,
          1.02649109e+02, 9.69348068e+01, 1.29654510e+02, 2.21905615e+03,
          7.84293311e+03, 2.50021313e+03, 1.71456787e+03, 2.51964600e+03,
          1.40962090e+04, 5.48987158e+03, 5.42753564e+03, 1.72090662e+03,
          1.77699158e+03, 5.52226514e+03, 5.38789941e+03, 8.91320801e+03,
          8.79311035e+03, 4.18526154e+02, 1.31665665e+02, 7.09472961e+01,
          2.49122665e+02, 1.06179832e+02, 4.53449402e+02, 3.53597607e+03,
          7.11413875e+05, 1.42136063e+05, 1.45029891e+05, 9.56325703e+04,
          1.29593469e+05, 1.65027797e+05, 1.50591828e+05, 2.36671156e+05,
          7.43512625e+05, 1.87333828e+05, 2.00165781e+05, 7.08907188e+04,
          1.05374922e+05, 1.79623656e+05, 1.40277766e+05, 3.19580938e+05 ]
      - [ 0., 0., 0., 0., 0., 0., 0., 0., 0., 0., 0., 0., 0., 0., 0., 0.,
          1.15647471e+04, 1.30017261e+03, 2.35210693e+03, 5.14596191e+03,
          4.36932764e+03, 1.34193710e+02, 4.97269707e+01, 9.48683357e+00,
          1.41628967e+02, 4.46478043e+01, 1.09612862e+02, 2.16358179e+03,
          7.88624512e+03, 1.98071033e+03, 1.22630261e+03, 2.58188647e+03,
          6.00734082e+03, 2.53494727e+03, 3.56456226e+03, 1.04623425e+03,
          9.78595337e+02, 3.51389648e+03, 2.62846265e+03, 4.00757153e+03,
          4.04484985e+03, 2.60228027e+02, 7.62903366e+01, 8.01388016e+01,
          7.89736633e+01, 9.68665771e+01, 2.61595123e+02, 1.95999377e+03,
          6.95441063e+05, 1.85610344e+05, 2.27741578e+05, 1.68022672e+05,
          2.00389625e+05, 1.19294109e+05, 1.02447602e+05, 2.46263219e+05,
          6.39611500e+05, 2.16317156e+05, 2.56047828e+05, 1.67268766e+05,
          1.91165422e+05, 9.03336641e+04, 7.60800859e+04, 2.19738688e+05 ]
      - [ 0., 0., 0., 0., 0., 0., 0., 0., 0., 0., 0., 0., 0., 0., 0., 0.,
          3.08047339e+03, 2.21033081e+03, 2.43045679e+03, 4.39640869e+03,
          4.27358838e+03, 1.21188766e+02, 1.11039703e+02, 9.48683357e+00,
          8.43245544e+01, 1.15881371e+02, 1.42365753e+02, 1.62908740e+03,
          7.66852393e+03, 2.29187939e+03, 1.52665112e+03, 2.52316113e+03,
          1.51137451e+04, 5.33571387e+03, 4.34523096e+03, 1.44678320e+03,
          1.60676208e+03, 4.01297925e+03, 5.63634473e+03, 1.00083271e+04,
          8.64310742e+03, 4.19584534e+02, 7.86679688e+01, 9.26120453e+01,
          2.40785049e+02, 1.06857063e+02, 3.85320435e+02, 3.61896948e+03,
          665873., 1.56891016e+05, 1.39487156e+05, 9.65882891e+04,
          1.36709297e+05, 156326., 1.53058219e+05, 2.29850859e+05,
          705821., 1.98361516e+05, 1.82772563e+05, 6.45451641e+04,
          9.68220234e+04, 1.67998844e+05, 1.48116406e+05, 3.07082656e+05 ]
      - [ 0., 0., 0., 0., 0., 0., 0., 0., 0., 0., 0., 0., 0., 0., 0., 0.,
          2.88195776e+03, 1.99628345e+03, 2.28263916e+03, 4.71763916e+03,
          3.72495093e+03, 1.24766808e+02, 5.97435074e+01, 1.77263088e+01,
          1.21356186e+02, 5.13706779e+01, 1.29997955e+02, 1.77817310e+03,
          7.19430420e+03, 2.00444531e+03, 1.64052722e+03, 2.17988379e+03,
          6.83353857e+03, 2.62039868e+03, 2.91267700e+03, 9.21198730e+02,
          9.86874207e+02, 2.90820483e+03, 2.63029810e+03, 4.55237646e+03,
          4.32078271e+03, 2.56451233e+02, 5.71035500e+01, 5.31661568e+01,
          1.37166153e+02, 5.71035500e+01, 2.56451233e+02, 2.04278271e+03,
          4.11231344e+05, 1.19086906e+05, 1.20094555e+05, 1.27983078e+05,
          1.67715234e+05, 2.91664094e+05, 2.80614250e+05, 3.02249063e+05,
          4.87887813e+05, 1.09917586e+05, 1.29054367e+05, 8.93236016e+04,
          1.34423672e+05, 3.49719844e+05, 3.15540938e+05, 3.20534750e+05 ]
      - [ 0., 0., 0., 0., 0., 0., 0., 0., 0., 0., 0., 0., 0., 0., 0., 0.,
          1.54323408e+04, 1.03699316e+03, 2.27060840e+03, 5.77924512e+03,
          4.89161865e+03, 1.58441315e+02, 4.86205788e+01, 1.26491108e+01,
          9.11096115e+01, 9.71078949e+01, 6.59699173e+01, 1.98334534e+03,
          9.03313770e+03, 1.96156567e+03, 1.10603503e+03, 2.81165210e+03,
          6.85473438e+03, 2.50131030e+03, 3.71667139e+03, 1.44081226e+03,
          1.41617322e+03, 3.67735547e+03, 2.73508862e+03, 4.09873828e+03,
          4.15834570e+03, 2.73619446e+02, 1.00995438e+02, 4.23931046e+01,
          1.95424667e+02, 5.71054764e+01, 2.91948914e+02, 1.55398303e+03,
          5.97930375e+05, 1.93028125e+05, 2.75786625e+05, 1.93261422e+05,
          2.31727375e+05, 1.08835258e+05, 9.05914922e+04, 2.55126563e+05,
          5.78525125e+05, 2.31324344e+05, 3.37509781e+05, 1.85446922e+05,
          2.10790188e+05, 8.01857891e+04, 6.46194297e+04, 2.46822266e+05 ]
   decision_functions:
      -
         sv_count: 1
         rho: -1.1762480612531187e+01
         alpha: [ 1. ]
         index: [ 0 ]
      -
         sv_count: 1
         rho: -6.0691729945819883e+00
         alpha: [ 1. ]
         index: [ 1 ]
      -
         sv_count: 1
         rho: -3.1473420463579389e+00
         alpha: [ 1. ]
         index: [ 2 ]
      -
         sv_count: 1
         rho: -2.8427694118350688e+00
         alpha: [ 1. ]
         index: [ 3 ]
      -
         sv_count: 1
         rho: -1.4545629590700678e+01
         alpha: [ 1. ]
         index: [ 4 ]
      -
         sv_count: 1
         rho: -7.3523103436682664e+00
         alpha: [ 1. ]
         index: [ 5 ]
      -
         sv_count: 1
         rho: -4.7481446852957099e+00
         alpha: [ 1. ]
         index: [ 6 ]
      -
         sv_count: 1
         rho: -1.4774604319406263e+01
         alpha: [ 1. ]
         index: [ 7 ]
      -
         sv_count: 1
         rho: -8.8220874720682474e+00
         alpha: [ 1. ]
         index: [ 8 ]
      -
         sv_count: 1
         rho: -1.7274821638495887e+01
         alpha: [ 1. ]
         index: [ 9 ]
