%YAML:1.0
---
opencv_ml_svm:
   format: 3
   svmType: C_SVC
   kernel:
      type: LINEAR
   C: 2.6699999999999999e+00
   term_criteria: { epsilon:1.1920928955078125e-07, iterations:1000 }
   var_count: 128
   class_count: 5
   class_labels: !!opencv-matrix
      rows: 5
      cols: 1
      dt: i
      data: [ 1, 2, 3, 4, 5 ]
   sv_total: 10
   support_vectors:
      - [ -6.15208507e-01, -8.64762723e-01, -1.80594528e+00,
          -5.28076351e-01, -1.50513686e-02, -1.12895975e-02,
          -7.76072860e-01, -1.40286744e+00, -1.12872601e+00,
          -2.23894846e-02, -8.74891222e-01, -1.38890278e+00,
          -1.29769313e+00, 2.08572441e-04, 1.15376152e-01,
          -6.33798122e-01, -4.14561093e-01, 9.39011499e-02,
          2.00889453e-01, -1.56229258e-01, -1.21156824e+00,
          -1.08323647e-02, 1.12670718e-03, -4.84986246e-01,
          -2.44822465e-02, -1.10679901e+00, -1.67763054e+00,
          -3.48391056e-01, -1.69779900e-02, 3.18839520e-01,
          1.13541007e-01, -7.13201463e-02, 6.13250732e-01,
          9.98120382e-02, 8.69125873e-02, -4.80938777e-02,
          3.97205586e-03, -2.57863343e-04, -1.48801398e+00,
          -1.41108096e+00, -8.98405075e-01, 2.35605240e+00,
          1.88213885e+00, -1.26207709e+00, -5.43111742e-01,
          -1.06181875e-02, -3.61493468e-01, -9.95783329e-01,
          -1.33168674e+00, -2.50587583e-01, 6.62598610e-01,
          -7.77120113e-01, -7.47510910e-01, 9.54578817e-02,
          1.15664609e-01, -4.39873129e-01, -3.93976420e-01,
          -1.52282283e-01, 4.50780764e-02, -8.83925706e-02,
          -1.45225763e+00, -8.33956599e-01, -1.88064083e-01,
          -2.72555500e-02, -2.24271715e-01, 1.02027357e+00,
          1.33802342e+00, 2.51931082e-02, -1.08229760e-02,
          3.12607326e-02, 9.81630027e-01, -5.26815951e-01,
          -1.22865058e-01, 4.23075765e-01, 6.95494749e-03,
          -8.83465931e-02, -1.56185523e-01, -1.74091950e-01,
          -2.64513511e-02, -2.09461942e-01, -1.18148506e-01,
          2.30399191e-01, 9.26955760e-01, 1.31216621e+00, 1.98841199e-01,
          2.59939674e-02, -1.38587862e-01, -4.24386188e-02,
          -5.19227795e-03, 6.25589669e-01, 5.93369603e-01,
          9.57584083e-02, -2.40560770e-01, -1.14008926e-01,
          1.09373629e-01, -4.68680169e-03, 2.90389180e-01,
          2.97355086e-01, 7.84885436e-02, 1.93735752e-02, 7.17241019e-02,
          2.66655862e-01, 1.03038752e+00, 3.79335433e-01,
          -4.85478975e-02, -1.69612244e-02, 9.84026119e-02,
          7.38149451e-04, -1.05456434e-01, -2.64930397e-01,
          -1.57790735e-01, -2.46485278e-01, -5.94429374e-02,
          -1.83886825e-03, -3.47794890e-02, 3.90650034e-01,
          3.97178859e-01, 3.35172057e-01, 3.62021825e-03,
          -4.97882674e-03, 2.34134728e-03, -1.44051737e-03,
          2.32744262e-01, 2.04866946e-01, 4.24409539e-01, 5.64391613e-01,
          8.58341008e-02, 7.32259173e-03 ]
      - [ -7.50259236e-02, -1.22755364e-01, -4.76034105e-01,
          -5.15974641e-01, -1.23653561e-02, -2.32863473e-03,
          -1.39855325e-01, -2.90099740e-01, -5.58261514e-01,
          2.85522286e-02, 2.88944058e-02, -4.95526195e-01,
          -1.21537948e+00, 2.14919169e-03, 2.30692122e-02,
          -2.80021846e-01, -2.67144173e-01, -3.29574108e-01,
          5.19699492e-02, 7.43689388e-02, 4.79033679e-01,
          -3.57271201e-05, 1.68212806e-03, 6.15793057e-02,
          7.90000319e-01, 3.64855707e-01, -3.79137188e-01,
          -3.11098874e-01, 4.20552194e-01, 1.54609308e-01,
          2.09183484e-01, 1.22220004e-02, 1.98007867e-01,
          -9.44582522e-02, 4.40217294e-02, -1.64837375e-01,
          -1.08847430e-03, -1.81224110e-04, -3.19740444e-01,
          -7.39937723e-01, -4.45706338e-01, 8.12795579e-01,
          7.88990617e-01, -6.76066756e-01, -1.04131055e+00,
          -1.05997883e-02, 3.40311825e-02, -4.51295711e-02,
          -5.28880417e-01, 4.23058569e-01, 1.27536729e-01,
          1.44325122e-01, -2.64205873e-01, -6.15304746e-02,
          2.78685242e-03, 7.69081786e-02, -6.63758337e-01,
          -4.20373887e-01, -2.62533814e-01, -8.04068521e-03,
          3.36539090e-01, 2.83560067e-01, -1.08798407e-01,
          -2.63005844e-03, -1.64553106e-01, 1.01102138e+00,
          6.57905519e-01, -8.86711664e-03, -2.97199395e-02,
          -4.26641218e-02, 3.77895832e-01, -5.48840128e-02,
          -1.03297327e-02, 1.28110766e-01, 8.95976499e-02,
          -5.18876724e-02, -2.71449145e-02, 2.67808717e-02,
          8.90676677e-02, -7.61967078e-02, -2.72510678e-01,
          -5.16641676e-01, 1.24938168e-01, 1.68299451e-01,
          -2.27032050e-01, 1.84465617e-01, 8.28621089e-02,
          -8.58755549e-04, -2.29980528e-01, -1.10940540e+00,
          1.19267380e+00, 4.01363909e-01, -8.77761006e-01,
          -5.01425564e-01, -8.95747077e-03, -9.14668199e-03,
          3.57862823e-02, 8.93021151e-02, 4.44448255e-02,
          -2.47364677e-02, 4.30922210e-02, 1.36556599e-04,
          6.07123971e-01, 3.17829698e-01, -6.66169077e-02,
          -1.01359952e-02, 4.12270762e-02, 1.78771615e-02,
          -3.96552421e-02, -2.50928789e-01, 9.28659365e-03,
          -8.43574032e-02, -1.97915789e-02, -3.28845769e-01,
          -1.10644922e-01, 2.36873135e-01, 2.06629351e-01,
          -3.01369458e-01, 8.97309780e-02, 1.82265062e-02,
          -1.00248652e-02, -6.72538532e-04, -5.17429668e-04,
          6.09350428e-02, 3.34968060e-01, 7.79476315e-02, 8.19712281e-02,
          8.51117820e-03 ]
      - [ -1.69484019e-01, -4.68523830e-01, -8.02584231e-01,
          -1.81313038e-01, -8.00369158e-02, 0., -6.59039197e-03,
          -1.31011054e-01, -3.49753529e-01, -2.39361241e-01,
          -1.98352233e-01, -7.99484611e-01, -8.69129479e-01,
          -5.37365442e-03, 9.83864889e-02, 4.98598143e-02,
          -6.76318526e-01, -1.91598013e-01, -1.46775827e-01,
          9.19127539e-02, -2.41991580e-01, -2.22714804e-02,
          -3.61630926e-03, -4.58176553e-01, -2.49384586e-02,
          -2.63657887e-02, -2.28475869e-01, -1.77280113e-01,
          3.26193064e-01, 1.95950642e-01, 7.92886093e-02,
          -8.70392323e-02, -8.49355906e-02, 3.79390419e-01,
          -3.15120578e-01, -7.30580747e-01, -4.96449113e-01,
          -1.06755586e-03, -6.62121952e-01, -8.64107847e-01,
          -3.84443313e-01, 8.21664035e-01, 7.69905269e-01,
          -8.63826990e-01, -4.69923258e-01, -9.40706953e-03,
          1.59201454e-02, -5.57220042e-01, 3.26697296e-03,
          5.90151809e-02, 1.92795888e-01, 1.22579731e-04,
          -1.31851330e-01, 6.67742714e-02, 2.74854768e-02,
          -1.17005490e-01, -2.68251926e-01, -6.73554093e-02,
          1.50711630e-02, -4.10730094e-02, -1.73335403e-01,
          -1.76645488e-01, -6.93984404e-02, -1.31608313e-03,
          1.68132111e-01, 1.12308633e+00, 1.59023479e-01,
          -7.34832808e-02, -1.60620420e-03, 1.95996463e-02,
          -4.53090280e-01, -1.96756721e-01, -9.06194299e-02,
          2.36159429e-01, -1.90404907e-01, -1.59100890e-01,
          1.32138748e-03, 5.55981472e-02, -3.70591342e-01,
          -4.19595033e-01, -6.67150021e-02, -2.98718922e-02,
          2.81794429e-01, 1.59303501e-01, 2.46592611e-01, 2.67672213e-03,
          2.09238306e-02, -4.00282405e-02, 2.32192827e-03,
          -4.36784923e-02, 7.14151263e-01, -7.74251064e-03,
          -3.54596460e-03, 2.14048848e-03, 3.98675799e-02,
          5.42317750e-03, 1.49437472e-01, 1.17796563e-01, 4.56253849e-02,
          1.26125077e-02, 2.57473197e-02, 3.03196032e-02, 1.30709088e+00,
          3.31354320e-01, 7.08168373e-02, -1.44488621e-03,
          5.59158325e-02, 2.96468548e-02, -7.02106673e-03,
          -4.59810086e-02, -4.64437336e-01, -1.40347749e-01,
          -9.52703059e-02, 4.71797353e-03, 6.15352346e-03,
          1.24844879e-01, 2.07284570e-01, 1.13738373e-01,
          -2.08265707e-01, -3.88116241e-02, 6.72709430e-03,
          2.44816486e-03, 6.24866262e-02, 5.84950522e-02, 1.24252819e-01,
          4.14003491e-01, 9.47120562e-02, 1.39492005e-03 ]
      - [ -4.99232113e-01, -2.47356281e-01, -5.65111399e-01,
          -2.85055310e-01, -1.06415004e-01, 0., -1.41809266e-02,
          -3.51428986e-01, -4.61452037e-01, -1.71136156e-01,
          -8.56470615e-02, -4.90596712e-01, -8.25817406e-01,
          -1.23876864e-02, 4.43316437e-02, -7.06169084e-02,
          -6.54592738e-02, -3.93255502e-01, -1.09856039e-01,
          -1.32554367e-01, 4.70463671e-02, -1.28659175e-03,
          -7.25557469e-03, 4.11169566e-02, 4.51461464e-01,
          8.27327073e-02, -1.38739213e-01, -1.13613017e-01,
          3.32303703e-01, 7.78167695e-02, 1.22387893e-01, 2.35841100e-04,
          -3.93290251e-01, 2.68273085e-01, -2.70819038e-01,
          -5.85567892e-01, -4.89479333e-01, 3.29816918e-04,
          -2.08304629e-01, -7.43289649e-01, -2.36066282e-01,
          6.45718396e-01, 7.57479668e-01, -6.59668565e-01,
          -5.19108057e-01, -2.92650517e-02, 6.57870919e-02,
          1.06095448e-01, 2.60463413e-02, 1.36660740e-01, 1.39863983e-01,
          3.63390334e-02, -1.23260349e-01, -7.12515041e-02,
          5.76251792e-03, -4.65660542e-02, -4.79678482e-01,
          -1.29464731e-01, -1.26751974e-01, 3.11755370e-02,
          -4.26360741e-02, 1.83221489e-01, -7.27665275e-02,
          1.14942889e-03, 1.35978892e-01, 9.71016824e-01, 4.76833194e-01,
          -1.53995901e-01, -2.36321688e-02, 1.52904857e-02,
          -1.93295643e-01, -2.32084081e-01, -2.39568134e-03,
          1.37763292e-01, -2.14531142e-02, -8.79874825e-02,
          1.79150456e-03, 2.93458290e-02, -4.87984009e-02,
          -2.40697607e-01, -5.18445112e-02, -2.72891045e-01,
          2.63370007e-01, 1.53277228e-02, -3.06487177e-03,
          -1.85835995e-02, 5.63070029e-02, 6.52552070e-03,
          -2.54259199e-01, -5.22739708e-01, 8.53638887e-01,
          1.70843005e-01, -5.05376160e-01, -4.38092053e-02,
          1.90667696e-02, 2.21389323e-03, -1.85312867e-01,
          7.15015456e-02, 3.24871317e-02, 4.71150223e-03, 1.29774222e-02,
          1.15602789e-02, 1.04533219e+00, 2.46957883e-01, 2.79722437e-02,
          -1.00664981e-03, 2.73443423e-02, 2.39948332e-02,
          -5.51856719e-02, -2.41435155e-01, -1.14096202e-01,
          -2.78154075e-01, -2.63422430e-02, -2.87496150e-01,
          -8.39792490e-02, 1.79251894e-01, 1.75818726e-01,
          -4.99772206e-02, 1.45234410e-02, 1.02919145e-02,
          2.95131654e-03, -5.64684579e-03, 9.19211283e-03,
          3.85853313e-02, 1.42757669e-01, 7.18153119e-02, 7.36445114e-02,
          5.49891172e-03 ]
      - [ -8.99279192e-02, 2.49707669e-01, 2.08838522e-01,
          -4.68242288e-01, 3.27457162e-03, 1.03129325e-02,
          2.19352365e-01, 2.00974375e-01, -3.63579601e-01,
          9.28284600e-03, 4.30848718e-01, 1.66915264e-02,
          -9.94883060e-01, 5.49244415e-03, 5.84650412e-03,
          -1.79982841e-01, -7.04279989e-02, -5.13421655e-01,
          2.19494347e-02, 5.76170802e-01, 6.86950982e-01, 4.07245150e-03,
          5.41091012e-03, 3.96593213e-01, 1.36666489e+00, 1.12145221e+00,
          3.43911827e-01, -3.64285916e-01, 4.87232417e-01,
          1.46420389e-01, 2.85948157e-01, 9.01326723e-03, 6.62735924e-02,
          1.44302458e-01, -2.89836563e-02, -4.19963628e-01,
          -1.46182235e-02, 2.54101565e-06, -6.38222545e-02,
          -2.72565991e-01, -3.56182486e-01, -3.70801240e-02,
          4.80837971e-01, 4.75562923e-02, -1.27463996e+00,
          -1.05102323e-02, 1.89080760e-01, -3.99235129e-01,
          7.10017383e-01, 7.41537988e-01, 4.76456657e-02, 6.24027364e-02,
          -8.00819173e-02, -2.45952025e-01, 1.21753067e-02,
          6.75997555e-01, -1.35630965e+00, -8.00155938e-01,
          -5.32516778e-01, 1.08434625e-01, 1.28067744e+00,
          8.02756131e-01, -1.35329127e-01, 7.52716977e-03,
          -3.34461749e-01, 7.61970818e-01, 7.17657432e-02,
          -7.67095294e-03, -3.86902317e-02, -6.26837537e-02,
          7.15157241e-02, 2.82912642e-01, -6.34451583e-02,
          1.77939609e-01, 1.16829112e-01, -1.17806673e-01,
          -3.75132039e-02, 8.60092267e-02, 2.27413788e-01,
          1.06878787e-01, -3.78320724e-01, -1.13798523e+00,
          2.71650255e-02, -1.47828966e-01, -2.72143841e-01,
          -3.97904851e-02, 1.89808533e-01, 5.17647527e-02,
          -3.23127836e-01, -1.88505888e+00, 1.60018253e+00,
          4.94300127e-01, -1.49472201e+00, -6.94485009e-01,
          -1.39104435e-02, -1.53449653e-02, -1.72612205e-01,
          1.11994008e-02, -7.07946066e-03, -6.14140648e-03,
          3.83655950e-02, 5.06049246e-02, 3.38917226e-01, 3.92148435e-01,
          2.24682614e-02, 2.70810444e-02, 1.09569514e-02,
          -1.88662745e-02, -1.61211759e-01, -3.66829574e-01,
          2.58367240e-01, 4.99052810e-04, -3.98772545e-02,
          -5.95463157e-01, -1.58030421e-01, 1.43336371e-01,
          -3.42968196e-01, -3.78021449e-01, 1.13706701e-01,
          4.45471331e-02, -6.46564923e-03, 1.79839472e-03,
          9.06628296e-02, 3.29589278e-01, 5.05305827e-01,
          -1.39918223e-01, 4.66476083e-02, 9.94980522e-03 ]
      - [ -1.04818612e-01, -1.89177349e-01, 2.76058942e-01,
          1.14166833e-01, -5.86559996e-02, 4.04949766e-03,
          8.16273510e-01, 2.17299491e-01, -3.56299073e-01,
          -4.03746396e-01, -4.88503352e-02, -2.84274578e-01,
          -1.12101483e+00, -2.89023318e-03, 6.53589494e-04,
          1.93706676e-01, -1.24248302e+00, -7.42056012e-01,
          -5.16251683e-01, -1.62063748e-01, -4.11530972e-01,
          -5.99701516e-02, 2.64889672e-02, -7.00250626e-01,
          -1.44870058e-02, -1.47434175e-02, -1.32187987e-02,
          -5.74715376e-01, -2.60595798e-01, 1.26295239e-01,
          1.97521657e-01, -4.20121878e-01, -3.98287624e-02,
          9.89047348e-01, -1.42694962e+00, -2.03133297e+00,
          -1.10995328e+00, -3.12006730e-03, -1.58190578e-01,
          -9.17317927e-01, -7.35366642e-01, 2.28760228e-01,
          1.43469632e+00, -3.41359049e-01, -8.08446527e-01,
          -5.93183329e-03, 5.23119211e-01, -8.87591362e-01,
          9.35620666e-01, 7.73901492e-02, 2.74043024e-01, 1.90062925e-01,
          9.96574089e-02, -4.34878543e-02, 2.36018468e-02,
          4.27656233e-01, -6.10153854e-01, -1.85440004e-01,
          3.94105501e-02, 1.55625537e-01, 2.24087343e-01,
          -1.76537097e-01, -1.00275159e-01, -4.36781533e-02,
          3.71235102e-01, 1.86182082e+00, -4.66325313e-01,
          -2.45844975e-01, 6.53837109e-03, 2.61937324e-02,
          -1.31421161e+00, -6.22353733e-01, 6.93196505e-02,
          7.43323326e-01, -5.66596150e-01, -2.53432959e-01,
          2.38629412e-02, 1.03114240e-01, -6.95474029e-01,
          -5.78755260e-01, 1.85710415e-02, 2.29252577e-01,
          3.32164675e-01, 4.99816746e-01, 1.58428162e-01, 2.76819617e-02,
          4.41662520e-02, -8.22455510e-02, -3.41292913e-03,
          6.88724145e-02, 1.09795916e+00, 1.04913972e-01,
          -1.73730493e-01, 3.88673395e-02, 9.71420780e-02,
          -8.31182022e-03, -7.80846700e-02, 1.08150868e-02,
          6.01760298e-03, 5.66176511e-02, 4.47358675e-02, 3.06034256e-02,
          1.39187241e+00, 4.68584239e-01, 4.37785715e-01, 4.56375517e-02,
          2.94122007e-02, 6.12801425e-02, -5.32436790e-03,
          -1.38548747e-01, -5.46685420e-03, -2.29589373e-01,
          -1.91344962e-01, 1.83006395e-02, 2.88133956e-02,
          1.27420008e-01, 1.75479293e-01, 4.13756669e-01,
          -3.86735916e-01, -2.36856163e-01, 5.21660689e-03,
          -6.39050500e-03, 4.66915555e-02, 2.80729711e-01,
          2.02986553e-01, 8.19815040e-01, -1.55645898e-02,
          -2.74337432e-03 ]
      - [ -7.56169021e-01, 7.01170713e-02, 1.61432564e-01,
          -1.73337013e-01, -6.58066645e-02, 8.54305737e-03,
          4.02233869e-01, -1.62206337e-01, -3.34961206e-01,
          -2.42482096e-01, 2.06208810e-01, -4.17690933e-01,
          -9.33605373e-01, -1.93247907e-02, -5.66338076e-06,
          -2.21636996e-01, -9.21883881e-02, -5.56861222e-01,
          -4.19108987e-01, -1.03740014e-01, 1.57595947e-01,
          7.16250483e-03, -1.19641656e-02, 3.24669778e-01,
          6.73856854e-01, 5.76099157e-01, 1.59733787e-01,
          -8.84487554e-02, 4.44384724e-01, 8.91662538e-02,
          1.65195048e-01, 7.52591901e-03, -7.23471522e-01,
          7.32920408e-01, -5.19655466e-01, -1.03766322e+00,
          -8.53578448e-01, -1.97127042e-03, 4.23142642e-01,
          -7.96891272e-01, -2.08320975e-01, 1.45404898e-02,
          9.61025119e-01, 1.30889937e-01, -6.12849653e-01,
          -6.25531524e-02, 1.77058727e-01, 7.09842145e-02,
          9.18339610e-01, 1.48074433e-01, -1.01768086e-02,
          6.54538348e-02, -7.65909851e-02, -2.09057838e-01,
          -7.93423783e-03, 3.42110693e-01, -8.52854192e-01,
          -1.73646554e-01, -2.04339698e-01, 4.89177443e-02,
          4.00477201e-01, 5.04291594e-01, -7.89084807e-02,
          2.25310307e-03, 2.04313323e-01, 1.19945800e+00,
          -1.61462247e-01, -2.83694804e-01, -6.43114559e-03,
          1.94632392e-02, -8.71439338e-01, -2.63505489e-01,
          1.39877900e-01, 1.91188455e-01, -1.79019302e-01,
          -4.59718145e-02, 4.07650806e-02, 4.78308313e-02,
          -3.09299659e-02, -2.32564926e-01, 1.47046549e-02,
          -4.10501719e-01, 1.97995827e-01, 1.74140017e-02,
          -3.80206764e-01, -1.27347693e-01, 1.61934182e-01,
          2.62612924e-02, -4.96047527e-01, -1.07239449e+00,
          1.27635312e+00, 3.64817441e-01, -8.00293028e-01,
          -1.51909664e-01, 5.34536652e-02, 3.77729465e-03,
          -4.15154070e-01, 2.44618934e-02, 1.22942850e-02,
          1.84950568e-02, 1.97190121e-02, 4.80545163e-02, 1.06713045e+00,
          1.39654756e-01, 1.61564335e-01, 4.38175611e-02, 1.39973564e-02,
          2.54656337e-02, -5.54719754e-02, -1.96743637e-01,
          1.05751388e-01, -1.44418940e-01, -5.91019243e-02,
          -5.64618647e-01, -1.72813788e-01, 9.95905325e-02,
          -3.82397324e-02, -2.03363046e-01, 3.84721160e-02,
          1.25105465e-02, -3.02930805e-03, -1.75520089e-02,
          3.22055034e-02, 1.85771868e-01, 2.23412216e-01, 8.20981413e-02,
          4.17448729e-02, 9.11196042e-03 ]
      - [ 6.89815134e-02, -4.56770211e-01, -5.18425643e-01,
          4.84738946e-01, -2.36804262e-01, -2.44217366e-03,
          2.05679759e-01, 2.71953464e-01, 1.76062454e-02,
          -2.78907150e-01, -2.27004617e-01, -2.60533482e-01,
          -2.80212700e-01, -1.48953991e-02, -1.17416857e-04,
          2.51858473e-01, -1.10711241e+00, -3.02330464e-01,
          -6.08987749e-01, -1.05790317e-01, -3.71944994e-01,
          -5.38889617e-02, -5.19849034e-03, -6.60461783e-01,
          -7.66277969e-01, -9.08745706e-01, -4.07906994e-02,
          -2.44810835e-01, -2.98576385e-01, -3.68975215e-02,
          -9.55311432e-02, -1.98690966e-01, -2.17279822e-01,
          6.78178191e-01, -3.34928364e-01, -1.30278707e+00,
          -9.61811662e-01, -1.63630641e-03, 9.81197208e-02,
          -3.78968306e-02, -2.58206397e-01, 2.07278788e-01,
          6.47274852e-01, -3.03220332e-01, 3.03193629e-01,
          -8.74284934e-03, -6.99085146e-02, -1.52446121e-01,
          -6.07721627e-01, -4.76903647e-01, -7.44198784e-02,
          3.62780541e-01, 2.34683856e-01, 3.59236926e-01,
          -3.16824168e-02, -4.59461272e-01, 9.29286957e-01,
          4.82815772e-01, 4.35279399e-01, -2.42302522e-01,
          -1.14188647e+00, -8.82475734e-01, 7.73191964e-03,
          -3.14461403e-02, 2.31105655e-01, 6.69416249e-01,
          -5.22783101e-01, -2.26368055e-01, -4.49985005e-02,
          5.43226078e-02, -1.06252229e+00, -5.36337018e-01,
          -8.61481950e-02, 9.07678381e-02, -5.02334237e-01,
          5.77800535e-02, 2.48158798e-01, 2.56832000e-02,
          -4.61995393e-01, -2.98669964e-01, 3.88105303e-01,
          1.20509374e+00, 3.59255910e-01, 2.58166432e-01, 2.16139212e-01,
          -1.70844444e-03, -9.12487581e-02, -1.00931264e-01,
          3.90117049e-01, 1.24615574e+00, -5.15683234e-01,
          -5.07944465e-01, 1.15903258e+00, 6.90251291e-01,
          1.52167767e-01, 5.92844235e-03, -3.65747839e-01,
          7.69658363e-04, 4.27940302e-03, 2.48417258e-02, 3.16109583e-02,
          1.98712591e-02, 5.68111956e-01, -5.10913908e-01,
          3.20396274e-01, 2.66795140e-02, -9.06223198e-04,
          6.44748434e-02, 7.52237886e-02, 5.20989060e-01,
          -2.02723742e-01, -1.19381726e-01, -1.19723201e-01,
          4.36541200e-01, 1.37898147e-01, -2.86342621e-01,
          5.03955245e-01, 6.70697808e-01, -3.51327389e-01,
          -1.22262910e-01, 8.97105504e-03, 2.93518155e-04,
          -1.28252115e-02, -1.39534354e-01, -1.35786057e-01,
          5.24695039e-01, -6.85858130e-02, -5.03566768e-03 ]
      - [ -1.02858019e+00, -6.50479972e-01, -4.00108397e-01,
          1.12310417e-01, -6.11442700e-02, 1.68457802e-03,
          4.84640032e-01, -4.44863647e-01, -1.14333797e+00,
          -5.12901485e-01, -4.46697146e-01, -4.09794420e-01,
          -3.15204203e-01, -2.27693021e-02, -2.25572176e-02,
          -6.15070820e-01, -3.86434466e-01, -6.01791143e-01,
          -6.04284823e-01, -7.64546394e-01, -1.23555672e+00,
          -1.15188481e-02, -2.67011896e-02, -2.29698136e-01,
          -4.17682575e-03, -1.97985828e-01, -1.42840266e-01,
          -2.22174570e-01, -3.92906725e-01, -1.21287577e-01,
          1.20527355e-03, -2.39262171e-03, -8.15765083e-01,
          1.36397445e+00, -1.07478249e+00, -2.83538246e+00,
          -1.69072819e+00, -1.97160098e-05, 3.34076285e-01,
          -1.40387440e+00, 7.56883740e-01, 3.45802128e-01,
          1.06215239e+00, -6.12220317e-02, 2.97551751e-01,
          -1.15183167e-01, 1.35811374e-01, 8.80164683e-01,
          -7.07705736e-01, -3.14369828e-01, -4.24646698e-02,
          5.23198783e-01, -4.90536243e-01, -1.03227682e-01,
          -3.34612094e-02, -5.48034132e-01, 6.77077949e-01,
          1.07490182e+00, 4.13456261e-01, 3.71858897e-03,
          -1.37442112e-01, 3.21553499e-02, 1.21768832e-01,
          4.66797082e-03, 7.52180398e-01, 1.81549740e+00,
          -1.74518645e-01, -7.95532107e-01, 3.51127982e-02,
          1.31208733e-01, -2.15045810e+00, -1.15851510e+00,
          2.27048352e-01, 1.00249089e-01, -3.66578460e-01,
          5.25970399e-01, 7.01343894e-01, 3.14773917e-02,
          -2.20155343e-01, -7.20980287e-01, 8.85779738e-01,
          1.08811998e+00, 7.70473659e-01, -5.15383817e-02,
          -4.28603679e-01, -3.05620525e-02, 7.40435673e-03,
          -7.45360320e-03, -7.75515378e-01, -2.08984882e-01,
          -2.03863889e-01, -1.99867096e-02, 7.11616099e-01,
          1.21087587e+00, -2.59413198e-02, 1.62098166e-02,
          -4.48945165e-01, 2.01193523e-02, 1.19791655e-02,
          7.61567429e-02, 1.03520922e-01, 3.74315158e-02, 1.41941965e+00,
          1.54208094e-01, 2.94336885e-01, 3.63159329e-02, 1.86028816e-02,
          1.40976220e-01, 1.65686578e-01, 2.06011429e-01,
          -2.01020420e-01, -1.07365966e+00, -9.60917920e-02,
          1.30236745e-01, -9.09530967e-02, 9.18386579e-02,
          1.03606868e+00, 7.56560326e-01, -1.48102015e-01,
          -1.09646199e-02, 1.26125235e-02, 4.77029535e-04,
          1.00271287e-03, -3.18079110e-05, -6.22261882e-01,
          -5.71954191e-01, 4.81265374e-02, 4.38550705e-05 ]
      - [ -9.67733264e-01, 3.23317975e-01, 5.11780918e-01,
          -3.35624903e-01, 1.55208066e-01, 7.83198234e-03,
          -1.14309480e-02, -6.88440144e-01, -7.63244331e-01,
          1.14871591e-01, 2.77059171e-02, 3.39784473e-02, 6.40258938e-02,
          -6.62273902e-04, 1.15018822e-02, -5.92703521e-01,
          2.01826024e+00, -1.57118425e-01, 3.47924471e-01,
          -2.28449300e-01, -2.78374285e-01, 2.66390722e-02,
          -2.44934987e-02, 1.17056656e+00, 1.22501957e+00,
          1.13273621e+00, 3.40703309e-01, 5.05259931e-01, 4.73286659e-01,
          2.53209695e-02, 1.69222817e-01, 1.24571487e-01,
          -8.74957383e-01, -1.01878837e-01, 3.31911385e-01,
          -5.12659177e-02, 6.15640245e-02, 8.66139657e-04,
          3.77517343e-01, -1.13200736e+00, 6.96310043e-01,
          9.51365158e-02, 2.56665528e-01, -1.85842529e-01,
          -2.71894604e-01, -5.22605516e-02, 6.67161569e-02,
          1.23445940e+00, 1.06473696e+00, 2.88615048e-01, 1.32403672e-01,
          -1.57643884e-01, -7.05142200e-01, -2.45145544e-01,
          -8.94425344e-03, 4.08661544e-01, -1.19083273e+00,
          -2.39226483e-02, -5.29284775e-01, 4.26544398e-01,
          1.53524363e+00, 1.46548247e+00, 3.92808467e-02, 4.75559458e-02,
          3.05661231e-01, 7.95103610e-02, 6.97851032e-02,
          -5.12587488e-01, 4.87241112e-02, 7.75617536e-06,
          7.84504712e-02, 3.44044827e-02, 2.20719725e-01, 5.20096123e-02,
          3.43801081e-01, 1.61687836e-01, 1.48048457e-02, 1.48739489e-02,
          4.03869182e-01, 1.09686673e-01, -1.43253714e-01,
          -8.93468857e-01, -2.40861654e-01, -5.31216323e-01,
          -6.70036435e-01, 7.58234486e-02, 1.67124569e-01,
          1.56014740e-01, -1.07684600e+00, -1.96359825e+00,
          1.05336177e+00, 7.96362698e-01, -1.34361684e+00,
          -1.32836044e-01, -5.43871224e-02, 5.11961989e-03,
          8.23734626e-02, 0., 3.17313999e-04, -1.12058384e-04,
          7.84999877e-03, 1.99744263e-05, 1.52333751e-01, 3.23624700e-01,
          -5.25203533e-02, -1.18315604e-03, -2.14698329e-03,
          4.86371154e-03, -4.89632897e-02, -3.69186670e-01,
          4.88476902e-01, -3.33629131e-01, 1.04711719e-01,
          -7.50713766e-01, -3.42726171e-01, 4.41725731e-01,
          -2.09379122e-01, -8.08372557e-01, 3.88342768e-01,
          1.22503959e-01, 1.69907592e-03, -2.07721405e-02,
          -1.55490898e-02, 3.61618191e-01, 1.10835116e-02,
          -1.03126943e+00, 2.76753865e-02, 9.20427684e-03 ]
   uncompressed_sv_total: 173
   uncompressed_support_vectors:
      - [ 0., 0., 0., 0., 0., 0., 0., 0., 8.56482908e-02, 0., 0., 0., 0.,
          0., 0., 3.06782603e-01, 2.47275811e-02, 2.46986058e-02,
          2.23090947e-02, 4.97622751e-02, 4.29568172e-01, 9.15425073e-04,
          3.67655163e-03, 7.25244880e-02, 0., 0., 0., 1.49938650e-03,
          1.14507591e-02, 0., 0., 0., 3.57303000e-03, 1.28305539e-01,
          1.16815008e-01, 2.58474494e-03, 0., 0., 0., 0., 8.52506608e-02,
          1.57211572e-01, 2.34489053e-01, 0., 7.60219118e-05, 0.,
          2.75750868e-02, 1.25863209e-01, 1.01612665e-01, 1.28085795e-03,
          3.96562926e-02, 7.78011158e-02, 1.82218939e-01, 0.,
          3.31554860e-02, 1.28819317e-01, 0., 0., 1.41025651e-02,
          7.71663636e-02, 1.23126358e-01, 0., 0., 0., 2.61760466e-02,
          1.21863976e-01, 1.46320894e-01, 8.29461776e-03, 3.22533655e-04,
          5.14891418e-03, 6.26232997e-02, 2.05704309e-02, 1.48468101e-02,
          2.84431707e-02, 7.38125741e-02, 4.62452136e-03, 1.52802141e-03,
          7.60219176e-04, 8.91472399e-03, 5.59097575e-03, 1.07481647e-02,
          3.96820344e-02, 3.80325057e-02, 1.86708886e-02, 5.38541824e-02,
          5.53895393e-03, 9.14509688e-03, 9.28756874e-03, 1.52043824e-04,
          0., 4.26974773e-01, 7.97636434e-02, 1.20651439e-01,
          3.39980324e-04, 7.82693445e-04, 0., 5.89766502e-02,
          4.02918644e-03, 4.55165049e-03, 2.06232327e-03, 4.14490141e-03,
          2.11029430e-03, 2.48855218e-01, 9.85823795e-02, 1.07511223e-04,
          0., 1.08401375e-02, 5.95058594e-03, 1.24776727e-02,
          2.75643691e-02, 2.50006039e-02, 2.28065721e-04, 2.07452988e-03,
          5.09970530e-04, 8.08123965e-04, 0., 4.28804569e-02,
          9.25920457e-02, 4.31072526e-02, 0., 7.52578548e-04, 0., 0., 0.,
          9.45442244e-02, 3.45955223e-01, 7.04322681e-02, 1.14506157e-03 ]
      - [ 0., 0., 0., 0., 0., 0., 0., 0., 0., 0., 0., 0., 0., 0., 0., 0.,
          2.12732524e-01, 1.32928137e-02, 0., 0., 0., 0., 0., 0.,
          2.23131701e-01, 9.26511362e-02, 2.50699408e-02, 9.20583552e-04,
          2.29959249e-01, 6.46820515e-02, 5.80764040e-02, 0.,
          1.66313797e-01, 1.34638876e-01, 1.34084106e-03, 0.,
          7.79643189e-04, 0., 0., 7.64503056e-05, 7.64503027e-04,
          1.19498171e-01, 3.66170675e-01, 5.35786990e-03, 8.91556090e-04,
          0., 0., 4.86160745e-04, 2.81907856e-01, 1.53151184e-01,
          5.76254837e-02, 3.25207249e-03, 7.12836012e-02, 7.22916201e-02,
          0., 2.29350902e-04, 1.64679007e-03, 0., 3.24351160e-04,
          1.52900611e-04, 3.28253895e-01, 9.26072896e-02, 2.16234112e-04,
          1.68364332e-03, 1.52314708e-01, 1.43765241e-01, 9.04212072e-02,
          8.44421273e-04, 6.01817807e-03, 7.21230754e-04, 2.79128039e-03,
          2.37552542e-02, 5.59142046e-03, 4.82428120e-03, 0.,
          2.75645492e-04, 5.32904686e-03, 1.25175714e-02, 2.38803364e-02,
          4.70547099e-03, 1.41216093e-03, 6.16362086e-04, 1.73165753e-01,
          6.23307526e-02, 1.95164859e-01, 1.37565779e-02, 1.90728158e-02,
          5.41626662e-03, 7.64503056e-05, 0., 1.17880125e-02,
          7.02315643e-02, 7.98370615e-02, 0., 2.16234112e-04, 0.,
          5.96829690e-02, 0., 4.32468223e-04, 5.40585257e-04,
          1.51159344e-02, 1.32321957e-02, 1.01602696e-01, 2.00354248e-01,
          5.82611235e-03, 2.30494817e-03, 2.16234112e-04, 1.77818874e-03,
          4.47600745e-02, 8.13234821e-02, 2.99558602e-03, 3.28526273e-03,
          2.15674075e-03, 2.27303104e-03, 6.16362027e-04, 2.03921776e-02,
          8.01074579e-02, 4.35495287e-01, 1.55545992e-03, 1.41131058e-02,
          0., 0., 0., 3.92560363e-02, 9.59208533e-02, 4.36369842e-03, 0.,
          0. ]
      - [ 0., 0., 0., 0., 0., 0., 0., 0., 0., 0., 0., 0., 0., 0., 0., 0.,
          1.58180445e-01, 3.74970250e-02, 1.00018013e-04, 0., 0., 0., 0.,
          7.07234140e-05, 1.75468192e-01, 1.64684564e-01, 2.02511288e-02,
          1.00516854e-03, 1.78181320e-01, 1.25676066e-01, 5.53099588e-02,
          0., 1.66756555e-01, 8.94382820e-02, 5.39941788e-02,
          2.68040295e-03, 2.20039627e-03, 1.15995016e-03, 0.,
          5.52442037e-02, 7.07234140e-05, 6.96680844e-02, 3.81607860e-01,
          3.89052439e-03, 1.40449149e-03, 1.71983941e-03, 1.30407535e-03,
          0., 3.08309883e-01, 1.19547747e-01, 8.77375826e-02,
          3.06832716e-02, 8.53866637e-02, 9.67837777e-03, 0., 0.,
          1.45628420e-03, 0., 0., 0., 3.10264766e-01, 1.09603122e-01,
          1.02974847e-03, 2.23647075e-04, 9.91616026e-02, 1.17671758e-01,
          1.07653320e-01, 3.34895658e-03, 7.26854010e-03, 5.39589068e-03,
          4.14420366e-02, 7.03897998e-02, 2.12170242e-04, 1.14038074e-03,
          1.40579352e-02, 7.63750030e-03, 1.81879196e-03, 3.60832643e-03,
          3.39255147e-02, 1.13694556e-02, 9.11059696e-03, 8.53342470e-03,
          1.37022752e-02, 6.50647730e-02, 4.12582099e-01, 4.76552639e-03,
          1.09266851e-03, 1.36044039e-03, 0., 0., 0., 0., 2.69337511e-03,
          0., 0., 0., 7.49994293e-02, 0., 3.71717336e-03, 7.10129831e-03,
          4.35667532e-03, 2.68273475e-03, 2.23426163e-01, 1.92289203e-01,
          8.50762613e-03, 0., 1.00018013e-04, 5.70190372e-04,
          2.12038178e-02, 1.82818770e-02, 4.78761736e-03, 2.18832903e-02,
          2.45095161e-03, 0., 0., 5.68798445e-02, 3.46442878e-01,
          5.50248586e-02, 8.00144102e-04, 5.34230797e-03, 0., 0., 0., 0.,
          0., 0., 0., 0. ]
      - [ 0., 0., 0., 0., 0., 0., 0., 0., 2.56469607e-01, 5.23711182e-03,
          0., 2.85738753e-03, 4.70788870e-03, 0., 4.38428558e-02,
          1.35529265e-01, 0., 0., 4.22430523e-02, 2.56169617e-01,
          1.54732883e-01, 0., 6.25900109e-04, 1.06687108e-02, 0., 0., 0.,
          6.91191017e-05, 9.77491727e-05, 0., 0., 0., 1.31326297e-03,
          2.31414139e-02, 9.77491727e-05, 6.91191017e-05, 0., 0., 0., 0.,
          5.24005890e-02, 8.52246732e-02, 1.62688881e-01, 0., 0., 0.,
          2.34532319e-02, 1.99588910e-01, 8.67374390e-02, 0.,
          3.26815173e-02, 2.68941045e-01, 5.91785125e-02, 2.18822598e-03,
          2.55377628e-02, 5.30910976e-02, 6.91191017e-05, 0.,
          1.04008121e-02, 1.02299444e-01, 4.02855658e-04, 0., 0., 0.,
          2.39455607e-02, 3.11691403e-01, 1.35332525e-01, 2.63128709e-03,
          1.71353947e-03, 3.01124598e-03, 2.41794646e-01, 6.98115155e-02,
          4.03030164e-04, 7.36928880e-02, 1.06072366e-01, 0.,
          1.95498345e-04, 2.50132363e-02, 1.58494078e-02, 0.,
          1.95498345e-04, 2.48934012e-02, 2.79870071e-02, 7.33020669e-03,
          2.66055833e-03, 6.55533839e-03, 3.14473100e-02, 2.35132896e-03,
          0., 0., 2.78868675e-01, 1.14842288e-01, 1.76789522e-01,
          1.47570786e-03, 8.66043940e-03, 5.30104199e-03, 6.48950562e-02,
          9.16800126e-02, 1.02268038e-02, 3.72217793e-04, 2.42081331e-03,
          1.72797753e-03, 3.52036536e-01, 3.05763222e-02, 3.10756657e-02,
          0., 2.75403131e-02, 2.17614463e-03, 2.83084763e-03,
          7.98307434e-02, 3.07401448e-01, 6.91191017e-05, 2.30802093e-02,
          2.25860509e-03, 3.53502156e-03, 6.91191002e-04, 1.77626051e-02,
          2.92935725e-02, 5.00683896e-02, 8.30173679e-03, 7.81993382e-04,
          2.19008652e-03, 4.85133454e-02, 3.78093570e-02, 4.36999351e-02,
          2.66108423e-01, 6.11774102e-02, 3.30109033e-03 ]
      - [ 0., 0., 0., 0., 0., 0., 0., 0., 0., 0., 0., 0., 0., 0., 0., 0.,
          1.10055953e-01, 3.44039612e-02, 0., 0., 0., 0., 0.,
          6.84918487e-05, 3.07768762e-01, 4.50822338e-02, 2.41139084e-02,
          0., 1.57804742e-01, 5.91768287e-02, 5.44365048e-02,
          4.58179414e-03, 1.41298980e-01, 1.59751073e-01, 1.33161654e-03,
          0., 1.17239170e-03, 0., 0., 6.84918487e-05, 1.04772381e-03,
          1.61805212e-01, 2.32537493e-01, 7.03587681e-02, 1.42395787e-03,
          0., 0., 1.18529086e-03, 3.75823915e-01, 5.15025742e-02,
          6.69142082e-02, 6.27536401e-02, 2.40825973e-02, 1.94029557e-03,
          1.93724220e-04, 1.74159254e-03, 6.44169888e-03, 0., 0.,
          1.36983697e-04, 4.56809193e-01, 1.02490671e-02, 1.23060402e-03,
          2.16590255e-04, 9.03482214e-02, 1.56287819e-01, 5.08526042e-02,
          6.84918487e-05, 6.86999038e-03, 5.06319525e-03, 8.37514363e-03,
          5.79307675e-02, 3.98669345e-03, 7.58711249e-03, 6.75402116e-03,
          8.18844140e-03, 6.03599986e-03, 0., 3.15547250e-02,
          1.68223039e-03, 4.89833951e-03, 7.84553122e-03, 2.22400986e-02,
          1.80759951e-01, 1.91305742e-01, 2.44975891e-02, 3.60732619e-03,
          9.67317668e-04, 0., 0., 0., 6.84918487e-05, 5.48339300e-02, 0.,
          1.93724220e-04, 0., 3.02330386e-02, 8.93024495e-04,
          1.34251104e-03, 8.01556744e-03, 6.42555673e-03, 9.68621054e-04,
          3.76011282e-01, 7.53671862e-03, 2.00504567e-02, 2.82399124e-04,
          4.95269150e-03, 5.47934789e-04, 5.07176563e-04, 2.11187862e-02,
          4.44810949e-02, 1.68516319e-02, 0., 0., 2.49314122e-03,
          1.62271634e-01, 1.11801907e-01, 2.59877384e-01, 1.14407837e-02,
          1.51188695e-03, 0., 0., 0., 7.54440296e-03, 5.29433135e-03, 0.,
          9.68621098e-05, 0. ]
      - [ 0., 0., 0., 0., 0., 0., 0., 0., 2.53999710e-01, 6.40801713e-03,
          0., 3.15418397e-03, 5.83145814e-03, 1.68632032e-04,
          5.19981422e-02, 2.03919664e-01, 1.50829073e-04, 1.57470175e-03,
          2.30613910e-02, 3.15871000e-01, 1.80571184e-01, 0.,
          1.06652267e-03, 1.23425452e-02, 0., 0., 0., 7.54145367e-05,
          1.06652267e-04, 0., 0., 0., 4.60028648e-03, 3.08290180e-02,
          3.70730646e-02, 7.54145367e-05, 0., 0., 0., 0., 4.95684743e-02,
          2.12648258e-01, 1.39426962e-01, 0., 7.54145367e-05, 0.,
          8.28939024e-03, 2.54639804e-01, 5.02704531e-02, 2.21393574e-02,
          6.02091178e-02, 2.30022714e-01, 1.46819577e-01, 1.06652267e-03,
          7.06472481e-03, 8.94867256e-02, 7.54145367e-05, 0.,
          6.81515597e-03, 4.33998741e-02, 3.46401781e-02, 0., 0., 0.,
          2.90615931e-02, 2.78826118e-01, 1.17987499e-01, 2.61324830e-03,
          2.29900284e-03, 0., 2.42464274e-01, 4.30870466e-02,
          3.06563289e-03, 1.06665358e-01, 3.14650610e-02, 9.60323401e-03,
          2.11382331e-03, 4.78999084e-03, 7.29708793e-03, 6.03316294e-04,
          5.82333375e-03, 2.86821350e-02, 2.60695163e-02, 2.93710921e-02,
          6.76171295e-03, 6.17258577e-03, 6.19055051e-03, 6.01966213e-03,
          7.54145367e-05, 0., 2.63949156e-01, 3.11943680e-01,
          6.62122574e-03, 0., 0., 1.28426345e-03, 2.82019377e-01,
          1.24990977e-02, 4.43916331e-04, 1.74924044e-03, 5.77744329e-03,
          0., 2.35737398e-01, 6.43291175e-02, 1.64244492e-02, 0.,
          1.34466523e-02, 4.82231658e-03, 1.48809049e-02, 2.97776740e-02,
          2.77100261e-02, 1.58549985e-03, 7.46565871e-04, 0., 0.,
          7.54145367e-05, 6.90968940e-04, 7.76231568e-03, 4.75647263e-02,
          1.76534033e-03, 1.33018149e-03, 0., 5.27598150e-02,
          3.95522714e-02, 9.38196257e-02, 1.83029786e-01, 7.25249872e-02,
          6.83429372e-03 ]
      - [ 0., 0., 0., 0., 0., 0., 0., 0., 0., 0., 0., 0., 0., 0., 0., 0.,
          2.44734213e-01, 3.95746157e-02, 9.44375788e-05, 6.67774511e-05,
          2.37436243e-03, 0., 0., 1.58265293e-01, 8.21719598e-03,
          3.24541167e-03, 9.94792953e-03, 1.50712982e-01, 2.78954774e-01,
          2.54955012e-02, 1.43526599e-03, 6.99304370e-03, 1.74592528e-02,
          1.38989985e-01, 1.02511443e-01, 0., 0., 0., 0., 0.,
          1.61215037e-04, 2.05127388e-01, 1.27264649e-01, 0., 0., 0., 0.,
          0., 2.68892080e-01, 5.97059950e-02, 4.84748594e-02,
          6.67774511e-05, 9.74120945e-03, 8.78320308e-04, 2.64336355e-03,
          1.03514217e-01, 4.91868379e-03, 0., 0., 5.20970114e-02,
          3.63677263e-01, 2.64793895e-02, 2.21983227e-03, 6.44545956e-03,
          1.32345691e-01, 1.61268771e-01, 4.61728796e-02, 4.35420778e-03,
          4.49281977e-03, 2.12537008e-03, 3.02179530e-02, 1.26922727e-01,
          5.27598336e-03, 6.86589032e-02, 4.42331880e-02, 0.,
          3.20901745e-03, 7.82825460e-04, 1.33512160e-02, 2.38472433e-03,
          3.93022038e-03, 1.39423441e-02, 5.92315234e-02, 8.64072796e-03,
          2.21923627e-02, 1.95925552e-02, 4.14467230e-03, 2.08671601e-03,
          6.67774511e-05, 0., 3.39469820e-01, 1.14063703e-01,
          1.23965628e-01, 1.15772095e-02, 1.11375109e-03, 0.,
          3.14051695e-02, 1.95791037e-03, 5.83680440e-03, 1.99316302e-03,
          2.50323396e-03, 2.10699514e-02, 1.81616619e-01, 2.44167909e-01,
          1.75876841e-02, 0., 3.62794474e-03, 1.40728513e-02,
          8.21152516e-03, 5.28301075e-02, 4.42686416e-02, 9.24791442e-04,
          1.52496062e-03, 4.55741724e-03, 0., 2.11168852e-04,
          4.58285585e-02, 1.42728269e-01, 5.67825139e-02, 5.30648092e-03,
          1.29828532e-03, 0., 2.99900938e-02, 1.99216278e-03,
          9.67540499e-03, 3.88909280e-01, 5.84261566e-02, 1.00388529e-03 ]
      - [ 0., 0., 0., 0., 0., 0., 0., 0., 0., 0., 0., 0., 0., 0., 0., 0.,
          1.77118629e-01, 1.93901900e-02, 2.01343239e-04, 7.11855828e-05,
          0., 0., 0., 4.11397889e-02, 1.79825723e-01, 5.42334951e-02,
          2.85930280e-02, 3.34120914e-02, 2.14578703e-01, 1.41431037e-02,
          5.87438047e-02, 4.68262658e-02, 2.32903659e-02, 2.14053795e-01,
          1.00671619e-04, 7.11855828e-05, 0., 0., 0., 0., 1.42371166e-04,
          2.24808991e-01, 2.23971188e-01, 1.42371166e-04, 0., 0., 0., 0.,
          2.56571442e-01, 8.98533762e-02, 1.63823336e-01, 5.02068410e-03,
          3.44696245e-03, 2.74715712e-03, 5.61862311e-04, 7.51744956e-02,
          2.64588487e-03, 2.56663276e-04, 1.00671619e-04, 7.11855828e-05,
          4.66055393e-01, 1.20222922e-02, 2.52808444e-03, 3.21126403e-03,
          1.96916103e-01, 1.29538924e-01, 5.49667068e-02, 6.56298653e-04,
          4.63957898e-03, 4.50195046e-03, 3.19611211e-03, 1.03963822e-01,
          4.78985626e-03, 9.76069830e-03, 8.97633471e-03, 2.82328692e-03,
          2.56860303e-03, 9.11272597e-03, 3.30419093e-02, 3.22892470e-03,
          8.94413516e-03, 2.51261052e-03, 3.86736020e-02, 4.03331779e-03,
          1.15667786e-02, 8.84616561e-03, 1.02380645e-02, 2.95902556e-03,
          0., 0., 4.45271991e-02, 2.13503733e-01, 2.01557741e-01,
          4.91232099e-03, 0., 0., 1.00671619e-04, 0., 7.86270539e-04,
          7.13092368e-03, 2.86654825e-03, 1.05931453e-01, 2.52137572e-01,
          1.67287350e-01, 5.02768382e-02, 2.13319343e-03, 7.76204048e-03,
          2.98386347e-03, 4.26769163e-03, 3.23156379e-02, 1.68279871e-01,
          7.20997341e-03, 8.33205995e-04, 1.95468916e-03, 0.,
          1.49659114e-03, 5.04420586e-02, 2.16861159e-01, 2.86800843e-02,
          1.29939998e-02, 1.00671619e-04, 0., 6.82113692e-02,
          7.76844248e-02, 1.06669411e-01, 1.95166722e-01, 2.40321062e-03,
          7.11855828e-05 ]
      - [ 0., 0., 0., 0., 0., 0., 0., 0., 0., 0., 0., 0., 0., 0., 0., 0.,
          1.96751520e-01, 0., 9.85008883e-05, 0., 0., 0., 0., 0.,
          2.41814196e-01, 2.95223072e-02, 2.23032366e-02, 5.52089214e-02,
          1.68319508e-01, 2.03824975e-02, 5.21581136e-02, 1.60631966e-02,
          7.35230371e-02, 2.14693606e-01, 9.62721929e-03, 6.96506468e-05,
          4.17903851e-04, 0., 0., 0., 6.96506468e-05, 1.51723817e-01,
          2.71420807e-01, 3.48253222e-03, 9.85008883e-05, 0., 0.,
          4.40509379e-04, 4.04029667e-01, 2.41293274e-02, 8.73680264e-02,
          2.69841664e-02, 1.19682057e-02, 1.04707887e-03, 0.,
          7.26158405e-03, 3.71101871e-03, 1.10127334e-03, 0.,
          6.96506468e-05, 4.33823347e-01, 3.47946770e-02, 2.54244456e-04,
          0., 4.86791097e-02, 1.78156674e-01, 5.37520200e-02,
          2.89578713e-03, 7.88070448e-03, 6.94449246e-03, 1.92249119e-02,
          1.82050124e-01, 1.94685266e-03, 7.36824982e-03, 8.56263470e-03,
          0., 5.15757361e-04, 7.12953648e-03, 3.88362259e-02,
          5.77970827e-03, 1.55267529e-02, 2.69452129e-02, 2.55645700e-02,
          1.75508112e-01, 5.17939329e-02, 4.03227657e-03, 1.34897856e-02,
          2.45596352e-03, 0., 0., 0., 1.30526721e-01, 1.18914276e-01, 0.,
          0., 0., 3.43768112e-02, 0., 0., 9.14982706e-03, 3.60320602e-03,
          5.90337208e-03, 2.77294219e-01, 1.83229208e-01, 1.74257401e-02,
          0., 6.96506468e-04, 2.53454200e-03, 8.93942174e-03,
          3.55149998e-04, 1.15247462e-02, 6.76953234e-03, 3.59290489e-03,
          1.31416577e-03, 0., 3.21073621e-03, 1.84572235e-01,
          2.44495288e-01, 6.82636909e-03, 1.20246615e-02, 0., 0., 0.,
          5.08849472e-02, 9.34341699e-02, 0., 0., 0. ]
      - [ 0., 0., 0., 0., 0., 0., 0., 0., 0., 0., 0., 0., 0., 0., 0., 0.,
          1.49833575e-01, 5.40551655e-02, 1.06515297e-04, 0., 0., 0., 0.,
          7.53176864e-05, 2.28186131e-01, 1.49839401e-01, 2.44627427e-02,
          7.53176864e-05, 2.55335033e-01, 5.20844720e-02, 6.03405535e-02,
          6.08392758e-04, 1.86688438e-01, 9.17468593e-02, 2.13030595e-04,
          1.00694608e-03, 0., 0., 0., 5.85600138e-02, 4.26169951e-03,
          1.71516985e-01, 2.60597587e-01, 1.07962303e-01, 1.06515297e-04,
          0., 0., 2.29565147e-03, 3.34698647e-01, 1.51914045e-01,
          2.29045786e-02, 4.71805893e-02, 8.86356458e-02, 3.96808423e-02,
          2.38175446e-04, 3.01270746e-04, 5.05246397e-04, 0., 0.,
          7.53176864e-05, 3.30504924e-01, 1.14337727e-01, 1.06515297e-04,
          0., 1.76343083e-01, 1.69176593e-01, 5.78550920e-02, 0.,
          2.36677122e-03, 1.07358275e-02, 5.11273462e-03, 2.33715912e-03,
          6.26882724e-03, 6.38734689e-03, 7.40917725e-03, 1.17709124e-02,
          1.08911572e-02, 9.15335433e-04, 1.64524838e-02, 3.90219153e-03,
          7.76129402e-03, 1.34456102e-02, 1.41198356e-02, 1.84767827e-01,
          2.95942515e-01, 3.19614038e-02, 6.53007883e-04, 1.58346375e-03,
          0., 0., 0., 0., 4.17442340e-03, 0., 0., 0., 5.14468886e-02, 0.,
          1.91155821e-03, 4.71085589e-03, 1.87859256e-02, 6.77159987e-04,
          2.80674130e-01, 4.12208168e-03, 4.33519855e-03, 0., 0., 0.,
          1.66163873e-02, 1.74640231e-02, 3.55404168e-02, 2.07041800e-02,
          1.69255468e-03, 0., 3.05396784e-03, 2.00974330e-01,
          1.38093099e-01, 2.68200874e-01, 6.16016099e-03, 2.38849269e-03,
          0., 0., 0., 0., 0., 0., 0., 0. ]
      - [ 0., 0., 0., 0., 0., 0., 0., 0., 1.10874899e-01, 0., 0., 0., 0.,
          0., 0., 2.13056281e-01, 4.70481627e-02, 3.48587823e-03,
          8.15539435e-03, 5.20904511e-02, 3.64143282e-01, 0.,
          1.97048718e-03, 5.05263209e-02, 0., 0., 0., 0., 0., 0., 0., 0.,
          9.02354775e-04, 4.50541824e-02, 2.85746269e-02, 6.44539105e-05,
          0., 0., 0., 0., 1.20619997e-01, 1.67998925e-01, 9.66989249e-02,
          0., 0., 0., 0., 2.02813894e-01, 5.20203356e-03, 0., 0., 0.,
          4.05448198e-01, 0., 1.50851428e-03, 6.77094087e-02, 0., 0., 0.,
          0., 0., 0., 0., 0., 1.95702717e-01, 1.55400917e-01,
          1.38978034e-01, 2.75347242e-03, 0., 0., 6.07105643e-02,
          7.34403357e-02, 2.36838106e-02, 5.14138937e-02, 2.23323777e-02,
          8.86725902e-04, 2.31747655e-03, 2.31167837e-03, 4.24834015e-03,
          1.76312844e-03, 6.79602264e-04, 9.39169992e-03, 9.34079811e-02,
          6.03506938e-02, 9.88608748e-02, 4.57536243e-03, 4.45592916e-03,
          1.84000516e-03, 2.68275064e-04, 5.13479002e-02, 3.73104781e-01,
          6.55250717e-03, 2.34681577e-03, 3.10683111e-03, 4.03172988e-03,
          0., 5.00519425e-02, 1.69346854e-02, 1.83744431e-02,
          3.75827658e-04, 0., 3.76515207e-04, 2.08158731e-01,
          1.70508653e-01, 1.73188036e-03, 0., 4.64316318e-03,
          1.13410344e-02, 1.17694838e-02, 2.07070839e-02, 6.28664577e-03,
          0., 1.64072879e-03, 7.97250890e-04, 0., 7.84115691e-04,
          4.55814712e-02, 2.44506791e-01, 2.87761632e-02, 2.65750277e-04,
          1.01910590e-03, 0., 0., 5.03401097e-04, 1.12358332e-02,
          3.68471324e-01, 5.81437200e-02, 8.43253452e-04 ]
      - [ 8.98313969e-02, 0., 0., 0., 7.30715619e-05, 0., 1.00344634e-02,
          1.07189685e-01, 7.01262951e-02, 1.34956893e-02, 9.36462879e-02,
          1.20733410e-01, 1.10524327e-01, 9.83077334e-04, 2.01322809e-02,
          1.96496472e-01, 0., 0., 2.46526841e-02, 1.09477803e-01,
          5.86208180e-02, 0., 0., 0., 0., 0., 0., 0., 0., 0., 0., 0.,
          2.58777197e-03, 2.42320672e-02, 1.03338796e-04, 7.30715619e-05,
          0., 0., 0., 7.30715619e-05, 1.59069777e-01, 9.11783874e-02,
          3.63452807e-02, 1.03614470e-02, 7.21652620e-03, 4.64674755e-04,
          5.43098040e-02, 2.54448146e-01, 0., 0., 8.36600140e-02,
          3.03964734e-01, 1.11080952e-01, 0., 1.19023572e-03,
          5.10204723e-03, 0., 0., 0., 0., 0., 0., 0., 0., 5.84358945e-02,
          2.36279324e-01, 1.97936147e-01, 5.79196680e-03, 0.,
          1.27671636e-03, 1.47281259e-01, 9.05668959e-02, 8.88474099e-03,
          8.53776857e-02, 3.13012823e-02, 4.42220084e-03, 2.16376223e-03,
          4.46830317e-03, 1.09185232e-02, 3.03642335e-03, 1.12698122e-03,
          1.30299209e-02, 1.88434631e-01, 5.14815375e-02, 3.22876051e-02,
          3.07905804e-02, 1.34375850e-02, 5.54952817e-03, 9.28352296e-04,
          5.68017252e-02, 4.14539099e-01, 4.29937337e-03, 6.68019662e-03,
          1.99079979e-02, 3.24568786e-02, 6.02563494e-04, 7.71899223e-02,
          5.11140823e-02, 1.71022210e-02, 1.02300185e-03, 1.76410351e-04,
          0., 3.99811089e-01, 3.69208492e-02, 4.94992808e-02, 0.,
          1.61440689e-02, 3.09389154e-03, 6.85963407e-03, 1.91673040e-02,
          1.19441256e-01, 2.59037106e-03, 1.55008188e-03, 2.50021415e-03,
          1.71056145e-03, 2.92015914e-03, 4.37005162e-02, 7.54941106e-02,
          9.94460192e-03, 2.19214679e-04, 3.83472675e-03, 0., 0., 0.,
          2.61892080e-01, 2.23537862e-01, 4.14099433e-02, 1.71333982e-03 ]
      - [ 0., 0., 0., 0., 0., 0., 0., 0., 0., 0., 0., 0., 0., 0., 0., 0.,
          2.23556697e-01, 1.43032344e-02, 2.17475244e-04, 0., 0., 0., 0.,
          0., 2.07531840e-01, 1.21561930e-01, 2.40152795e-02,
          3.84445535e-04, 2.63538241e-01, 5.75164370e-02, 5.97567074e-02,
          0., 1.26106828e-01, 1.58379704e-01, 2.17475244e-04,
          1.53349724e-03, 0., 0., 0., 5.42287305e-02, 2.30667312e-04,
          1.77129284e-01, 2.51880169e-01, 1.11470923e-01, 6.24525477e-04,
          0., 0., 3.64867691e-03, 3.25808793e-01, 1.49959937e-01,
          2.44939271e-02, 3.97110730e-02, 9.87662226e-02, 5.25909215e-02,
          0., 1.03443710e-03, 3.84445535e-04, 0., 0., 1.53778208e-04,
          3.24643791e-01, 9.34518576e-02, 1.08737622e-04, 0.,
          1.45137936e-01, 1.93892270e-01, 6.08408190e-02, 2.77266232e-03,
          4.77470411e-03, 6.04272261e-03, 1.18811177e-02, 1.52786751e-03,
          6.35017548e-03, 6.10528328e-03, 4.90830559e-03, 1.26116714e-02,
          6.01516850e-03, 1.10737560e-03, 3.56147699e-02, 7.17889005e-03,
          4.14565392e-03, 1.34891002e-02, 1.46794422e-02, 2.68347651e-01,
          2.02693298e-01, 7.77383149e-02, 1.91307685e-03, 1.84317108e-03,
          0., 0., 0., 0., 7.68891041e-05, 0., 1.08737622e-04, 0.,
          8.25318545e-02, 0., 0., 1.03292684e-03, 1.67441685e-02,
          6.95847068e-03, 2.42071360e-01, 1.07873239e-01, 9.66777746e-03,
          4.14060545e-04, 0., 0., 4.20927368e-02, 5.86248673e-02,
          1.12601100e-02, 1.13140782e-02, 1.08737622e-04, 0.,
          1.60165410e-03, 6.55250028e-02, 2.07981646e-01, 3.03412616e-01,
          4.85763699e-03, 9.55461897e-03, 0., 0., 0., 0., 0., 0., 0., 0. ]
      - [ 0., 0., 0., 0., 0., 0., 0., 0., 0., 0., 0., 0., 0., 0., 0., 0.,
          8.14342499e-02, 1.19151091e-02, 2.91616452e-04, 0., 0., 0., 0.,
          3.72092761e-02, 2.96281397e-01, 3.01762894e-02, 2.31377203e-02,
          2.96307146e-03, 1.94843426e-01, 2.52079149e-03, 5.42944819e-02,
          2.64183339e-02, 6.93696886e-02, 2.17692599e-01, 3.45031818e-04,
          6.87346619e-05, 3.43673310e-04, 0., 0., 0., 3.98661010e-03,
          2.25327045e-01, 1.89860806e-01, 4.68241842e-03, 0., 0., 0., 0.,
          3.85583878e-01, 1.12140588e-02, 1.41571790e-01, 4.94813919e-02,
          3.80454236e-03, 9.96048562e-04, 0., 4.94318362e-03,
          4.26516542e-03, 5.71986381e-03, 4.47684870e-04, 0.,
          4.35583562e-01, 4.14405987e-02, 5.39442815e-04, 1.73886470e-03,
          9.87488925e-02, 1.20489649e-01, 5.18105254e-02, 2.83951755e-03,
          1.11026671e-02, 8.06710217e-03, 5.56080509e-03, 1.11649990e-01,
          9.72054913e-05, 7.49289151e-03, 1.30077731e-02, 1.88784383e-03,
          1.21803803e-03, 8.83145444e-03, 4.37451266e-02, 5.49877237e-04,
          7.03747850e-03, 8.39145668e-03, 3.88544798e-02, 1.40411720e-01,
          6.56998605e-02, 2.21063010e-03, 5.76147949e-03, 2.48119351e-03,
          0., 0., 0., 6.85755461e-02, 1.82750702e-01, 2.89991847e-03, 0.,
          0., 3.01337009e-03, 1.70733361e-03, 9.64598544e-03,
          3.48168099e-03, 2.25488143e-03, 2.03180406e-02, 3.73237640e-01,
          6.53500557e-02, 4.85231169e-02, 1.99803966e-03, 5.35242679e-03,
          1.75079401e-03, 8.83064047e-03, 2.07440238e-02, 1.14286356e-01,
          1.41535653e-02, 3.79908644e-03, 3.02385283e-03, 1.42988972e-02,
          0., 2.26625472e-01, 1.69429407e-01, 3.46265696e-02,
          1.22617166e-02, 0., 0., 0., 4.92512546e-02, 9.52269286e-02, 0.,
          0., 0. ]
      - [ 0., 0., 0., 0., 0., 0., 0., 0., 5.01352362e-02, 0., 0., 0., 0.,
          0., 0., 1.87660120e-02, 1.13079242e-01, 1.40762581e-02,
          1.11174257e-02, 2.68253013e-02, 1.60119712e-01, 1.24836934e-03,
          2.48648506e-03, 3.35041076e-01, 0., 0., 0., 4.01279218e-02,
          2.92196423e-01, 0., 0., 0., 2.39755982e-03, 1.07992880e-01,
          1.21907018e-01, 7.99186600e-05, 0., 0., 0., 0., 9.32860002e-03,
          2.15249583e-01, 2.23214105e-01, 0., 0., 0., 0., 2.03811210e-02,
          1.28807023e-01, 2.51286700e-02, 5.97278662e-02, 3.15982848e-02,
          1.47558274e-02, 0., 6.67353719e-02, 2.93892145e-01, 0., 0.,
          1.77154075e-02, 1.64638758e-01, 3.08543146e-01, 0., 0., 0.,
          1.54860973e-01, 9.69611481e-02, 1.27355874e-01, 3.20658484e-03,
          3.54671245e-03, 4.63873474e-03, 5.81275523e-02, 7.59350210e-02,
          5.46141993e-03, 4.12434265e-02, 4.33296375e-02, 2.85716681e-03,
          5.09265531e-03, 7.13064475e-03, 8.72487761e-03, 5.65110240e-04,
          2.34481646e-03, 1.05322981e-02, 6.71639442e-02, 2.02180003e-03,
          5.04211662e-03, 5.75707946e-03, 7.12365843e-03, 1.24401860e-02,
          8.79105239e-04, 1.88614801e-03, 2.74341196e-01, 1.83282837e-01,
          1.83363929e-01, 0., 0., 8.79105239e-04, 9.53970924e-02,
          1.02361413e-02, 4.02389877e-02, 4.41036746e-03, 6.91844209e-04,
          2.88164406e-03, 2.81166553e-01, 8.41388926e-02, 2.16671303e-02,
          2.36415188e-03, 1.26956264e-02, 1.07443500e-02, 2.90858485e-02,
          5.79811782e-02, 7.70349279e-02, 0., 1.64283591e-03, 0., 0., 0.,
          7.07304897e-03, 1.05080465e-02, 5.19005209e-02, 3.05155711e-03,
          1.68744498e-03, 2.03753402e-03, 3.75538841e-02, 5.03240759e-03,
          1.15013868e-01, 2.38433972e-01, 8.70029926e-02, 0. ]
      - [ 0., 0., 0., 0., 0., 0., 0., 0., 2.52879411e-01, 1.26359062e-02,
          0., 0., 0., 0., 2.44161822e-02, 1.57439172e-01, 1.39362356e-02,
          1.07776723e-03, 4.15922143e-02, 2.09179521e-01, 2.26649359e-01,
          9.82055441e-04, 2.18802365e-03, 1.48536246e-02, 0., 0., 0., 0.,
          0., 0., 0., 0., 3.82600725e-03, 4.91251238e-02, 2.06462748e-04,
          1.45991202e-04, 0., 0., 0., 0., 7.11611211e-02, 9.87325385e-02,
          1.63613290e-01, 0., 0., 0., 0., 7.89316297e-02, 1.05439790e-01,
          1.16072195e-02, 4.51396927e-02, 1.32466570e-01, 1.21659167e-01,
          0., 3.48251611e-02, 1.71357676e-01, 7.29956009e-05, 0.,
          7.85624422e-03, 1.37598917e-01, 4.88054641e-02, 0., 0., 0.,
          5.29767908e-02, 3.10965806e-01, 1.11728013e-01, 1.34002115e-03,
          1.73508562e-03, 4.17303946e-03, 1.28141299e-01, 1.74655646e-01,
          1.30095531e-03, 7.43841454e-02, 1.15321316e-01, 0.,
          2.06462748e-04, 2.49637552e-02, 1.95425618e-02, 0.,
          1.86856501e-02, 3.63481827e-02, 5.73505312e-02, 8.31260718e-03,
          1.99256535e-03, 6.34452514e-03, 3.35203521e-02, 1.53290771e-03,
          0., 0., 2.73643643e-01, 1.61077037e-01, 1.35431439e-01,
          2.62753014e-03, 3.32430727e-03, 5.96295670e-03, 6.94575310e-02,
          6.45931810e-02, 1.04008969e-02, 6.27931906e-04, 2.44020671e-03,
          0., 3.70791048e-01, 2.92166825e-02, 3.28185223e-02,
          9.92910005e-04, 2.85325553e-02, 3.17366584e-03, 3.39624635e-03,
          8.48171264e-02, 3.23820531e-01, 1.45991202e-04, 2.44481228e-02,
          3.79318628e-03, 2.01499416e-03, 3.94055503e-04, 1.83962099e-02,
          3.08333579e-02, 5.24797663e-02, 1.11507224e-02, 1.03231374e-04,
          2.31291610e-03, 5.11824377e-02, 3.71542983e-02, 8.77613574e-02,
          2.80418426e-01, 6.78840876e-02, 7.21709337e-03 ]
      - [ 0., 0., 0., 0., 0., 0., 0., 0., 0., 0., 0., 0., 0., 0., 0., 0.,
          4.10476029e-02, 1.49724614e-02, 1.01089157e-04, 0., 0., 0., 0.,
          8.00704509e-02, 1.81346461e-01, 2.52986401e-02, 2.85089631e-02,
          2.27169623e-03, 9.36575159e-02, 1.01168286e-02, 4.26405556e-02,
          1.39673650e-01, 2.22093742e-02, 2.12588668e-01, 5.33698685e-02,
          7.14808266e-05, 0., 0., 0., 0., 1.42961653e-04, 2.21525893e-01,
          2.28504345e-01, 1.42961653e-04, 0., 0., 0., 0., 3.39552611e-01,
          2.40220446e-02, 2.09795788e-01, 7.14808266e-05, 3.83519800e-03,
          0., 0., 7.13420063e-02, 2.13817284e-02, 6.30092202e-03,
          1.01089157e-04, 2.14510467e-02, 3.99361521e-01, 1.33680180e-02,
          1.62309371e-02, 4.43601236e-03, 1.79571509e-01, 8.15241560e-02,
          5.38805202e-02, 2.10834271e-03, 4.73797787e-03, 7.75549700e-03,
          6.88897679e-03, 1.10054404e-01, 1.82170898e-03, 8.85679945e-03,
          1.08229853e-02, 1.25505333e-03, 9.32223978e-04, 1.94824710e-02,
          4.19258438e-02, 2.85923306e-04, 1.42746838e-02, 2.09772810e-02,
          5.75000346e-02, 1.27776396e-02, 2.09614355e-03, 2.14417721e-03,
          2.73000579e-02, 0., 4.65414394e-03, 2.68587354e-03,
          1.16791157e-02, 3.04110616e-01, 1.51071504e-01, 2.93557271e-02,
          2.60925153e-04, 3.34574305e-03, 4.24574455e-03, 0.,
          1.21055162e-02, 8.55351239e-03, 1.01089157e-04, 5.53469025e-02,
          3.44763130e-01, 9.82301459e-02, 4.53890301e-02, 1.71851565e-03,
          7.68177165e-03, 3.20712873e-03, 5.72338328e-03, 2.25848462e-02,
          1.82355925e-01, 4.44940059e-03, 4.47830372e-03, 2.19553080e-03,
          0., 0., 5.12485169e-02, 1.33206099e-01, 1.44599760e-02,
          1.41430628e-02, 2.04024301e-03, 0., 5.53041743e-03,
          5.41249625e-02, 1.88822448e-01, 2.15937659e-01, 2.10646586e-03,
          1.28863892e-03 ]
      - [ 0., 0., 0., 0., 0., 0., 0., 0., 0., 0., 0., 0., 0., 0., 0., 0.,
          3.68993878e-01, 7.57833524e-03, 1.24393415e-03, 0.,
          1.96326934e-02, 6.00740139e-04, 8.63840862e-04, 6.20659813e-02,
          2.59390636e-03, 0., 5.95491566e-03, 1.54534310e-01,
          2.31363818e-01, 4.56870198e-02, 9.94352158e-05, 2.43768422e-03,
          7.03113110e-05, 1.75287157e-01, 1.56066954e-01, 7.03113110e-05,
          0., 0., 0., 0., 1.48820467e-02, 2.88627893e-01, 9.02209058e-02,
          7.03113110e-05, 0., 0., 0., 8.13008565e-03, 2.48486385e-01,
          3.54372784e-02, 0., 4.37625945e-02, 1.16865687e-01,
          1.45606212e-02, 0., 9.62404236e-02, 0., 0., 0., 6.41873255e-02,
          1.99361205e-01, 1.01623572e-02, 9.94352158e-05, 7.03113110e-05,
          2.18006179e-01, 2.97087096e-02, 7.92649612e-02, 0., 0.,
          1.65940647e-03, 6.66379705e-02, 9.30425972e-02, 2.74475152e-03,
          4.35539670e-02, 2.04629749e-02, 2.97377002e-03, 2.06357357e-03,
          1.77648999e-02, 1.85105726e-02, 2.51926063e-03, 3.36243398e-03,
          5.25989523e-03, 3.75850387e-02, 6.75488114e-02, 3.14441771e-04,
          2.34151501e-02, 2.18208097e-02, 3.57152428e-03, 0.,
          5.69866411e-02, 3.52004200e-01, 1.17846593e-01, 8.32795911e-03,
          7.32697407e-03, 1.72470566e-02, 3.14441742e-03, 3.17027718e-02,
          0., 0., 0., 3.91355623e-03, 2.22023688e-02, 2.22366527e-01,
          2.22847357e-01, 1.96590479e-02, 0., 8.34260322e-03,
          1.15014436e-02, 7.60597130e-03, 1.54748578e-02, 4.32893932e-02,
          7.03113110e-05, 2.85202940e-03, 1.78473024e-03, 0., 0.,
          5.47150820e-02, 1.76924571e-01, 3.58800101e-03, 4.32737824e-03,
          2.29433086e-03, 0., 5.49148885e-04, 0., 4.96149585e-02,
          3.72574478e-01, 5.33946007e-02, 6.37179241e-04 ]
      - [ 0., 0., 0., 0., 0., 0., 0., 0., 2.24559292e-01, 1.14352722e-02,
          0., 0., 0., 0., 0., 2.02099979e-01, 7.47228367e-03,
          1.16708409e-03, 1.73563920e-02, 4.67807315e-02, 3.92217547e-01,
          1.02870574e-03, 7.16520357e-04, 1.01315677e-02, 0., 0., 0., 0.,
          0., 0., 0., 0., 1.88331376e-03, 1.07161485e-01, 4.38685268e-02,
          0., 0., 0., 0., 0., 1.99550733e-01, 1.54155180e-01,
          1.29879430e-01, 7.23794874e-05, 0., 0., 0., 1.79450125e-01,
          9.41712502e-03, 0., 0., 8.85229632e-02, 3.54460865e-01, 0.,
          8.18880450e-04, 9.36068129e-03, 0., 0., 0., 0., 0., 0., 0., 0.,
          9.82051939e-02, 2.12204143e-01, 1.46699265e-01, 0.,
          2.77130352e-03, 0., 6.77359775e-02, 9.46023241e-02,
          1.88834930e-03, 3.27416919e-02, 1.71276107e-02, 3.51836230e-03,
          2.74101528e-03, 7.31317606e-03, 7.82352872e-03, 4.52217134e-03,
          2.11188896e-03, 1.22762866e-01, 8.26084241e-02, 3.72432694e-02,
          1.00493602e-01, 2.50746850e-02, 1.98981296e-02, 0.,
          7.23794874e-05, 1.00796916e-01, 2.94460058e-01, 1.21474557e-01,
          3.96462344e-03, 2.09447443e-02, 2.90477090e-02, 7.56196328e-04,
          5.33923544e-02, 1.14946319e-02, 1.04407249e-02, 0.,
          3.91877984e-04, 1.53614848e-03, 2.94114321e-01, 1.33555695e-01,
          1.94484100e-03, 0., 9.04135499e-03, 1.11760534e-02,
          1.15293656e-02, 1.34960227e-02, 1.69232190e-02, 0.,
          2.22130283e-03, 3.77305341e-03, 2.20609060e-03, 0.,
          9.69434008e-02, 1.64521068e-01, 6.09358866e-03, 3.61897430e-04,
          0., 0., 0., 0., 1.35817692e-01, 2.98206568e-01, 4.04874273e-02,
          2.65123672e-03 ]
      - [ 3.96091416e-02, 0., 0., 0., 0., 0., 1.03729384e-04,
          3.65858525e-02, 2.39666834e-01, 3.98852630e-03, 1.12103950e-02,
          1.52458847e-01, 7.35172257e-02, 1.64010562e-04, 4.84983847e-02,
          1.20871313e-01, 0., 0., 1.15158306e-02, 1.93628237e-01,
          5.13480194e-02, 0., 0., 0., 0., 0., 0., 0., 0., 0., 0., 0.,
          4.57794219e-03, 6.28442541e-02, 2.07458768e-04, 1.46695500e-04,
          0., 0., 0., 0., 1.12517312e-01, 6.85375631e-02, 6.07753620e-02,
          7.88557716e-03, 4.75900574e-03, 0., 4.37877588e-02,
          3.00196320e-01, 7.33477500e-05, 0., 3.78867351e-02,
          2.11284727e-01, 2.18910113e-01, 1.68859190e-03, 3.02420522e-04,
          5.32057090e-03, 0., 0., 0., 0., 0., 0., 0., 0., 5.05549237e-02,
          3.02318960e-01, 1.21990837e-01, 1.43493840e-03, 0.,
          1.91969436e-03, 1.47077262e-01, 7.10485354e-02, 2.25178688e-03,
          7.66213909e-02, 2.80501842e-02, 2.13919999e-03, 1.19136111e-03,
          6.15515606e-03, 6.09308714e-03, 2.44192965e-03, 1.46695494e-03,
          6.68643638e-02, 2.18419090e-01, 3.68619300e-02, 5.58599830e-04,
          3.60482000e-02, 1.75071880e-02, 2.59161694e-03, 7.33477529e-04,
          5.96634075e-02, 3.98454398e-01, 4.99041677e-02, 5.38034225e-03,
          2.55285893e-02, 3.66017595e-02, 1.12076162e-03, 8.90037790e-02,
          3.31751481e-02, 8.92072730e-03, 2.66989856e-03, 1.03729384e-04,
          1.21412124e-03, 3.54681313e-01, 8.04411992e-02, 3.47923078e-02,
          2.31945945e-04, 8.77172966e-03, 7.40762567e-03, 6.39663124e-03,
          1.43798087e-02, 5.47251925e-02, 9.88909509e-03, 2.28174124e-03,
          0., 2.09040660e-03, 4.74264426e-03, 5.29608876e-02,
          6.56331927e-02, 6.56598061e-03, 0., 2.11440190e-03,
          1.18269678e-03, 3.11188138e-04, 0., 1.48641154e-01,
          3.18219095e-01, 3.99102420e-02, 1.36742380e-03 ]
      - [ 3.89801748e-02, 0., 0., 0., 0., 0., 0., 1.94025040e-02,
          9.78572220e-02, 3.91129032e-03, 3.01579349e-02, 9.78003368e-02,
          7.23388046e-02, 9.54729272e-04, 1.44608198e-02, 3.01331580e-01,
          6.80765079e-05, 0., 2.38023791e-02, 1.74965620e-01,
          9.57803875e-02, 0., 0., 0., 0., 0., 0., 0., 0., 0., 0., 0.,
          4.31701820e-03, 5.90571910e-02, 1.92549443e-04, 1.36153016e-04,
          0., 0., 0., 0., 1.26446173e-01, 5.71299642e-02, 6.56936839e-02,
          5.79359056e-03, 8.30895640e-03, 6.71947899e-04, 3.58111709e-02,
          2.74781436e-01, 2.12023058e-03, 1.59508351e-03, 1.39151863e-03,
          3.20377141e-01, 1.18440710e-01, 4.95604472e-04, 5.57004882e-04,
          3.68641620e-03, 0., 0., 0., 0., 0., 0., 0., 0., 4.68318239e-02,
          2.79097706e-01, 1.15478128e-01, 6.84160390e-04, 6.80765079e-05,
          3.13465740e-03, 1.29268646e-01, 9.25506055e-02, 2.27346481e-03,
          5.71563318e-02, 4.93465886e-02, 7.02124438e-04, 1.66554097e-03,
          2.14900146e-03, 8.12362880e-03, 3.72117991e-03, 1.52223700e-04,
          1.08452849e-02, 1.90585032e-01, 7.95398057e-02, 4.84991539e-03,
          1.91550404e-02, 1.45415375e-02, 1.94941449e-03, 1.36153016e-04,
          5.28066829e-02, 3.90909702e-01, 4.78850491e-03, 3.56794265e-03,
          2.24313401e-02, 2.45364048e-02, 7.48841558e-04, 2.95705721e-02,
          3.01877074e-02, 8.77295993e-03, 0., 1.64351222e-04, 0.,
          2.97912061e-01, 1.37926549e-01, 4.78485376e-02, 5.55659353e-04,
          1.54784825e-02, 4.82152635e-03, 2.71547120e-02, 2.53694821e-02,
          1.11684799e-01, 3.09590274e-03, 2.79092463e-03, 0.,
          5.06207254e-03, 4.16318979e-03, 8.21008757e-02, 2.11275324e-01,
          3.55420448e-02, 0., 1.49922958e-03, 0., 0., 1.54340116e-03,
          6.64486215e-02, 3.34136039e-01, 3.67700346e-02, 6.80765079e-05 ]
      - [ 0., 0., 0., 0., 0., 0., 0., 0., 0., 0., 0., 0., 0., 0., 0., 0.,
          9.48809981e-02, 1.56354886e-02, 1.02313003e-04, 0., 0., 0., 0.,
          1.18768096e-01, 2.00812429e-01, 2.69187056e-02, 2.96829026e-02,
          2.28435406e-03, 1.78396970e-01, 9.28346068e-03, 4.47036438e-02,
          6.30179569e-02, 4.37073968e-03, 2.34374046e-01, 3.06939008e-04,
          1.44692429e-04, 0., 0., 0., 0., 0., 2.77773023e-01,
          1.68604046e-01, 0., 0., 0., 0., 0., 2.60374039e-01,
          1.29921004e-01, 1.61155164e-01, 5.20892767e-03, 0.,
          7.18405645e-04, 0., 9.56042185e-02, 3.49041587e-03,
          5.88331651e-03, 3.06939008e-04, 5.73161170e-02, 3.91746581e-01,
          2.62039173e-02, 1.72246750e-02, 6.80561829e-03, 1.87923506e-01,
          1.83563501e-01, 5.54536469e-02, 2.34117280e-04, 5.04567754e-03,
          5.21695998e-04, 1.61530077e-02, 1.15180433e-01, 1.13820692e-03,
          1.50930407e-02, 1.24764079e-02, 1.80339266e-03, 9.66568361e-04,
          1.38259130e-02, 2.77553722e-02, 1.84210658e-03, 4.45817481e-04,
          3.07109486e-03, 3.97803746e-02, 1.88358221e-03, 8.12854525e-03,
          5.99775603e-03, 1.23745725e-02, 2.54247198e-03, 1.13873798e-02,
          0., 8.60659685e-03, 2.49668971e-01, 1.92575157e-01, 0.,
          1.02313003e-03, 7.51327677e-03, 1.45284459e-02, 0.,
          1.55884784e-03, 5.50409826e-03, 7.32891262e-03, 8.59614611e-02,
          2.12830856e-01, 2.14924887e-01, 4.87960279e-02, 0.,
          1.02639692e-02, 2.96047470e-03, 1.19534619e-02, 5.58657199e-02,
          2.21707225e-01, 1.69711153e-03, 5.38390921e-03, 1.13239745e-03,
          0., 3.61731101e-04, 2.15405226e-02, 4.26585712e-02,
          3.81684527e-02, 1.06473444e-02, 1.94394705e-03, 1.46489928e-03,
          7.00900098e-03, 1.26822576e-01, 3.01923752e-01, 6.36476949e-02,
          2.77110953e-02, 5.44608757e-03 ]
      - [ 0., 0., 0., 0., 0., 0., 0., 0., 1.57091022e-01, 8.50409642e-03,
          4.92872670e-03, 2.77626254e-02, 2.70125307e-02, 1.45894510e-03,
          3.48762088e-02, 2.82441020e-01, 0., 2.16181483e-03,
          2.41932105e-02, 3.20431411e-01, 8.80784690e-02, 0., 0., 0., 0.,
          0., 0., 0., 0., 0., 0., 0., 1.42160070e-03, 2.22784877e-02,
          1.00522346e-04, 7.10800305e-05, 0., 0., 0., 0., 2.00952366e-01,
          9.04496536e-02, 6.34068698e-02, 4.85839602e-03, 2.44727382e-03,
          0., 6.51328564e-02, 1.89007014e-01, 2.41253641e-03, 0.,
          4.05004993e-02, 2.73580492e-01, 1.63009867e-01, 1.58939787e-04,
          3.94496322e-03, 1.03527578e-02, 0., 0., 0., 7.10800305e-05,
          1.71602383e-04, 0., 0., 0., 4.32817154e-02, 2.03878015e-01,
          2.17350066e-01, 5.06841298e-03, 8.52960395e-04, 2.30406551e-03,
          1.17377341e-01, 1.21783786e-01, 2.15604696e-02, 8.93604383e-02,
          1.06833093e-01, 3.54396296e-03, 9.84330080e-04, 1.19621037e-02,
          1.22371046e-02, 4.04051319e-03, 1.53111084e-03, 1.34248324e-02,
          9.18887183e-02, 5.69254868e-02, 4.55056392e-02, 2.09028162e-02,
          2.03277636e-02, 6.65894989e-03, 4.97560250e-04, 0.,
          4.47524697e-01, 3.95250581e-02, 6.55916706e-03, 1.76427830e-02,
          2.36052182e-02, 0., 1.26759976e-01, 1.14613108e-03,
          1.16661726e-03, 2.96035269e-03, 2.72124715e-04, 0.,
          2.24751502e-01, 1.60324246e-01, 3.00561823e-02, 1.64100993e-03,
          9.84420162e-03, 8.11113510e-03, 1.13783013e-02, 1.41154220e-02,
          7.89721161e-02, 5.05935866e-03, 1.50783523e-03, 2.43207207e-03,
          1.49437215e-03, 0., 3.10178921e-02, 7.50169903e-02,
          1.30907772e-02, 2.23251642e-03, 3.55519331e-03, 0., 0., 0.,
          2.62569815e-01, 2.25131080e-01, 4.44687381e-02, 1.97683438e-03 ]
      - [ 0., 0., 0., 0., 0., 0., 0., 0., 0., 0., 0., 0., 0., 0., 0., 0.,
          2.21123934e-01, 0., 1.01372796e-04, 0., 0., 0., 0., 0.,
          1.98475793e-01, 6.95187226e-02, 2.41049770e-02, 4.81733121e-03,
          2.49370813e-01, 1.41084278e-02, 5.39437868e-02, 0.,
          7.07957819e-02, 1.48145154e-01, 1.01372796e-04, 8.47034215e-04,
          0., 0., 0., 4.74132262e-02, 8.60176689e-04, 2.15024009e-01,
          2.20609158e-01, 3.72743257e-03, 1.01372796e-04, 0., 0., 0.,
          3.23889017e-01, 1.19057655e-01, 6.01813309e-02, 2.15044172e-04,
          3.14142182e-02, 5.92181284e-04, 1.58320914e-03, 8.82192631e-04,
          3.05169169e-03, 0., 4.58984898e-04, 1.43362791e-04,
          4.13047731e-01, 3.61342691e-02, 1.01372796e-04, 0.,
          6.95709363e-02, 1.95548669e-01, 5.54916486e-02, 4.15377272e-03,
          2.29491922e-03, 2.19325558e-03, 4.53425050e-02, 1.38245359e-01,
          2.37322971e-03, 4.79375850e-03, 1.99503289e-03, 2.01463723e-03,
          1.19933672e-03, 1.59778371e-02, 2.05145795e-02, 6.08714623e-03,
          2.49684509e-03, 2.18833797e-03, 7.32616484e-02, 4.13633250e-02,
          1.21438667e-01, 6.55169599e-03, 1.63941327e-02, 9.26130265e-03,
          0., 0., 3.09531689e-02, 2.24897236e-01, 4.57407534e-02, 0., 0.,
          0., 8.29784498e-02, 0., 1.44147500e-03, 3.06300679e-03,
          8.96944944e-03, 1.27643077e-02, 1.88158408e-01, 2.53804773e-01,
          6.62724720e-03, 0., 0., 5.35613101e-04, 2.98724901e-02,
          1.30776251e-02, 9.71266883e-04, 2.85414187e-03, 5.80669567e-03,
          0., 1.32173963e-03, 4.17970761e-04, 4.69945259e-02,
          3.87394875e-01, 2.43026693e-03, 6.37144083e-03, 0.,
          5.59849548e-04, 0., 5.40270805e-02, 6.35542944e-02,
          9.93444026e-02, 0., 0. ]
      - [ 0., 0., 0., 0., 0., 0., 0., 0., 0., 0., 0., 0., 0., 0., 0., 0.,
          1.64247528e-01, 1.43812941e-02, 1.93205109e-04, 0., 0., 0., 0.,
          6.83083199e-05, 2.65433758e-01, 3.68271917e-02, 2.32693851e-02,
          6.73898682e-03, 1.92677349e-01, 1.54725322e-02, 5.50337285e-02,
          2.70821666e-03, 1.10854886e-01, 1.53014421e-01, 9.66025575e-04,
          2.08542892e-03, 0., 0., 0., 6.83083199e-05, 1.77756813e-03,
          1.59704864e-01, 2.73774147e-01, 8.90549272e-03, 0., 0., 0., 0.,
          3.48105520e-01, 9.25300717e-02, 1.94891002e-02, 4.12909314e-02,
          6.02172278e-02, 1.75921689e-03, 3.86410218e-04, 3.05484107e-04,
          3.23316874e-03, 8.22541129e-04, 0., 6.83083199e-05,
          4.18290615e-01, 2.45503783e-02, 1.06262811e-03, 0.,
          1.54864118e-01, 1.76842868e-01, 5.16541786e-02, 1.90629740e-03,
          4.75106807e-03, 5.75560238e-03, 3.42243724e-03, 0.,
          4.32517147e-03, 5.50829899e-03, 6.61662081e-03, 7.11960020e-03,
          1.52331404e-03, 1.16142025e-02, 2.08582412e-02, 2.91713001e-03,
          5.99328941e-03, 1.45179899e-02, 4.71761897e-02, 2.09302902e-01,
          2.20334053e-01, 1.28822320e-03, 8.00541695e-03, 3.44204716e-03,
          0., 0., 0., 3.85938920e-02, 9.11518559e-03, 0., 0., 0.,
          4.65624332e-02, 0., 2.51166662e-03, 9.63311829e-03,
          1.17997313e-02, 1.69140287e-03, 2.92150557e-01, 1.94950833e-03,
          1.81051530e-03, 4.37960261e-03, 1.84558926e-03, 0.,
          2.20045932e-02, 4.82662804e-02, 3.25518847e-02, 4.21854574e-03,
          1.33847108e-03, 1.50433474e-03, 8.55900871e-04, 2.11976208e-02,
          4.21078838e-02, 3.88202548e-01, 1.26946187e-02, 7.54236011e-03,
          0., 0., 0., 9.13661197e-02, 5.65487258e-02, 3.41041237e-02, 0.,
          0. ]
      - [ 1.64353391e-04, 0., 0., 0., 0., 0., 0., 6.80774028e-05,
          1.61490351e-01, 8.34135711e-03, 3.49324010e-03, 2.96005365e-02,
          3.71321701e-02, 9.25952801e-04, 1.22997807e-02, 2.80149519e-01,
          6.80774028e-05, 0., 2.32869070e-02, 1.87383279e-01,
          1.79059610e-01, 0., 0., 0., 0., 0., 0., 0., 0., 0., 0., 0.,
          4.24899766e-03, 5.89516684e-02, 1.92551975e-04, 1.36154806e-04,
          0., 0., 0., 0., 1.43387631e-01, 5.70358187e-02, 6.54019862e-02,
          1.98495202e-03, 1.27038816e-02, 6.12961943e-04, 4.41201590e-03,
          2.63118267e-01, 0., 0., 4.59412858e-02, 1.94250032e-01,
          2.08625942e-01, 0., 9.45161271e-04, 1.06758485e-02, 0., 0., 0.,
          0., 0., 0., 0., 0., 1.51614873e-02, 3.08788717e-01,
          1.33465707e-01, 1.07639830e-03, 0., 1.99140469e-03,
          1.13739789e-01, 7.74435252e-02, 2.10664165e-03, 5.60258590e-02,
          4.56180647e-02, 1.76688482e-03, 2.34306999e-03, 2.93259602e-03,
          3.26619577e-03, 3.51014524e-03, 2.38650572e-03, 6.87804213e-03,
          1.67814791e-01, 1.25248075e-01, 4.78941156e-03, 2.11566146e-02,
          1.55166825e-02, 0., 1.36154806e-04, 1.04025543e-01,
          3.41740787e-01, 3.13235191e-03, 4.43214690e-03, 1.75747536e-02,
          3.00755333e-02, 0., 3.94455642e-02, 3.33846323e-02,
          2.39711162e-02, 7.48851395e-04, 6.80774028e-05, 0.,
          3.56111825e-01, 9.81378779e-02, 1.69384982e-02, 0.,
          1.28034707e-02, 5.04815951e-03, 8.37179180e-03, 1.54985134e-02,
          2.11850703e-02, 1.75359473e-03, 1.60005712e-03, 2.10213498e-03,
          2.67677079e-03, 2.88837985e-03, 6.15404956e-02, 1.98605865e-01,
          1.19358301e-02, 0., 8.53007426e-04, 5.48857555e-04, 0., 0.,
          3.10443398e-02, 3.78108025e-01, 3.77862081e-02, 5.48857555e-04 ]
      - [ 2.24723034e-02, 0., 0., 0., 0., 0., 0., 2.66755112e-02,
          1.43700659e-01, 3.97508452e-03, 3.10879461e-02, 1.00423761e-01,
          5.97937107e-02, 2.55556894e-03, 1.57402940e-02, 2.66200632e-01,
          0., 0., 2.71691736e-02, 2.18320400e-01, 5.11774048e-02, 0., 0.,
          0., 0., 0., 0., 0., 0., 0., 0., 0., 2.45343125e-03,
          2.37091631e-02, 1.00821009e-04, 7.12912151e-05, 0., 0., 0.,
          7.12912151e-05, 2.36825585e-01, 8.84460360e-02, 3.46464142e-02,
          9.27947182e-03, 6.98766392e-03, 4.53353219e-04, 4.02774699e-02,
          1.68024793e-01, 1.00821009e-04, 0., 3.21710780e-02,
          2.73703218e-01, 1.62138149e-01, 4.33647569e-04, 1.33245182e-03,
          6.96084555e-03, 0., 0., 0., 0., 0., 0., 0., 0., 6.69278949e-02,
          2.46604800e-01, 2.03472883e-01, 4.80161374e-03, 7.97060027e-04,
          1.18652242e-03, 1.24901123e-01, 1.13418236e-01, 9.19695199e-03,
          8.47735628e-02, 3.16806734e-02, 3.18824023e-04, 1.98474317e-03,
          4.86303493e-03, 1.30553460e-02, 2.02584616e-03, 2.53860815e-03,
          6.05019405e-02, 1.14030398e-01, 7.18990490e-02, 5.38490713e-02,
          3.62524353e-02, 7.35298870e-03, 3.20589845e-03, 7.73428241e-04,
          5.53715490e-02, 4.03573990e-01, 4.17337613e-03, 6.16724975e-03,
          1.87218450e-02, 3.22385207e-02, 5.04105061e-04, 7.11258203e-02,
          3.28341536e-02, 9.02313925e-03, 3.76809645e-03, 1.72112224e-04,
          0., 3.89227122e-01, 3.42249051e-02, 4.83645573e-02, 0.,
          1.38544273e-02, 5.21070976e-03, 7.63627095e-03, 1.72790978e-02,
          1.16055183e-01, 2.11160514e-03, 4.03284037e-04, 2.71997019e-03,
          7.44302233e-04, 4.38156538e-03, 5.48655018e-02, 1.32181540e-01,
          8.83328263e-03, 1.15222845e-03, 2.04937393e-03, 0.,
          1.00821009e-04, 9.69665416e-04, 2.24148437e-01, 2.41647393e-01,
          4.13770154e-02, 1.85863825e-03 ]
      - [ 0., 0., 0., 0., 0., 0., 0., 0., 2.80684024e-01, 3.57660186e-03,
          1.93524850e-03, 0., 1.97713710e-02, 0., 1.79480738e-03,
          1.64620146e-01, 1.29826851e-02, 3.67418677e-02, 9.68900058e-05,
          1.08763687e-01, 3.13246459e-01, 0., 0., 0., 1.86874941e-01,
          1.55589268e-01, 1.53663322e-01, 6.16756408e-03, 6.33846074e-02,
          4.30742428e-02, 5.16423732e-02, 2.47022021e-04, 7.26825520e-02,
          1.22244500e-01, 9.68900058e-05, 6.85115810e-05, 0., 0., 0., 0.,
          1.89755067e-01, 6.23992980e-02, 9.18338075e-02, 8.11392255e-03,
          9.34813470e-02, 7.05369865e-04, 0., 1.59752265e-01,
          2.96839237e-01, 1.64091945e-01, 5.13629697e-04, 5.92860058e-02,
          2.81483352e-01, 1.25433384e-02, 7.42045639e-04, 0.,
          2.51363055e-03, 1.07755018e-02, 0., 6.85115810e-05,
          2.42462233e-01, 2.17432663e-01, 9.68900058e-05, 0.,
          1.20924540e-01, 1.73813105e-01, 5.23475707e-02, 1.53196554e-04,
          7.15281873e-04, 1.47578458e-03, 3.79256299e-03, 5.47797494e-02,
          7.37998402e-03, 1.13579016e-02, 1.32683702e-02, 4.25091665e-03,
          2.19897125e-02, 1.07735889e-02, 1.48291485e-02, 5.89958858e-03,
          4.31315787e-03, 7.51251820e-03, 5.11120185e-02, 1.68948531e-01,
          1.71429753e-01, 1.48756072e-01, 2.69407546e-03, 8.95266654e-04,
          0., 0., 0., 0., 9.41109285e-03, 0., 0., 0., 4.83973399e-02, 0.,
          1.16268010e-03, 0., 1.91878583e-02, 7.33580953e-03,
          1.94829434e-01, 7.15936394e-03, 3.34830373e-03, 1.78261800e-03,
          0., 1.23511010e-03, 3.15455571e-02, 6.87847584e-02,
          1.47940442e-02, 9.05643310e-03, 9.68900058e-05, 0.,
          1.49631547e-03, 1.11545198e-01, 1.58025905e-01, 2.54649758e-01,
          1.01531306e-02, 6.43727835e-03, 0., 0., 0., 0., 0., 0., 0., 0. ]
      - [ 4.51298989e-02, 6.14778325e-02, 7.99646005e-02, 4.92394296e-03,
          2.02670973e-02, 2.97461054e-03, 2.31018066e-02, 2.87784815e-01,
          1.47225961e-04, 0., 1.34760126e-01, 1.98806554e-01,
          5.65150864e-02, 0., 1.70080620e-03, 6.09829876e-05,
          2.45935529e-01, 7.06040040e-02, 8.62429733e-05, 2.23535881e-03,
          5.48776751e-03, 1.12458284e-03, 1.34766428e-03, 9.11377966e-02,
          5.88874798e-03, 3.10953445e-04, 1.49689065e-02, 8.23548213e-02,
          2.78525174e-01, 6.73640473e-03, 1.55476725e-03, 0.,
          1.55687490e-02, 1.86201185e-01, 2.28623599e-02, 2.86878529e-03,
          0., 0., 7.48525141e-03, 2.81933695e-01, 2.23367270e-02,
          1.51169589e-02, 9.95030329e-02, 1.86849475e-01, 8.45507905e-02,
          6.00612781e-04, 1.49261823e-03, 3.52317765e-02, 2.46966094e-01,
          3.36992815e-02, 2.25719460e-03, 1.76850660e-03, 1.03060991e-01,
          1.36583904e-03, 9.90658533e-04, 6.14325479e-02, 0., 0., 0.,
          4.20871116e-02, 2.44123206e-01, 3.81229050e-03, 0., 0.,
          1.19574919e-01, 1.34268254e-01, 4.57419902e-02, 0.,
          4.26880899e-04, 2.51305522e-03, 1.61228888e-02, 1.38983756e-01,
          5.38383902e-04, 2.42133019e-03, 1.33234868e-02, 1.56542379e-02,
          1.02184480e-02, 1.35392668e-02, 7.36129819e-04, 1.42553914e-03,
          1.06263198e-02, 2.97123659e-02, 1.20312059e-02, 5.47699742e-02,
          3.23529467e-02, 6.18791534e-03, 2.93455999e-02, 5.01472782e-03,
          0., 8.28844085e-02, 2.51437664e-01, 8.67948756e-02,
          1.50649874e-02, 5.02445828e-03, 1.03009781e-02, 1.58203556e-03,
          3.18654962e-02, 1.42235542e-03, 0., 0., 1.92845153e-04,
          1.96047430e-03, 2.16129944e-01, 1.62886545e-01, 1.30226882e-02,
          4.31214838e-04, 2.56421417e-03, 1.30629987e-02, 1.19710295e-02,
          1.57991648e-02, 1.66045446e-02, 1.82948963e-04, 1.35272858e-03,
          3.15463613e-03, 0., 1.34301104e-03, 4.15069163e-02,
          2.36086413e-01, 5.18860202e-03, 1.79497979e-03, 2.86755757e-03,
          1.91490469e-03, 0., 0., 5.09529673e-02, 3.18413198e-01,
          4.68614027e-02, 1.54816371e-03 ]
      - [ 0., 0., 0., 0., 0., 0., 0., 0., 1.64106742e-01, 3.08242720e-03,
          7.13996263e-03, 9.83065888e-02, 1.84726328e-01, 2.74405279e-03,
          1.54415576e-03, 2.58278847e-01, 7.68676773e-02, 1.37429824e-02,
          1.78560207e-04, 6.81744888e-02, 7.48373866e-02, 0., 0., 0.,
          2.40987182e-01, 1.20000057e-01, 1.24147899e-01, 0.,
          1.19650610e-01, 9.64744575e-03, 4.78875861e-02, 0.,
          2.52570063e-02, 1.44263044e-01, 0., 0., 0., 0., 0., 0.,
          8.69302824e-02, 8.31097215e-02, 7.88927376e-02, 1.47389444e-02,
          3.37643772e-02, 8.81237676e-04, 5.37537038e-03, 2.25388408e-01,
          3.67141008e-01, 2.05110461e-02, 1.94257516e-02, 1.29822925e-01,
          1.82564512e-01, 4.93065454e-04, 0., 1.95145118e-03,
          4.21969360e-03, 5.25351055e-03, 8.92801036e-05, 0.,
          4.19295341e-01, 2.79555358e-02, 4.10688482e-03, 1.45936932e-03,
          1.50991991e-01, 1.49159953e-01, 4.74077351e-02, 3.43186292e-03,
          4.63501690e-03, 1.69381651e-03, 1.11047993e-03, 1.02440216e-01,
          2.26198160e-03, 1.11486055e-02, 2.12715324e-02, 2.41509476e-03,
          7.76246097e-03, 6.53312635e-03, 1.55625818e-02, 4.90749627e-03,
          2.00154148e-02, 2.58357413e-02, 3.94263528e-02, 1.06473736e-01,
          1.72974020e-01, 1.44431833e-02, 4.30080749e-04, 1.64629926e-03,
          0., 0., 8.92801036e-05, 2.36887969e-02, 9.69392881e-02,
          2.69907396e-02, 0., 0., 5.67375496e-02, 0., 1.60141243e-03,
          6.50734035e-03, 9.98212304e-03, 7.20751956e-02, 2.08609194e-01,
          8.46451893e-02, 1.42936576e-02, 0., 0., 3.37147340e-03,
          5.38580678e-03, 1.10303201e-02, 3.41281220e-02, 6.45940145e-03,
          1.31505402e-03, 1.19114516e-03, 7.45903095e-03, 2.30351780e-02,
          4.56066430e-02, 2.95859665e-01, 1.96838118e-02, 5.24918083e-03,
          0., 0., 6.63041472e-02, 4.32395488e-02, 6.51589781e-02,
          9.64643881e-02, 0., 0. ]
      - [ 1.64408907e-02, 4.02097106e-02, 1.63875699e-01, 2.57157665e-02,
          2.87777912e-02, 3.30087915e-03, 1.24227673e-01, 1.57959387e-01,
          6.90050540e-04, 0., 1.79660656e-02, 2.71661133e-01,
          4.77091555e-04, 0., 0., 0., 2.81803727e-01, 7.10699754e-03,
          1.19691843e-03, 3.79693182e-03, 1.36586213e-02, 0.,
          6.35430450e-04, 9.50372368e-02, 2.29868991e-03, 0.,
          5.21985069e-03, 1.35177150e-01, 2.02247411e-01, 3.97625491e-02,
          8.81183514e-05, 2.16024788e-03, 6.39488026e-02, 2.53135294e-01,
          7.66629633e-03, 1.94994325e-03, 3.53861949e-03, 0.,
          8.00130963e-02, 1.90802976e-01, 2.86058467e-02, 5.10133384e-03,
          9.25024450e-02, 2.94796288e-01, 6.17963821e-03, 6.42640633e-04,
          5.13813808e-04, 7.33784493e-03, 2.32089862e-01, 3.65326665e-02,
          8.65625450e-04, 6.67039454e-02, 1.38251871e-01, 1.74367186e-02,
          0., 5.54447100e-02, 6.23090818e-05, 0., 8.81183514e-05,
          6.93830997e-02, 1.00225151e-01, 8.69764201e-03, 8.81183514e-05,
          6.23090818e-05, 2.12639958e-01, 2.50143781e-02, 5.29325493e-02,
          7.58945826e-04, 0., 1.37849781e-03, 5.94438277e-02,
          6.41371086e-02, 8.90475814e-04, 4.49317187e-04, 1.20411403e-02,
          1.94549672e-02, 1.11668166e-02, 8.05283710e-03, 1.86199788e-03,
          1.27156125e-03, 1.06891338e-02, 3.17967795e-02, 6.02227449e-02,
          1.86950639e-02, 4.25630336e-04, 1.03537347e-02, 2.68045925e-02,
          3.58749926e-03, 1.04911008e-03, 5.02129048e-02, 3.13226819e-01,
          8.54882002e-02, 2.58359499e-03, 1.68985166e-02, 3.27278413e-02,
          2.83865212e-03, 3.24405804e-02, 0., 4.53616987e-04,
          1.36654475e-03, 8.83563887e-04, 0., 2.30101362e-01,
          1.63575277e-01, 1.28652789e-02, 0., 7.58306996e-04,
          1.34675205e-02, 8.97006597e-03, 1.36595741e-02, 1.36665571e-02,
          2.04102159e-03, 1.50139618e-03, 1.19089242e-03, 7.70720828e-04,
          1.13145658e-03, 4.61990647e-02, 2.28616461e-01, 2.92138453e-03,
          1.90643268e-03, 1.34782575e-03, 0., 7.60579249e-04, 0.,
          6.03121258e-02, 2.97072172e-01, 3.30430903e-02, 2.59347697e-04 ]
      - [ 0., 9.99582782e-02, 2.70256460e-01, 7.04341456e-02, 0., 0.,
          9.17268693e-02, 4.70843352e-03, 1.94645047e-01, 1.42349198e-03,
          5.49518429e-02, 8.60444177e-03, 8.95827397e-05, 0.,
          1.72315829e-03, 2.01698333e-01, 0., 0., 5.83027629e-03,
          2.62546897e-01, 1.47680968e-01, 1.14196038e-03, 2.83285481e-04,
          6.82887714e-03, 0., 0., 0., 0., 0., 0., 0., 0., 2.31225480e-04,
          0., 3.65975918e-03, 0., 0., 2.00313094e-04, 2.53376156e-01,
          1.68954715e-01, 4.39311005e-02, 0., 2.50537008e-01,
          2.13712513e-01, 1.00315094e-03, 4.24928265e-04, 6.88929856e-02,
          2.01182276e-01, 7.68226832e-02, 1.57126430e-02, 2.73251976e-03,
          2.59822458e-01, 1.45725921e-01, 0., 3.22425598e-03,
          8.24746490e-02, 0., 0., 0., 6.33445597e-05, 1.52927299e-04, 0.,
          0., 0., 6.08259328e-02, 2.24247798e-02, 0., 0., 0., 0., 0.,
          9.09614116e-02, 9.86409485e-02, 8.15640241e-02, 1.38716986e-02,
          8.95278715e-03, 1.89990795e-03, 6.36379584e-04, 4.07062285e-02,
          1.08395427e-01, 9.57988575e-03, 2.03536507e-02, 4.88662459e-02,
          7.22188205e-02, 4.84477878e-02, 2.00866666e-02, 1.00892568e-02,
          6.46883994e-03, 0., 3.71366628e-02, 3.68169367e-01,
          1.44239208e-02, 2.00564936e-02, 6.26102323e-03, 3.21140811e-02,
          0., 1.35187795e-02, 0., 0., 0., 0., 0., 0., 2.17082482e-02,
          7.00918734e-02, 2.72468515e-02, 8.95827397e-05, 4.09974600e-04,
          4.00626188e-04, 5.11677528e-04, 2.68318325e-01, 1.32332131e-01,
          3.58330947e-03, 2.00313094e-04, 8.98126699e-03, 1.18784979e-02,
          4.64031585e-02, 5.40850051e-02, 5.38162049e-03, 5.70101081e-04,
          0., 0., 0., 0., 1.95169717e-01, 2.20533416e-01, 3.12415343e-02,
          1.46769895e-03 ]
      - [ 9.66737280e-04, 1.06954522e-01, 2.95584351e-01, 7.43025318e-02,
          0., 0., 1.11451097e-01, 1.67292892e-03, 8.82482901e-02, 0.,
          1.26610503e-01, 1.10894619e-02, 2.01033123e-04, 0., 0.,
          1.29959270e-01, 4.14139330e-02, 4.96400148e-03, 8.00033379e-03,
          3.38155091e-01, 1.18115574e-01, 2.97915889e-03, 4.71873628e-03,
          2.09030598e-01, 0., 0., 1.00516561e-04, 2.09473316e-02,
          1.71592503e-04, 0., 0., 0., 4.67430305e-04, 0., 0.,
          9.43896302e-04, 7.10759414e-05, 0., 2.68322647e-01,
          1.45746663e-01, 0., 0., 2.40818724e-01, 1.76851615e-01,
          2.91916216e-03, 0., 8.62819031e-02, 1.40231773e-01,
          9.45481807e-02, 4.58867103e-02, 1.10550955e-01, 8.25769007e-02,
          4.66700643e-02, 5.42623107e-04, 2.10508108e-02, 2.51120716e-01,
          0., 0., 2.10638810e-02, 2.01886192e-01, 1.15763575e-01, 0., 0.,
          0., 6.87645003e-02, 1.02440856e-01, 1.00516561e-04,
          7.10759414e-05, 0., 0., 9.63395461e-02, 8.22817758e-02,
          1.96555424e-02, 1.66274101e-01, 1.15795741e-02, 5.28526073e-03,
          7.86260294e-04, 4.76128375e-03, 2.10250113e-02, 9.79667902e-02,
          6.39683509e-04, 2.38565207e-02, 2.33795848e-02, 0.,
          5.14310319e-04, 1.27846189e-02, 3.39915231e-02, 6.07273076e-04,
          0., 2.91274861e-03, 2.69723982e-01, 1.92094177e-01,
          2.45472211e-02, 1.99754653e-03, 8.29541963e-03, 0.,
          2.26683207e-02, 0., 0., 0., 0., 0., 1.00516561e-04,
          3.54925729e-02, 1.51469827e-01, 2.43117125e-03, 2.44119484e-03,
          5.95229259e-03, 1.45141780e-02, 6.06230646e-03, 1.68015704e-01,
          1.59934953e-01, 1.91986635e-02, 6.74285635e-04, 7.53668230e-03,
          8.82649422e-03, 1.92991793e-02, 5.85638694e-02, 3.88578586e-02,
          2.26945058e-03, 9.19506885e-04, 1.46526797e-03, 8.04132491e-04,
          1.35231193e-03, 4.98308390e-02, 1.81609839e-01, 7.56729245e-02,
          2.32749595e-03 ]
      - [ 5.44304214e-03, 9.06807557e-02, 2.79620856e-01, 7.78289605e-03,
          0., 0., 3.23095173e-02, 3.49929323e-03, 9.29848403e-02,
          1.37964112e-03, 1.61474789e-04, 1.61647219e-02, 5.20235766e-03,
          0., 8.07373945e-05, 2.78677136e-01, 1.15598354e-03, 0.,
          3.57045326e-03, 2.90136635e-01, 9.08982754e-02, 1.22975535e-03,
          1.20463583e-03, 5.03082480e-03, 0., 0., 0., 0., 0., 0., 0., 0.,
          5.70899574e-05, 0., 3.68762040e-03, 2.47393623e-02,
          4.34784160e-04, 0., 3.09742659e-01, 9.56978723e-02,
          8.76753870e-03, 0., 2.78584212e-01, 1.37147352e-01,
          1.61798939e-03, 0., 8.93832669e-02, 1.89514771e-01,
          4.12603095e-02, 5.38585591e-04, 1.09438086e-02, 3.22101593e-01,
          4.46002856e-02, 0., 4.68781032e-03, 1.21356569e-01, 0., 0.,
          8.07373945e-05, 3.76793719e-03, 8.07373945e-05, 0., 0., 0.,
          4.94453348e-02, 2.00963952e-02, 0., 0., 0., 0., 2.06395183e-02,
          4.23239321e-02, 7.68606514e-02, 8.22191164e-02, 5.57919592e-02,
          1.25150150e-02, 2.38729618e-03, 6.98442920e-04, 1.05766758e-01,
          1.15094014e-01, 6.92505715e-03, 3.17888856e-02, 2.67794430e-02,
          6.27366081e-02, 2.39968672e-03, 1.33145293e-02, 9.17123072e-03,
          1.14179915e-04, 5.70899574e-05, 6.65777596e-04, 3.65775138e-01,
          2.45976951e-02, 1.84737537e-02, 1.56375300e-02, 2.15451401e-02,
          0., 0., 0., 0., 0., 0., 0., 0., 5.70899574e-05, 7.71425515e-02,
          1.10285357e-03, 6.38285070e-04, 1.19456428e-03, 0.,
          2.05840770e-04, 2.33712643e-01, 1.38144240e-01, 1.65728945e-02,
          1.80534305e-04, 1.37490826e-03, 1.25993211e-02, 5.46963513e-02,
          1.43829077e-01, 1.38763925e-02, 1.95444515e-03, 5.27661992e-04,
          0., 0., 0., 1.28497973e-01, 2.37946793e-01, 3.06684449e-02, 0. ]
      - [ 8.06412101e-03, 1.02988690e-01, 2.70826161e-01, 1.14682361e-01,
          0., 2.74567748e-03, 9.52372104e-02, 7.31742010e-02,
          4.54651937e-02, 0., 6.56148419e-02, 5.78141063e-02,
          3.61222134e-04, 0., 0., 2.86160801e-02, 1.37837142e-01,
          4.10234695e-03, 6.07765140e-03, 1.55191004e-01, 2.77712047e-01,
          0., 8.90118256e-03, 2.28225544e-01, 0., 0., 9.74404466e-05,
          2.01445036e-02, 1.66341240e-04, 0., 0., 0., 5.33390138e-03,
          1.28654605e-02, 1.18685781e-03, 1.94320525e-03, 0., 0.,
          2.33659387e-01, 1.56877846e-01, 1.71750616e-02, 1.60989184e-02,
          2.39873707e-01, 2.17338964e-01, 4.87202225e-04, 0.,
          8.17157701e-02, 7.69903660e-02, 1.81306988e-01, 2.19676886e-02,
          7.04761967e-02, 2.96686441e-02, 2.16797188e-01, 0.,
          1.76311713e-02, 1.52206510e-01, 0., 0., 0., 7.58052468e-02,
          1.01924673e-01, 0., 0., 0., 1.61191612e-01, 7.64552280e-02, 0.,
          0., 6.89008011e-05, 0., 6.42611161e-02, 9.64999199e-02,
          5.63554689e-02, 8.10609087e-02, 3.37574370e-02, 1.14982724e-02,
          2.66961963e-03, 6.12021657e-03, 1.83531772e-02, 4.49182615e-02,
          0., 3.58385257e-02, 3.17462608e-02, 5.41229034e-03,
          2.09594239e-02, 7.88255688e-03, 3.88629399e-02, 1.50457788e-02,
          6.89008011e-05, 0., 3.88510525e-01, 5.69406301e-02,
          9.27705094e-02, 4.72616591e-03, 1.12610832e-02, 0.,
          9.44270194e-02, 0., 0., 0., 0., 0., 2.45365221e-02,
          6.53555766e-02, 5.95408045e-02, 1.66674936e-03, 1.32388324e-02,
          7.62509461e-03, 6.03322824e-03, 2.70484723e-02, 1.74659014e-01,
          1.31940275e-01, 4.07931861e-03, 0., 0., 4.42719087e-03,
          7.28394277e-03, 0., 1.06130047e-02, 1.88506895e-03,
          1.69860991e-03, 6.23923319e-04, 0., 0., 2.08245814e-01,
          2.05637053e-01, 5.96016385e-02, 4.54013282e-03 ]
      - [ 0., 0., 0., 0., 0., 0., 0., 0., 2.26355925e-01, 3.36432713e-03,
          1.70551776e-03, 1.71611016e-03, 2.63368096e-02, 0.,
          1.53077359e-03, 1.81189537e-01, 5.49638830e-02, 7.76185328e-03,
          0., 9.93303061e-02, 2.77427226e-01, 0., 0., 0., 1.10711128e-01,
          1.91701934e-01, 1.37297198e-01, 5.23322681e-03, 4.59548384e-02,
          6.06999211e-02, 4.31189127e-02, 0., 5.01283780e-02,
          1.32845595e-01, 9.27288493e-05, 6.55691983e-05, 0., 0., 0.,
          6.55691983e-05, 2.88779378e-01, 5.97807765e-02, 8.87278169e-02,
          1.23271709e-02, 8.73699039e-02, 6.75076153e-04, 0.,
          3.61728929e-02, 3.13395470e-01, 1.17947556e-01, 1.85457699e-04,
          7.16862381e-02, 2.48342603e-01, 1.04045058e-02, 0., 0.,
          9.20688454e-03, 2.17992743e-03, 0., 1.41731277e-03,
          3.00445825e-01, 1.01146109e-01, 9.27288493e-05, 0.,
          7.74922594e-02, 1.85609281e-01, 4.63644229e-02, 4.09197342e-03,
          4.74854326e-03, 4.25252691e-03, 2.68778149e-02, 1.32374257e-01,
          3.27090477e-03, 1.04817990e-02, 1.42442593e-02, 9.43693612e-03,
          4.59949160e-03, 9.29878466e-03, 2.78079305e-02, 3.89897311e-03,
          7.02069327e-03, 1.74372438e-02, 3.13968211e-02, 2.29919910e-01,
          1.69844985e-01, 4.61068489e-02, 6.77612191e-03, 6.11199299e-03,
          0., 0., 0., 0., 8.53503123e-03, 0., 0., 0., 6.92412928e-02, 0.,
          1.43830455e-03, 6.70782430e-03, 4.45424486e-03, 8.08553677e-03,
          1.92876667e-01, 1.15799680e-01, 8.19500908e-03, 0., 0.,
          1.25513447e-03, 4.81044725e-02, 1.03875525e-01, 5.39422908e-04,
          2.93149846e-03, 1.42584986e-03, 2.36413107e-04, 0.,
          1.01278566e-01, 5.49492575e-02, 3.41198206e-01, 3.32694710e-03,
          7.61646172e-03, 0., 0., 0., 6.55691983e-05, 1.58298048e-04, 0.,
          0., 0. ]
      - [ 9.01184827e-02, 0., 0., 0., 0., 0., 1.53239332e-02,
          7.72584230e-02, 6.69993609e-02, 6.22278638e-03, 1.48701770e-02,
          1.85509384e-01, 2.04085708e-01, 1.96963828e-03, 7.15696439e-03,
          1.85704708e-01, 9.79126394e-02, 3.65203917e-02, 9.25583736e-05,
          1.15195476e-02, 2.76328735e-02, 0., 0., 0., 2.04586670e-01,
          1.50251657e-01, 1.29202545e-01, 3.40083800e-02, 8.59331861e-02,
          1.49058783e-02, 4.19777855e-02, 7.76626170e-03, 6.16421849e-02,
          1.41169921e-01, 4.92424890e-02, 0., 0., 0., 0., 6.30759122e-03,
          8.81541446e-02, 3.14462632e-02, 7.25776777e-02, 9.09681991e-02,
          5.62594384e-02, 1.02443353e-03, 2.38996055e-02, 2.41748899e-01,
          3.70678782e-01, 3.14080529e-02, 1.48093409e-03, 8.71223509e-02,
          1.79189786e-01, 5.23692602e-03, 1.85116747e-04, 3.43297571e-02,
          2.80992058e-03, 1.46347636e-04, 9.25583736e-05, 2.85133882e-03,
          4.15068209e-01, 4.50601988e-02, 1.13231922e-02, 8.12597398e-04,
          5.25812805e-02, 1.20984219e-01, 5.31523451e-02, 8.97183432e-04,
          7.93440908e-04, 2.58469209e-03, 1.01814209e-03, 1.57036602e-01,
          3.59772262e-03, 1.90201495e-02, 6.00464223e-03, 1.91731099e-02,
          9.46887769e-03, 4.54615755e-03, 1.52348587e-02, 2.35068938e-03,
          2.90310495e-02, 3.37629467e-02, 1.34885669e-01, 6.94053173e-02,
          1.08166195e-01, 4.38584425e-02, 5.48858335e-03, 0., 0., 0.,
          7.72861987e-02, 4.99806441e-02, 8.66160318e-02, 1.16255675e-02,
          9.25583736e-05, 0., 4.53106128e-02, 0., 7.94256222e-04,
          4.65635536e-03, 1.63530316e-02, 2.14531342e-03, 2.36964643e-01,
          9.09393579e-02, 7.68342114e-04, 3.06028454e-03, 0.,
          5.11170307e-04, 2.26868819e-02, 4.67294753e-02, 2.44489480e-02,
          3.13142431e-03, 2.69851706e-04, 1.46347622e-03, 1.40066235e-03,
          0., 3.86117809e-02, 3.05130482e-01, 2.92065088e-02,
          7.91332219e-03, 0., 0., 0., 1.14195295e-01, 9.27354991e-02,
          1.19756408e-01, 9.25583736e-05, 9.38642595e-04 ]
      - [ 0., 9.78284851e-02, 3.20457101e-01, 4.50580567e-03,
          1.23025291e-03, 6.75783725e-04, 1.57245368e-01, 7.83000141e-03,
          1.27090752e-01, 0., 7.46313706e-02, 6.11337535e-02, 0., 0.,
          9.50959511e-05, 1.00580946e-01, 1.30108252e-01, 2.11040187e-03,
          1.77779365e-02, 3.07754934e-01, 1.05039299e-01, 1.50359905e-04,
          4.12801746e-03, 6.51814193e-02, 0., 0., 0., 1.68107485e-03, 0.,
          0., 0., 0., 8.11934820e-04, 0., 9.50959511e-05, 1.51109847e-03,
          0., 0., 1.94644541e-01, 1.33976310e-01, 0., 0., 2.69628286e-01,
          1.31565556e-01, 2.12530792e-03, 2.12641025e-04, 1.61591992e-01,
          1.22290395e-01, 2.55592037e-02, 4.17494513e-02, 9.15273800e-02,
          1.37392074e-01, 1.29989669e-01, 1.00092392e-03, 9.87283606e-03,
          2.88727909e-01, 0., 0., 1.27691263e-02, 7.28106201e-02,
          7.30102584e-02, 0., 0., 0., 3.74157391e-02, 1.51982550e-02, 0.,
          0., 0., 0., 0., 9.03887302e-02, 7.83307329e-02, 1.51446760e-01,
          8.43035653e-02, 7.75303459e-03, 4.80653672e-03, 4.05343575e-03,
          2.02233624e-02, 1.80259481e-01, 1.11660699e-03, 2.91884206e-02,
          1.41039491e-02, 7.47195678e-03, 5.78663021e-04, 2.46730074e-02,
          2.61514038e-02, 2.41655600e-03, 0., 0., 3.47176164e-01,
          1.32505730e-01, 1.97843788e-03, 1.39653711e-02, 2.29010954e-02,
          0., 7.83860032e-03, 0., 0., 0., 0., 0., 9.50959511e-05,
          5.58605557e-03, 1.28619865e-01, 1.06974654e-02, 4.04166384e-03,
          5.70734963e-03, 3.36725730e-03, 4.46376251e-03, 2.33029887e-01,
          1.57131732e-01, 1.40742017e-02, 0., 8.85803904e-03,
          3.35647282e-03, 7.26973964e-03, 1.70771347e-03, 1.93590820e-02,
          2.73237959e-03, 2.11303961e-03, 0., 1.28114561e-03,
          2.70385779e-02, 1.58585116e-01, 1.64775878e-01, 5.05925380e-02,
          3.97706730e-03 ]
      - [ 0., 0., 0., 0., 0., 0., 0., 0., 2.23299503e-01, 2.94468063e-03,
          7.40199583e-03, 9.82974023e-02, 2.10559011e-01, 2.16269982e-03,
          1.20296911e-03, 1.81586832e-01, 6.75113052e-02, 1.26693584e-02,
          2.71335448e-04, 6.42693117e-02, 4.33077142e-02, 0., 0., 0.,
          1.89511985e-01, 1.52789891e-01, 1.47800580e-01, 0.,
          6.75619766e-02, 2.89112441e-02, 3.92531939e-02, 2.19107070e-03,
          5.40161654e-02, 1.46409065e-01, 9.04451445e-05, 6.39543723e-05,
          0., 0., 0., 6.39543723e-05, 1.33738354e-01, 2.68306509e-02,
          8.84243250e-02, 2.86979601e-03, 8.73516500e-02, 8.31816054e-04,
          7.23561156e-04, 2.05844760e-01, 3.50410074e-01, 6.49671480e-02,
          5.80295688e-03, 3.56540494e-02, 2.58139342e-01, 1.05682323e-02,
          0., 6.93831884e-04, 1.96528411e-03, 3.81863397e-03, 0.,
          6.39543723e-05, 3.20687234e-01, 1.28406674e-01, 8.77317972e-03,
          2.37444183e-03, 8.88426751e-02, 1.39361829e-01, 4.90613505e-02,
          0., 7.73112755e-03, 2.86086509e-03, 4.70445864e-03,
          1.02407843e-01, 1.89678976e-03, 7.98017811e-03, 2.21674237e-02,
          1.38973156e-02, 4.32903413e-03, 1.29457675e-02, 2.84307580e-02,
          5.44856302e-03, 3.02402601e-02, 3.67421582e-02, 7.87315294e-02,
          1.32528692e-01, 1.96678370e-01, 2.92581087e-03, 8.91922228e-03,
          8.31406913e-04, 0., 0., 2.16899645e-02, 1.29187834e-02,
          5.69315031e-02, 0., 9.04451445e-05, 6.39543723e-05,
          3.24698091e-02, 0., 2.35823123e-03, 1.05330255e-02,
          9.07183718e-03, 2.63644196e-03, 2.86502302e-01, 8.58182982e-02,
          1.33858826e-02, 2.41550966e-03, 1.24567153e-03, 9.96264163e-04,
          1.96412746e-02, 3.99326459e-02, 2.96075419e-02, 7.00172316e-03,
          1.17766950e-03, 0., 0., 1.66605543e-02, 2.94120666e-02,
          3.63459021e-01, 1.30030392e-02, 6.39104005e-03, 0., 0., 0.,
          8.68526772e-02, 5.50014712e-02, 2.14917157e-02, 9.04451445e-05,
          0. ]
      - [ 0., 0., 0., 0., 0., 0., 0., 0., 1.81066066e-01, 0.,
          1.39023748e-03, 0., 8.41203332e-03, 0., 0., 1.97558805e-01,
          1.22101465e-02, 0., 0., 5.00694700e-02, 3.19438875e-01, 0., 0.,
          5.96059435e-05, 2.10950911e-01, 1.11017391e-01, 1.39348820e-01,
          6.43994799e-03, 3.77338901e-02, 4.84873075e-03, 2.63002068e-02,
          1.49757625e-03, 4.88403700e-02, 1.17195725e-01, 1.68591068e-04,
          5.96059435e-05, 0., 0., 0., 0., 1.03538416e-01, 2.64917891e-02,
          1.49495959e-01, 0., 5.59404027e-03, 3.99848854e-04, 0.,
          1.93516970e-01, 3.36081028e-01, 3.37266065e-02, 5.57530718e-03,
          2.34600641e-02, 3.20014477e-01, 1.02292805e-03, 1.88490550e-04,
          0., 3.54030505e-02, 1.10401409e-02, 0., 5.96059435e-05,
          3.89005899e-01, 2.30223592e-02, 2.06125919e-02, 2.42470135e-03,
          1.85189545e-01, 1.35584876e-01, 4.41708602e-02, 1.21572742e-03,
          4.90117865e-03, 3.82365659e-03, 4.07081144e-03, 3.34441778e-03,
          1.13408035e-03, 1.78187538e-03, 3.28948312e-02, 2.64427951e-03,
          4.74918727e-03, 5.20546827e-03, 1.77590661e-02, 4.35733050e-03,
          2.83756722e-02, 3.21357325e-02, 2.62829196e-02, 1.58917308e-01,
          1.22591421e-01, 4.85064723e-02, 1.42862857e-03, 1.19762553e-03,
          0., 0., 0., 0., 7.70188272e-02, 3.95294912e-02, 1.68591068e-04,
          0., 3.73481698e-02, 0., 2.02994933e-03, 5.04688174e-03,
          7.40985852e-03, 3.26155173e-03, 3.12019736e-01, 5.18571725e-03,
          6.87425956e-03, 0., 3.03931854e-04, 1.01330108e-03,
          5.90068754e-04, 1.25906256e-03, 3.12748179e-02, 1.20986747e-02,
          3.99848795e-04, 0., 1.76226664e-02, 1.10725105e-01,
