%YAML:1.0
---
opencv_ml_svm:
   format: 3
   svmType: C_SVC
   kernel:
      type: LINEAR
   C: 2.6699999999999999e+00
   term_criteria: { epsilon:1.1920928955078125e-07, iterations:1000 }
   var_count: 64
   class_count: 5
   class_labels: !!opencv-matrix
      rows: 5
      cols: 1
      dt: i
      data: [ 1, 2, 3, 4, 5 ]
   sv_total: 10
   support_vectors:
      - [ 0., 0., 0., 0., 0., 0., 0., 0., 0., 0., 0., 0., 0., 0., 0., 0.,
          -5.56612520e-07, 3.11289448e-08, 2.36843274e-08,
          1.15486776e-08, 3.41464073e-07, 4.23948450e-08, 1.22055255e-07,
          8.51503401e-09, 1.00580600e-07, 6.80170089e-08, 5.32527373e-08,
          6.73232634e-08, 4.22952837e-07, -2.89839051e-08,
          -8.35623553e-08, 8.60890026e-08, -1.01546433e-07,
          1.18043381e-07, -3.03831733e-08, -3.01974978e-08,
          -3.56128083e-07, -2.28999056e-07, -1.49428857e-07,
          -1.85162534e-08, -1.97500654e-07, 3.64584913e-08,
          1.41316150e-08, -3.66456234e-08, 2.19836465e-07,
          2.23771348e-08, -1.11203406e-07, -1.86097733e-08,
          -5.64367110e-06, -2.97679708e-06, -1.65385536e-08,
          -1.84078047e-07, -2.65479542e-07, -1.72502655e-06,
          -3.57689396e-06, -9.61383876e-07, -6.05299329e-06,
          -3.12678230e-06, -3.39900339e-07, -1.20837143e-07,
          -3.60296184e-07, -1.89933894e-06, -4.27458781e-06,
          -1.04480876e-06 ]
      - [ 0., 0., 0., 0., 0., 0., 0., 0., 0., 0., 0., 0., 0., 0., 0., 0.,
          -3.99943076e-07, -1.32699952e-07, -6.72312739e-09,
          -9.72353753e-09, -1.95205558e-08, -1.91631533e-09,
          -9.77778480e-09, -1.00355746e-09, -1.59524856e-08,
          -8.74858674e-09, -4.83983431e-09, -1.00375139e-08,
          -2.57361616e-08, -2.33827091e-08, -9.50496926e-08,
          -1.73606178e-08, -2.23762058e-08, -3.41488116e-10,
          4.95349850e-09, 6.69482514e-09, -5.34356523e-08,
          -2.46703031e-08, -5.33484013e-09, -4.55255744e-09,
          -4.33229346e-08, -1.46829624e-08, -6.75614986e-09,
          -8.08705014e-09, 1.27262014e-08, 3.19587579e-09,
          -1.15358558e-08, -9.31536892e-09, -2.18322066e-06,
          -8.30808631e-07, -1.47169715e-07, -1.40146881e-07,
          -6.60382909e-07, -1.89743417e-07, -7.22465472e-07,
          -2.09962081e-07, -2.57018542e-06, -1.79447431e-06,
          -4.37219910e-07, -3.95941470e-07, -1.01503659e-07,
          -1.84962303e-07, -2.13159964e-07, -1.23563666e-07 ]
      - [ 0., 0., 0., 0., 0., 0., 0., 0., 0., 0., 0., 0., 0., 0., 0., 0.,
          -1.29470294e-07, -1.24219977e-08, -3.19369642e-09,
          7.89304799e-09, 5.95239911e-08, 0., 1.57899791e-08,
          9.21852727e-09, 9.92145388e-09, 1.64859504e-08,
          -1.12249510e-09, 8.42480397e-09, 5.35864082e-08,
          -2.08591167e-09, -4.73953454e-09, -2.41163534e-10,
          7.51155249e-11, -2.30379027e-09, 1.34958373e-08,
          5.70766767e-09, 9.25839458e-08, 4.54895144e-09, 1.65679437e-09,
          2.98965575e-10, -1.80261173e-09, 4.01104400e-10, 0.,
          -3.92910791e-24, 1.32615519e-08, 0., -2.53445132e-09,
          -1.27808009e-09, -1.33666924e-06, -2.90259919e-07,
          -6.41389022e-08, -4.44160690e-08, -2.49128163e-07,
          -3.95756302e-07, -1.08231336e-06, -2.47076031e-07,
          -1.43035277e-06, -3.38657060e-07, -7.99372728e-08,
          -4.91785741e-08, -1.71582741e-07, -3.84810534e-07,
          -1.16767137e-06, -3.18345030e-07 ]
      - [ 0., 0., 0., 0., 0., 0., 0., 0., 0., 0., 0., 0., 0., 0., 0., 0.,
          -1.29260883e-07, -1.41463605e-08, -4.13384049e-10,
          1.40745837e-09, 1.83326048e-08, 1.53703783e-09, 4.77021045e-09,
          1.79765081e-09, 2.89772806e-09, 3.80362009e-09, 8.68288164e-10,
          3.20510929e-09, 2.08799520e-08, -1.67397407e-09,
          -1.76748998e-08, -5.18227372e-09, -1.83068316e-08,
          -7.56589991e-09, 1.71912840e-09, 7.97112598e-10,
          -5.55606512e-08, -1.92230054e-09, -9.23642496e-09,
          -3.18914495e-09, -2.15756764e-08, -6.40749187e-09,
          -2.22174035e-09, -3.18914495e-09, 3.00902459e-09,
          2.53870536e-10, -5.62463498e-09, -3.36865846e-09,
          -1.03563104e-06, -2.85034162e-07, -2.09721893e-08,
          -4.21543618e-08, -1.06444752e-07, -1.19350048e-07,
          -6.80373432e-07, -1.67564522e-07, -1.19526180e-06,
          -4.50216589e-07, -1.01938255e-07, -9.36964710e-08,
          -4.95011463e-08, -1.70781732e-07, -6.98908309e-07,
          -1.76176044e-07 ]
      - [ -3.71513487e-08, -1.28738424e-08, 0., -7.19669657e-09,
          -2.27579537e-08, 0., 0., -7.19669657e-09, -1.17482877e-08,
          -3.21846061e-09, 0., 0., -9.10318132e-09, 0., -3.21846061e-09,
          -7.19669657e-09, 5.14522583e-07, -1.80588086e-06,
          2.15464965e-07, 3.21205782e-08, 2.40313454e-07,
          -1.43377790e-07, -8.77593180e-08, -1.52022878e-07,
          -2.56188031e-07, -7.39150749e-08, 6.14620603e-08,
          -4.27011138e-08, -2.30566584e-07, 2.60442903e-07,
          -1.30867397e-06, -4.10439128e-07, -8.54394528e-08,
          -2.66007962e-08, 1.98964372e-07, 1.11998482e-07,
          2.87931380e-06, -3.49784735e-08, 3.61897108e-08,
          3.45632230e-07, -6.50461573e-07, 2.23414247e-07,
          2.46647112e-08, 1.43933931e-08, 7.72232681e-07,
          -5.76916470e-08, -2.15140039e-09, 3.35974590e-08,
          -2.77758886e-06, -6.34397475e-06, -9.80929030e-07,
          -1.24148607e-06, -2.79645178e-06, -2.32177490e-06,
          -5.18286424e-06, -3.30272792e-06, -9.11899951e-06,
          -1.33491885e-05, -4.59215926e-07, -4.31966953e-07,
          6.30209456e-07, -4.49305526e-06, -1.60111074e-06,
          9.19263243e-07 ]
      - [ 0., 0., 0., 0., 0., 0., 0., 0., 0., 0., 0., 0., 0., 0., 0., 0.,
          -8.53577205e-07, -4.31107630e-08, 3.66343711e-09,
          2.91483193e-08, 2.79876730e-07, 4.12219450e-08, 9.77664314e-08,
          1.45741579e-08, 8.05925069e-08, 4.54644322e-08,
          -5.05641307e-10, 8.70874075e-08, 3.24148033e-07,
          -7.24567606e-09, -8.92927687e-08, 2.14344080e-08,
          7.71845787e-09, -3.34817472e-08, -4.08415559e-08,
          -1.95016394e-08, 6.32942431e-07, 3.80393217e-10,
          -6.79178456e-08, 3.88261441e-08, -5.88581379e-08,
          2.28244410e-08, 3.11176684e-08, 1.32348898e-23, 1.32348898e-23,
          0., 1.23186297e-08, 9.32028588e-09, -2.18198124e-06,
          -8.17579235e-07, -6.54969838e-08, 2.13725926e-08,
          -8.88482248e-08, -2.57323762e-07, -1.99570195e-06,
          -5.31174294e-07, -3.25647375e-06, -1.13873875e-06,
          -4.41309908e-07, -2.79906487e-07, -5.68986763e-07,
          -1.21199821e-06, -3.24675557e-06, -7.06567278e-07 ]
      - [ 0., 0., 0., 0., 0., 0., 0., 0., 0., 0., 0., 0., 0., 0., 0., 0.,
          -3.69652099e-07, -4.62276404e-08, -1.48921564e-09,
          -1.16828047e-09, 2.99981622e-08, -1.42372170e-09,
          5.97707572e-09, 4.51503585e-10, 1.99935357e-09, 2.14957319e-09,
          3.91458393e-10, 3.79987508e-09, 2.60445088e-08, 2.49903187e-09,
          -5.20080619e-08, -1.23406911e-08, -2.01792947e-08,
          -2.71406240e-08, 8.90968810e-09, 7.19157667e-09,
          7.59173631e-08, 2.06153694e-09, 3.61053210e-09, 2.17611817e-09,
          -4.53845175e-08, -2.54117571e-09, -5.24512922e-09,
          -3.14050319e-09, 3.54648861e-08, -6.19934659e-10,
          -5.81394310e-09, -2.70214295e-09, -1.40397890e-06,
          -5.67870643e-07, -2.76754211e-08, -7.59467369e-08,
          -3.17430505e-07, -1.42206844e-07, -1.15503212e-06,
          -2.81011381e-07, -2.21797677e-06, -9.64945229e-07,
          -1.95299336e-07, -1.88382174e-07, 3.19437333e-07,
          -3.78468513e-07, -1.32785590e-06, -2.97107789e-07 ]
      - [ 0., 0., 0., 0., 0., 0., 0., 0., 0., 0., 0., 0., 0., 0., 0., 0.,
          -4.71413887e-06, 6.16415718e-07, -5.65270390e-08,
          1.09731751e-07, 2.29632391e-07, 1.98637142e-08, 2.49854253e-07,
          1.37798580e-07, 2.40377830e-07, 3.01944368e-07, 9.93185711e-09,
          1.77557425e-07, 3.03263050e-07, -1.67541458e-07,
          4.77360970e-07, 1.74325351e-07, 6.78764494e-08, 6.33259276e-08,
          -2.58033566e-07, -1.36778951e-07, -1.22064500e-06,
          -4.89463368e-08, -1.15960084e-07, 4.55847555e-08,
          -1.53387483e-10, 1.33137405e-07, 6.97708273e-08,
          -2.67635034e-08, 6.46601137e-08, 3.97099598e-08,
          1.18505639e-07, 3.09581694e-08, -4.18916079e-06,
          1.46957620e-06, -8.59589477e-07, 1.99583951e-06,
          -5.74140495e-06, -1.76770322e-06, -2.03003947e-06,
          1.91144750e-06, -8.97320115e-06, 6.61576621e-07,
          -2.58894875e-06, 2.54971354e-07, -2.01406601e-06,
          -3.57192562e-06, -5.40638575e-06, -4.56018014e-08 ]
      - [ 0., 0., 0., 0., 0., 0., 0., 0., 0., 0., 0., 0., 0., 0., 0., 0.,
          -1.73611386e-06, 5.11736786e-08, -6.80763961e-08,
          -2.40686422e-08, 5.47145760e-08, -1.10750422e-08,
          1.76660429e-08, 2.46435672e-08, 6.87593316e-09, 2.65725717e-08,
          -1.10750422e-08, 1.68123293e-08, 6.20159535e-10,
          -5.04968476e-08, 3.56773135e-08, -2.65860169e-08,
          -1.13176725e-07, -4.33892389e-08, -5.04968405e-08,
          -2.00441832e-08, -6.60856472e-07, -2.60180251e-08,
          -3.75039946e-08, -2.98178726e-08, -1.19829650e-07,
          -2.86294775e-08, 4.57053639e-09, -1.68123293e-08,
          -6.60660930e-08, 6.50450627e-09, -2.80179009e-08,
          -2.14117080e-08, -2.20369998e-06, 4.22942804e-07,
          2.66356778e-07, 3.45721020e-07, -5.90351192e-07,
          1.88505354e-07, -1.98518273e-06, -1.56112208e-07,
          -4.49191066e-06, -8.94218772e-07, -3.25223624e-07,
          -1.00263200e-07, -1.20066886e-07, -4.63416512e-07,
          -2.38721941e-06, -4.07835728e-07 ]
      - [ 0., 0., 0., 0., 0., 0., 0., 0., 0., 0., 0., 0., 0., 0., 0., 0.,
          3.62326568e-06, 1.68938243e-06, -2.12868343e-07,
          -6.23136543e-07, 3.19698029e-06, 0., 1.80661277e-06,
          -8.53665014e-08, 3.08467747e-07, 6.03930630e-07,
          5.84168333e-07, 7.64228901e-07, 2.15022669e-06,
          -3.71462107e-07, 1.25073359e-06, -1.44872752e-06,
          -4.04232605e-06, -2.28218050e-06, 1.84690009e-07,
          -1.53568891e-07, 8.86884436e-07, 1.08096992e-06,
          -7.46879095e-07, -5.09277299e-07, -6.06754475e-06,
          -5.20503136e-07, -1.76927188e-07, -7.35415711e-07,
          1.20428169e-07, -4.81185793e-07, -7.17023397e-07,
          -4.31343551e-07, -5.14334943e-06, -8.33794820e-06,
          2.11531392e-06, 2.83675558e-06, -1.60144475e-06,
          1.64225166e-05, -1.07158430e-05, -2.09141876e-06,
          -5.91669323e-06, -2.28988756e-05, -1.36215040e-05,
          -6.80103722e-06, -7.92144419e-06, 9.64462379e-06,
          -1.80056468e-05, -2.13586600e-06 ]
   uncompressed_sv_total: 50
   uncompressed_support_vectors:
      - [ 0., 0., 0., 0., 0., 0., 0., 0., 0., 0., 0., 0., 0., 0., 0., 0.,
          1.31638086e+03, 4.32749365e+03, 3.42118408e+03, 3.22552319e+03,
          2.04827617e+04, 0., 2.16374683e+03, 8.06380798e+02,
          1.82638086e+03, 2.16374683e+03, 1.14039465e+03, 1.61276160e+03,
          2.31155234e+04, 2.28078931e+03, 2.52437109e+03, 1.61276160e+03,
          8.75276172e+03, 1.34016260e+04, 6.84236816e+03, 4.83828467e+03,
          5.13791445e+04, 3.42118408e+03, 8.10930176e+03, 3.22552319e+03,
          5.90638086e+03, 1.44249780e+03, 0., 8.06380798e+02,
          4.88638086e+03, 0., 1.44249780e+03, 8.06380798e+02,
          6.53125438e+05, 1.58442219e+05, 8.55296016e+04, 7.57997969e+04,
          6.84043063e+05, 6.27217070e+04, 1.40509047e+05, 4.83828477e+04,
          6.96082875e+05, 1.56015891e+05, 6.61428906e+04, 5.96721797e+04,
          5.90961313e+05, 6.72832813e+04, 1.73159797e+05, 4.43509453e+04 ]
      - [ 0., 0., 0., 0., 0., 0., 0., 0., 0., 0., 0., 0., 0., 0., 0., 0.,
          4.01591406e+04, 1.12964004e+04, 3.42118408e+03, 3.22552319e+03,
          1.50863809e+04, 0., 1.80312231e+03, 1.61276160e+03,
          1.61276160e+03, 3.30414136e+03, 0., 0., 1.46591426e+04,
          3.42118408e+03, 1.58579795e+04, 4.83828467e+03, 1.07927617e+04,
          1.19591289e+04, 6.84236816e+03, 4.83828467e+03, 1.48727617e+04,
          2.28078931e+03, 1.06336729e+04, 3.22552319e+03, 8.75276172e+03,
          2.94351709e+03, 0., 8.06380798e+02, 8.06380798e+02,
          1.14039465e+03, 3.30414136e+03, 8.06380798e+02, 4.95916750e+05,
          3.71583844e+05, 1.19741438e+05, 1.08055023e+05, 4.81255438e+05,
          3.53522344e+04, 1.64125203e+05, 5.40275117e+04, 692921.,
          3.33201094e+05, 1.19741438e+05, 1.09667789e+05, 4.20482656e+05,
          2.50886816e+04, 1.30547594e+05, 4.91892305e+04 ]
      - [ 0., 0., 0., 0., 0., 0., 0., 0., 0., 0., 0., 0., 0., 0., 0., 0.,
          3.22552319e+03, 6.49124023e+03, 2.28078931e+03, 4.83828467e+03,
          2.77055234e+04, 0., 5.76999121e+03, 3.22552319e+03,
          3.22552319e+03, 5.76999121e+03, 0., 3.22552319e+03,
          2.80846660e+04, 3.42118408e+03, 6.85186475e+03, 3.22552319e+03,
          1.18127617e+04, 9.85390332e+03, 1.25443408e+04, 8.87018848e+03,
          5.41774297e+04, 9.12315723e+03, 1.30410020e+04, 1.61276160e+03,
          10200., 7.21248901e+02, 0., 1.61276160e+03, 3.65276172e+03, 0.,
          7.21248901e+02, 0., 6.00774375e+05, 1.22740398e+05,
          4.21946016e+04, 4.43509453e+04, 8.13307938e+05, 7.86872344e+04,
          1.46853203e+05, 2.90297090e+04, 6.65827313e+05, 1.36785750e+05,
          5.24581523e+04, 5.40275117e+04, 7.74232500e+05, 1.33426172e+05,
          2.27682109e+05, 3.87062773e+04 ]
      - [ 0., 0., 0., 0., 0., 0., 0., 0., 0., 0., 0., 0., 0., 0., 0., 0.,
          1.82638086e+03, 1.08187329e+03, 2.28078931e+03, 4.03190405e+03,
          2.43491426e+04, 0., 7.21248901e+02, 8.06380798e+02, 1530.,
          2.16374683e+03, 1.14039465e+03, 1.61276160e+03, 2.18819043e+04,
          4.56157861e+03, 2.88499561e+03, 0., 1.13855234e+04,
          1.09357764e+04, 9.12315723e+03, 6.45104639e+03, 6.76510469e+04,
          9.12315723e+03, 1.09357764e+04, 3.22552319e+03, 9.77276172e+03,
          2.88499561e+03, 0., 1.61276160e+03, 9.77276172e+03, 0.,
          2.88499561e+03, 1.61276160e+03, 6.23449250e+05, 1.26152086e+05,
          3.76330234e+04, 4.59637070e+04, 7.67132750e+05, 9.92143359e+04,
          2.12535891e+05, 3.78998984e+04, 6.19203688e+05, 1.66122875e+05,
          5.81601289e+04, 6.04785586e+04, 5.36895688e+05, 1.07197094e+05,
          2.29164141e+05, 5.40275117e+04 ]
      - [ 0., 0., 0., 0., 0., 0., 0., 0., 0., 0., 0., 0., 0., 0., 0., 0.,
          2.63276172e+03, 6.13061572e+03, 5.70197314e+03, 4.83828467e+03,
          1.80155234e+04, 3.42118408e+03, 6.13061572e+03, 8.06380798e+02,
          4.67276172e+03, 3.96686914e+03, 1.14039465e+03, 2.41914233e+03,
          2.69819043e+04, 3.42118408e+03, 4.32749365e+03, 1.61276160e+03,
          1.14682852e+04, 1.09942979e+04, 7.98276270e+03, 7.25742725e+03,
          6.80782891e+04, 5.70197314e+03, 1.27388984e+04, 4.03190405e+03,
          9.77276172e+03, 2.88499561e+03, 0., 1.61276160e+03,
          9.77276172e+03, 1.14039465e+03, 3.24562012e+03, 8.06380798e+02,
          7.15441625e+05, 1.14933195e+05, 4.44753906e+04, 4.35445625e+04,
          6.26020500e+05, 7.64064453e+04, 1.44630938e+05, 2.82233281e+04,
          6.75827125e+05, 1.63013297e+05, 8.32488125e+04, 7.57997969e+04,
          6.31761375e+05, 6.61428906e+04, 1.35966453e+05, 3.54807539e+04 ]
      - [ 0., 0., 0., 0., 0., 0., 0., 0., 0., 0., 0., 0., 0., 0., 0., 0.,
          3.52727617e+04, 3.24562012e+03, 5.70197314e+03, 5.64466553e+03,
          1.77191426e+04, 1.14039465e+03, 2.16374683e+03, 8.06380798e+02,
          1.82638086e+03, 2.52437109e+03, 2.28078931e+03, 3.22552319e+03,
          1.80982852e+04, 4.56157861e+03, 5.76999121e+03, 1.61276160e+03,
          8.75276172e+03, 1.34016260e+04, 6.84236816e+03, 4.83828467e+03,
          2.89391426e+04, 3.42118408e+03, 8.10930176e+03, 3.22552319e+03,
          5.90638086e+03, 1.44249780e+03, 0., 8.06380798e+02,
          8.06380798e+02, 0., 1.44249780e+03, 8.06380798e+02,
          6.33304750e+05, 1.57097766e+05, 6.04409180e+04, 6.53168438e+04,
          6.99108188e+05, 3.53522344e+04, 1.40986703e+05, 4.99956094e+04,
          7.17337313e+05, 1.57594422e+05, 6.95640703e+04, 7.01551328e+04,
          4.69546656e+05, 5.70197344e+04, 1.75002453e+05, 5.08019922e+04 ]
      - [ 0., 0., 0., 0., 0., 0., 0., 0., 0., 0., 0., 0., 0., 0., 0., 0.,
          1.61276160e+03, 3.60624463e+03, 2.28078931e+03, 3.22552319e+03,
          2.20127617e+04, 0., 2.88499561e+03, 1.61276160e+03,
          1.61276160e+03, 2.88499561e+03, 0., 1.61276160e+03,
          2.48591426e+04, 1.14039465e+03, 3.24562012e+03, 1.61276160e+03,
          1.13855234e+04, 1.20176494e+04, 5.70197314e+03, 5.64466553e+03,
          5.21855234e+04, 3.42118408e+03, 8.46992676e+03, 3.22552319e+03,
          6.92638086e+03, 1.44249780e+03, 0., 8.06380798e+02,
          8.96638086e+03, 0., 1.44249780e+03, 8.06380798e+02,
          6.67688375e+05, 1.99407875e+05, 9.69335469e+04, 8.30572188e+04,
          6.45475438e+05, 3.87734180e+04, 8.78863594e+04, 3.22552324e+04,
          7.34394375e+05, 1.27067891e+05, 7.41256563e+04, 6.61232266e+04,
          7.61707375e+05, 4.78965742e+04, 1.45138641e+05, 4.51573242e+04 ]
      - [ 0., 0., 0., 0., 0., 0., 0., 0., 0., 0., 0., 0., 0., 0., 0., 0.,
          2.33638086e+03, 6.49124023e+03, 5.70197314e+03, 4.03190405e+03,
          1.66991426e+04, 3.42118408e+03, 6.49124023e+03, 0.,
          5.18276172e+03, 2.88499561e+03, 1.14039465e+03, 2.41914233e+03,
          2.64719043e+04, 3.42118408e+03, 3.24562012e+03, 1.61276160e+03,
          1.14682852e+04, 1.31580449e+04, 5.70197314e+03, 5.64466553e+03,
          7.09246641e+04, 5.70197314e+03, 1.30410020e+04, 3.22552319e+03,
          8.24276172e+03, 4.74663916e+03, 1.14039465e+03, 1.61276160e+03,
          9.77276172e+03, 1.14039465e+03, 3.24562012e+03, 8.06380798e+02,
          6.88280750e+05, 1.29416695e+05, 4.90369688e+04, 4.83828477e+04,
          6.68881750e+05, 9.69335469e+04, 1.90011109e+05, 2.82233281e+04,
          6.30602688e+05, 1.75752188e+05, 9.92143359e+04, 8.95082656e+04,
          6.89639625e+05, 6.61428906e+04, 1.63237875e+05, 4.67700859e+04 ]
      - [ 0., 0., 0., 0., 0., 0., 0., 0., 0., 0., 0., 0., 0., 0., 0., 0.,
          1.61276160e+03, 3.60624463e+03, 2.28078931e+03, 3.22552319e+03,
          2.20127617e+04, 0., 2.88499561e+03, 1.61276160e+03,
          1.61276160e+03, 2.88499561e+03, 0., 1.61276160e+03,
          2.48591426e+04, 1.14039465e+03, 3.24562012e+03, 1.61276160e+03,
          1.18955234e+04, 1.16570254e+04, 5.70197314e+03, 4.83828467e+03,
          5.21855234e+04, 3.42118408e+03, 8.46992676e+03, 3.22552319e+03,
          6.92638086e+03, 1.44249780e+03, 0., 8.06380798e+02,
          6.92638086e+03, 1.14039465e+03, 1.80312231e+03, 0.,
          6.59445625e+05, 1.87448750e+05, 9.00911797e+04, 7.66061797e+04,
          6.27638875e+05, 3.30714453e+04, 9.41435156e+04, 2.58041855e+04,
          7.65338875e+05, 1.08568500e+05, 4.67561797e+04, 4.67700859e+04,
          6.99749063e+05, 4.21946016e+04, 1.34563484e+05, 4.43509453e+04 ]
      - [ 0., 0., 0., 0., 0., 0., 0., 0., 0., 0., 0., 0., 0., 0., 0., 0.,
          2.40527617e+04, 4.32749365e+03, 4.56157861e+03, 4.03190405e+03,
          1.64027617e+04, 1.14039465e+03, 3.24562012e+03, 8.06380798e+02,
          2.12276172e+03, 1.80312231e+03, 0., 2.41914233e+03,
          2.16682852e+04, 3.42118408e+03, 2.88499561e+03, 2.41914233e+03,
          1.18955234e+04, 1.20176494e+04, 6.84236816e+03, 5.64466553e+03,
          5.21855234e+04, 4.56157861e+03, 1.52632695e+04, 3.22552319e+03,
          9.77276172e+03, 2.88499561e+03, 0., 1.61276160e+03,
          5.69276172e+03, 1.14039465e+03, 3.24562012e+03, 8.06380798e+02,
          9.23075313e+05, 2.65783313e+05, 1.10618281e+05, 1.01603984e+05,
          6.55627375e+05, 3.99138125e+04, 1.45801375e+05, 4.91892305e+04,
          1.11597838e+06, 1.81795797e+05, 7.07044688e+04, 6.61232266e+04,
          6.58577750e+05, 6.38621016e+04, 1.97157109e+05, 6.61232266e+04 ]
      - [ 0., 0., 0., 0., 0., 0., 0., 0., 0., 0., 0., 0., 0., 0., 0., 0.,
          5.74991406e+04, 5.76999121e+03, 4.56157861e+03, 3.22552319e+03,
          14280., 0., 2.16374683e+03, 0., 1530., 1.80312231e+03,
          1.14039465e+03, 8.06380798e+02, 1.59755234e+04, 4.56157861e+03,
          6.13061572e+03, 1.61276160e+03, 1.44455234e+04, 1.02730488e+04,
          6.84236816e+03, 5.64466553e+03, 5.56246680e+04, 5.70197314e+03,
          1.29144629e+04, 5.64466553e+03, 7.51914258e+03, 4.38601465e+03,
          0., 1.61276160e+03, 9.77276172e+03, 0., 2.88499561e+03,
          1.61276160e+03, 9.96397875e+05, 2.32741891e+05, 8.21084141e+04,
          7.98316953e+04, 7.29537063e+05, 7.75468359e+04, 2.36348141e+05,
          6.77359844e+04, 9.79009813e+05, 2.66153438e+05, 1.16320258e+05,
          1.06442266e+05, 7.74099438e+05, 5.24581523e+04, 2.07137563e+05,
          7.01551328e+04 ]
      - [ 0., 0., 0., 0., 0., 0., 0., 0., 0., 0., 0., 0., 0., 0., 0., 0.,
          1.61276160e+03, 5.04874219e+03, 3.42118408e+03, 4.83828467e+03,
          1.53827617e+04, 0., 1.80312231e+03, 1.61276160e+03,
          1.31638086e+03, 3.24562012e+03, 0., 8.06380798e+02,
          1.77191426e+04, 2.28078931e+03, 7.93373828e+03, 8.06380798e+02,
          1.13855234e+04, 1.30995234e+04, 6.84236816e+03, 4.83828467e+03,
          4.76782852e+04, 6.84236816e+03, 1.30995234e+04, 3.22552319e+03,
          9.77276172e+03, 2.88499561e+03, 0., 1.61276160e+03,
          5.69276172e+03, 0., 2.88499561e+03, 1.61276160e+03,
          6.91596875e+05, 2.85032438e+05, 1.22022227e+05, 1.03216742e+05,
          6.24517375e+05, 4.78965742e+04, 1.59310547e+05, 5.16083711e+04,
          8.65424063e+05, 2.96328844e+05, 1.22022227e+05, 1.01603984e+05,
          7.15772688e+05, 3.76330234e+04, 1.44213344e+05, 5.64466563e+04 ]
      - [ 0., 0., 0., 0., 0., 0., 0., 0., 0., 0., 0., 0., 0., 0., 0., 0.,
          2.63276172e+03, 1.01560059e+04, 1.14039465e+03, 2.41914233e+03,
          1.89527617e+04, 0., 1.80312231e+03, 1.61276160e+03,
          1.31638086e+03, 3.60624463e+03, 1.14039465e+03, 1.61276160e+03,
          1.44455234e+04, 3.42118408e+03, 1.23197529e+04, 8.06380798e+02,
          1.27019043e+04, 1.38207725e+04, 3.42118408e+03, 4.03190405e+03,
          3.99455234e+04, 4.56157861e+03, 1.53803125e+04, 4.83828467e+03,
          7.73276172e+03, 2.88499561e+03, 0., 1.61276160e+03,
          1.61276160e+03, 1.14039465e+03, 3.24562012e+03, 8.06380798e+02,
          7.67656188e+05, 3.14837719e+05, 1.12899070e+05, 1.04829500e+05,
          5.68892688e+05, 2.62290762e+04, 1.35596344e+05, 4.59637070e+04,
          9.74061875e+05, 3.38191313e+05, 1.23162625e+05, 1.11280547e+05,
          3.63383906e+05, 4.44753906e+04, 1.89174359e+05, 6.69296094e+04 ]
      - [ 0., 0., 0., 0., 0., 0., 0., 0., 0., 0., 0., 0., 0., 0., 0., 0.,
          1.61276160e+03, 2.16374683e+03, 1.14039465e+03, 1.61276160e+03,
          2.22263809e+04, 0., 1.80312231e+03, 1.61276160e+03,
          1.61276160e+03, 1.80312231e+03, 0., 8.06380798e+02,
          2.17991426e+04, 2.28078931e+03, 2.52437109e+03, 1.61276160e+03,
          1.72919043e+04, 1.74270176e+04, 6.84236816e+03, 5.64466553e+03,
          2.19844672e+05, 6.84236816e+03, 1.60430400e+04, 4.83828467e+03,
          1.69127617e+04, 3.60624463e+03, 0., 2.41914233e+03,
          7.00914258e+03, 0., 5.10726367e+03, 2.41914233e+03,
          9.28560063e+05, 1.87809375e+05, 8.55296016e+04, 7.33806563e+04,
          6.60927563e+05, 5.70197344e+04, 1.52643734e+05, 4.91892305e+04,
          7.01927688e+05, 2.51075219e+05, 1.40268547e+05, 1.15312453e+05,
          7.01017375e+05, 4.90369688e+04, 1.48199203e+05, 4.67700859e+04 ]
      - [ 0., 0., 0., 0., 0., 0., 0., 0., 0., 0., 0., 0., 0., 0., 0., 0.,
          1.69127617e+04, 3.96686914e+03, 3.42118408e+03, 3.22552319e+03,
          2.25227617e+04, 0., 2.88499561e+03, 1.61276160e+03,
          1.61276160e+03, 2.88499561e+03, 0., 1.61276160e+03,
          2.59619043e+04, 2.28078931e+03, 2.52437109e+03, 2.41914233e+03,
          2.10274277e+04, 1.71834355e+04, 9.12315723e+03, 8.06380811e+03,
          2.01353813e+05, 9.12315723e+03, 1.71834355e+04, 6.45104639e+03,
          1.48727617e+04, 5.76999121e+03, 1.14039465e+03, 3.22552319e+03,
          2.05655234e+04, 1.14039465e+03, 6.13061572e+03, 2.41914233e+03,
          9.93703625e+05, 2.56271031e+05, 9.00911797e+04, 8.38636016e+04,
          5.73952375e+05, 7.07044688e+04, 2.14047938e+05, 6.77359844e+04,
          1.04420706e+06, 2.19866953e+05, 7.98276250e+04, 7.49934141e+04,
          7.47448563e+05, 6.15813125e+04, 2.00987953e+05, 7.66061797e+04 ]
      - [ 0., 0., 0., 0., 0., 0., 0., 0., 0., 0., 0., 0., 0., 0., 0., 0.,
          8.06380798e+02, 5.40936719e+03, 3.42118408e+03, 3.22552319e+03,
          1.30463809e+04, 0., 1.44249780e+03, 8.06380798e+02,
          8.06380798e+02, 1.44249780e+03, 0., 8.06380798e+02,
          1.58927617e+04, 1.14039465e+03, 7.57311377e+03, 8.06380798e+02,
          1.40182852e+04, 9.19117578e+03, 5.70197314e+03, 4.83828467e+03,
          4.76782852e+04, 6.84236816e+03, 1.23782744e+04, 3.22552319e+03,
          9.77276172e+03, 7.21248901e+02, 0., 1.61276160e+03, 1020., 0.,
          3.60624463e+03, 0., 7.14133063e+05, 2.80655938e+05,
          1.11758680e+05, 9.35401719e+04, 5.47782500e+05, 2.62290762e+04,
          9.32182109e+04, 4.11254219e+04, 9.46183063e+05, 2.64359813e+05,
          1.11758680e+05, 8.95082656e+04, 5.53013375e+05, 2.73694727e+04,
          1.18862078e+05, 4.83828477e+04 ]
      - [ 0., 0., 0., 0., 0., 0., 0., 0., 0., 0., 0., 0., 0., 0., 0., 0.,
          8.06380798e+02, 6.54976172e+03, 3.42118408e+03, 3.22552319e+03,
          1.81463809e+04, 0., 3.24562012e+03, 8.06380798e+02,
          2.12276172e+03, 1.80312231e+03, 0., 1.61276160e+03,
          1.93319043e+04, 3.42118408e+03, 7.93373828e+03, 8.06380798e+02,
          1.27019043e+04, 1.38207725e+04, 3.42118408e+03, 4.03190405e+03,
          4.48319063e+04, 3.42118408e+03, 1.38207725e+04, 4.03190405e+03,
          9.47638086e+03, 3.24562012e+03, 1.14039465e+03, 1.61276160e+03,
          1.61276160e+03, 1.14039465e+03, 3.24562012e+03, 8.06380798e+02,
          9.09401500e+05, 2.73073313e+05, 1.03775914e+05, 9.91848359e+04,
          5.74964563e+05, 3.76330234e+04, 1.57205313e+05, 5.48338945e+04,
          1.04998250e+06, 2.79311469e+05, 1.14039469e+05, 1.08861406e+05,
          4.12963531e+05, 2.73694727e+04, 1.38764438e+05, 5.24147500e+04 ]
      - [ 0., 0., 0., 0., 0., 0., 0., 0., 0., 0., 0., 0., 0., 0., 0., 0.,
          510., 4.32749365e+03, 3.42118408e+03, 2.41914233e+03, 12750.,
          0., 3.60624451e+02, 0., 510., 3.60624451e+02, 0., 0.,
          1.59755234e+04, 4.56157861e+03, 1.80312231e+03, 0.,
          9.42828516e+03, 1.09942979e+04, 7.98276270e+03, 6.45104639e+03,
          5.13310469e+04, 7.98276270e+03, 1.02145273e+04, 4.03190405e+03,
          9.77276172e+03, 1.80312231e+03, 0., 1.61276160e+03,
          1.31638086e+03, 0., 4.74663916e+03, 1.61276160e+03,
          7.47117500e+05, 1.55830828e+05, 3.76330234e+04, 4.99956094e+04,
          7.73799625e+05, 1.71059203e+05, 324331., 7.82189375e+04,
          6.15110250e+05, 1.47702531e+05, 3.30714453e+04, 3.78998984e+04,
          6.17587500e+05, 1.72199594e+05, 3.74799438e+05, 7.82189375e+04 ]
      - [ 0., 0., 0., 0., 0., 0., 0., 0., 0., 0., 0., 0., 0., 0., 0., 0.,
          1.89802766e+05, 8.77202930e+03, 4.56157861e+03, 4.03190405e+03,
          1.45763809e+04, 0., 1.80312231e+03, 8.06380798e+02,
          1.31638086e+03, 2.16374683e+03, 1.14039465e+03, 1.61276160e+03,
          1.29155234e+04, 3.42118408e+03, 1.42399180e+04, 2.41914233e+03,
          7.73276172e+03, 1.09357764e+04, 6.84236816e+03, 4.83828467e+03,
          3.74782852e+04, 6.84236816e+03, 1.09357764e+04, 1.61276160e+03,
          6120., 0., 0., 0., 0., 0., 0., 0., 6.89081500e+05,
          2.89945156e+05, 1.28864594e+05, 1.05635883e+05, 5.24370563e+05,
          2.62290762e+04, 9.98850156e+04, 4.11254219e+04, 9.12351875e+05,
          3.13834906e+05, 1.32285781e+05, 1.08861406e+05, 4.43101625e+05,
          3.76330234e+04, 1.32692344e+05, 4.35445625e+04 ]
      - [ 0., 0., 0., 0., 0., 0., 0., 0., 0., 0., 0., 0., 0., 0., 0., 0.,
          1.82638086e+03, 5.04874268e+03, 3.42118408e+03, 4.03190405e+03,
          2.66855234e+04, 2.28078931e+03, 5.40936719e+03, 8.06380798e+02,
          4.45914258e+03, 2.52437109e+03, 0., 4.83828467e+03,
          3.19510469e+04, 2.28078931e+03, 2.52437109e+03, 2.41914233e+03,
          1.21919043e+04, 1.27388984e+04, 5.70197314e+03, 4.83828467e+03,
          6.72238125e+04, 7.98276270e+03, 9.91242383e+03, 4.83828467e+03,
          7140., 3.60624463e+03, 2.28078931e+03, 1.61276160e+03,
          1.61276160e+03, 0., 2.88499561e+03, 1.61276160e+03,
          9.92579625e+05, 1.98356031e+05, 6.61428906e+04, 6.53168438e+04,
          8.04653500e+05, 1.40268547e+05, 2.83414375e+05, 6.28977031e+04,
          9.63344063e+05, 1.95236953e+05, 6.27217070e+04, 6.28977031e+04,
          7.37822313e+05, 1.10618281e+05, 2.45422266e+05, 7.09615078e+04 ]
      - [ 0., 0., 0., 0., 0., 0., 0., 0., 0., 0., 0., 0., 0., 0., 0., 0.,
          1.13855234e+04, 1.35186689e+04, 1.14039465e+03, 1.61276160e+03,
          1.30463809e+04, 0., 1.80312231e+03, 1.61276160e+03,
          1.61276160e+03, 1.80312231e+03, 0., 8.06380798e+02,
          1.38527617e+04, 1.14039465e+03, 1.35186689e+04, 3.22552319e+03,
          1.39355234e+04, 1.23197529e+04, 3.42118408e+03, 4.03190405e+03,
          3.38255234e+04, 4.56157861e+03, 1.52632695e+04, 3.22552319e+03,
          9.77276172e+03, 2.88499561e+03, 0., 1.61276160e+03,
          1.61276160e+03, 1.14039465e+03, 3.24562012e+03, 8.06380798e+02,
          9.18637438e+05, 3.31524500e+05, 1.07197094e+05, 1.03216742e+05,
          7.13161188e+05, 5.13177578e+04, 1.65801781e+05, 5.96721797e+04,
          1031844., 3.84634344e+05, 1.34566563e+05, 1.21763500e+05,
          7.18191813e+05, 3.76330234e+04, 1.08608023e+05, 4.51573242e+04 ]
      - [ 0., 0., 0., 0., 0., 0., 0., 0., 0., 0., 0., 0., 0., 0., 0., 0.,
          2.17329328e+05, 3.17744805e+04, 4.56157861e+03, 5.64466553e+03,
          2.33291426e+04, 2.28078931e+03, 8.29436230e+03, 1.61276160e+03,
          7.73276172e+03, 9.37623633e+03, 1.14039465e+03, 1.61276160e+03,
          3.24610469e+04, 2.28078931e+03, 2.65501738e+04, 1.12893311e+04,
          1.18955234e+04, 1.41813965e+04, 4.56157861e+03, 4.03190405e+03,
          3.66719063e+04, 4.56157861e+03, 1.41813965e+04, 3.22552319e+03,
          9.47638086e+03, 3.24562012e+03, 1.14039465e+03, 1.61276160e+03,
          1.61276160e+03, 1.14039465e+03, 3.24562012e+03, 8.06380798e+02,
          9.21187438e+05, 2.60256906e+05, 8.43892031e+04, 9.59593125e+04,
          7.40834188e+05, 1.12899070e+05, 3.35734969e+05, 9.11210313e+04,
          1.10553225e+06, 3.30297094e+05, 1.03775914e+05, 1.03216742e+05,
          6.53720375e+05, 9.92143359e+04, 2.97450250e+05, 9.43465547e+04 ]
      - [ 0., 0., 0., 0., 0., 0., 0., 0., 0., 0., 0., 0., 0., 0., 0., 0.,
          2.73642938e+05, 3.06340859e+04, 3.42118408e+03, 6.45104639e+03,
          3.66719063e+04, 0., 1.02145273e+04, 5.64466553e+03,
          9.72466602e+03, 1.17155469e+04, 0., 3.22552319e+03,
          4.19374258e+04, 3.42118408e+03, 2.60725078e+04, 8.06380811e+03,
          2.19646660e+04, 1.50782090e+04, 5.70197314e+03, 5.64466553e+03,
          1.38244672e+05, 5.70197314e+03, 1.50782090e+04, 5.64466553e+03,
          2.11582852e+04, 8.77202930e+03, 0., 3.22552319e+03,
          1.13855234e+04, 0., 8.77202930e+03, 4.83828467e+03,
          8.09924625e+05, 3.38015750e+05, 1.03775914e+05, 1.00797602e+05,
          5.62064688e+05, 7.98276250e+04, 2.55695313e+05, 8.46699844e+04,
          1.02445006e+06, 4.40610188e+05, 1.45970516e+05, 1.39503875e+05,
          5.74497063e+05, 6.84236797e+04, 1.89319891e+05, 5.72530352e+04 ]
      - [ 0., 0., 0., 0., 0., 0., 0., 0., 0., 0., 0., 0., 0., 0., 0., 0.,
          8.32474297e+04, 2.72129023e+04, 5.70197314e+03, 7.25742725e+03,
          3.25091426e+04, 0., 5.04874268e+03, 1.61276160e+03,
          5.98914258e+03, 3.60624463e+03, 0., 3.22552319e+03,
          4.05729492e+04, 9.12315723e+03, 1.79632051e+04, 4.83828467e+03,
          1.09582852e+04, 1.32165654e+04, 6.84236816e+03, 4.83828467e+03,
          3.95182852e+04, 6.84236816e+03, 1.30995234e+04, 3.22552319e+03,
          9.77276172e+03, 2.88499561e+03, 0., 1.61276160e+03,
          5.69276172e+03, 0., 2.88499561e+03, 1.61276160e+03,
          9.25363625e+05, 2.77489344e+05, 1.14039469e+05, 9.91848359e+04,
          6.48268125e+05, 8.89507813e+04, 2.40422547e+05, 7.33806563e+04,
          1.00610350e+06, 3.68173719e+05, 1.74480375e+05, 1.43535781e+05,
          500216., 7.41256563e+04, 2.06650391e+05, 6.77359844e+04 ]
      - [ 0., 0., 0., 0., 0., 0., 0., 0., 0., 0., 0., 0., 0., 0., 0., 0.,
          5.98914258e+03, 1.35186689e+04, 1.14039465e+03, 1.61276160e+03,
          1.25363809e+04, 0., 1.80312231e+03, 8.06380798e+02,
          1.31638086e+03, 2.16374683e+03, 1.14039465e+03, 1.61276160e+03,
          8.83552344e+03, 3.42118408e+03, 1.42399180e+04, 2.41914233e+03,
          1.42319043e+04, 9.85390332e+03, 5.70197314e+03, 4.83828467e+03,
          3.52246680e+04, 5.70197314e+03, 7.27101074e+03, 3.22552319e+03,
          1.35563809e+04, 3.24562012e+03, 1.14039465e+03, 1.61276160e+03,
          3.65276172e+03, 0., 2.88499561e+03, 1.61276160e+03,
          8.47747438e+05, 3.83503438e+05, 1.27724203e+05, 1.14506070e+05,
          729612., 4.10542070e+04, 1.53189422e+05, 5.72530352e+04,
          1.03939781e+06, 4.09985594e+05, 1.19741438e+05, 1.15312453e+05,
          7.72059438e+05, 5.24581523e+04, 1.39963359e+05, 5.80594180e+04 ]
      - [ 0., 0., 0., 0., 0., 0., 0., 0., 0., 0., 0., 0., 0., 0., 0., 0.,
          1.54655234e+04, 1.38792930e+04, 3.42118408e+03, 4.03190405e+03,
          9.77276172e+03, 0., 1.80312231e+03, 1.61276160e+03,
          1.61276160e+03, 2.52437109e+03, 0., 1.61276160e+03,
          1.37219043e+04, 2.28078931e+03, 1.21346924e+04, 4.83828467e+03,
          1.34255234e+04, 1.34016270e+04, 3.42118408e+03, 3.22552319e+03,
          2.42182852e+04, 6.84236816e+03, 1.15985039e+04, 2.41914233e+03,
          1.18127617e+04, 2.88499561e+03, 0., 1.61276160e+03,
          3.65276172e+03, 0., 2.88499561e+03, 1.61276160e+03,
          1.00563381e+06, 2.54252828e+05, 7.07044688e+04, 9.11210313e+04,
          7.34687313e+05, 1.17460648e+05, 4.08465594e+05, 1.33052828e+05,
          1.07529013e+06, 2.80032719e+05, 6.72832813e+04, 8.95082656e+04,
          6.15024063e+05, 1.45970516e+05, 4.40123031e+05, 1.41923016e+05 ]
      - [ 0., 0., 0., 0., 0., 0., 0., 0., 0., 0., 0., 0., 0., 0., 0., 0.,
          4.05382852e+04, 1.55558760e+04, 4.56157861e+03, 4.03190405e+03,
          1.23227617e+04, 2.28078931e+03, 3.60624463e+03, 0., 4080.,
          3.60624463e+03, 2.28078931e+03, 1.61276160e+03, 1.67819043e+04,
          4.56157861e+03, 1.24367959e+04, 1.61276160e+03, 1.42319043e+04,
          9.85390332e+03, 5.70197314e+03, 4.83828467e+03, 3.54382852e+04,
          5.70197314e+03, 9.85390332e+03, 4.03190405e+03, 1.18127617e+04,
          2.88499561e+03, 0., 1.61276160e+03, 5.69276172e+03, 0.,
          2.88499561e+03, 1.61276160e+03, 1.02457875e+06, 2.01737688e+05,
          6.84236797e+04, 7.25742734e+04, 6.76016063e+05, 1.16320258e+05,
          3.67783063e+05, 1.20150742e+05, 1.03284275e+06, 2.63795125e+05,
          6.95640703e+04, 7.25742734e+04, 5.38481625e+05, 1.37987750e+05,
          4.04283625e+05, 9.99912188e+04 ]
      - [ 4.16276172e+03, 1.44249780e+03, 0., 8.06380798e+02, 2550., 0.,
          0., 8.06380798e+02, 1.31638086e+03, 3.60624451e+02, 0., 0.,
          1020., 0., 3.60624451e+02, 8.06380798e+02, 2.57488469e+05,
          2.96107324e+04, 3.42118408e+03, 4.83828467e+03, 1.97591426e+04,
          1.14039465e+03, 3.24562012e+03, 3.22552319e+03, 5.26552344e+03,
          4.68811816e+03, 1.14039465e+03, 2.41914233e+03, 2.35774277e+04,
          4.56157861e+03, 2.99128359e+04, 1.45148545e+04, 2.47282852e+04,
          1.09357764e+04, 1.14039463e+04, 8.87018848e+03, 7.44465703e+04,
          1.14039463e+04, 1.23782744e+04, 5.64466553e+03, 2.43491426e+04,
          1.08187329e+03, 0., 0., 3060., 0., 1.08187329e+03,
          2.41914233e+03, 871090., 2.82294531e+05, 1.07197094e+05,
          9.99912188e+04, 5.32834750e+05, 4.90369688e+04, 1.71162125e+05,
          4.75764688e+04, 1.04507713e+06, 4.35912594e+05, 1.63076438e+05,
          1.41116641e+05, 4.26658563e+05, 5.47389453e+04, 1.50430969e+05,
          4.91892305e+04 ]
      - [ 0., 0., 0., 0., 0., 0., 0., 0., 0., 0., 0., 0., 0., 0., 0., 0.,
          8.11593281e+04, 3.25542500e+04, 6.84236816e+03, 7.25742725e+03,
          2.80019043e+04, 1.14039465e+03, 3.96686914e+03, 2.41914233e+03,
          3.43914233e+03, 5.82851270e+03, 0., 2.41914233e+03,
          3.88774258e+04, 3.42118408e+03, 2.67937559e+04, 8.87018848e+03,
          1.21919043e+04, 1.49026455e+04, 3.42118408e+03, 3.22552319e+03,
          3.93046680e+04, 5.70197314e+03, 1.02730488e+04, 4.83828467e+03,
          9.47638086e+03, 3.24562012e+03, 1.14039465e+03, 1.61276160e+03,
          3.65276172e+03, 0., 2.88499561e+03, 1.61276160e+03,
          8.82213813e+05, 3.68640344e+05, 1.23162625e+05, 1.03216742e+05,
          5.86881313e+05, 6.72832813e+04, 2.38813984e+05, 6.20913203e+04,
          9.98749875e+05, 4.21009938e+05, 1.53953281e+05, 1.33052828e+05,
          5.94897063e+05, 7.07044688e+04, 1.74096141e+05, 6.28977031e+04 ]
      - [ 0., 0., 0., 0., 0., 0., 0., 0., 0., 0., 0., 0., 0., 0., 0., 0.,
          1.15991426e+04, 1.42399180e+04, 1.14039465e+03, 2.41914233e+03,
          1.38527617e+04, 0., 2.88499561e+03, 1.61276160e+03,
          1.61276160e+03, 2.88499561e+03, 0., 1.61276160e+03,
          1.46591426e+04, 1.14039465e+03, 1.42399180e+04, 2.41914233e+03,
          1.39355234e+04, 1.23197529e+04, 3.42118408e+03, 4.03190405e+03,
          3.66719063e+04, 3.42118408e+03, 1.23197529e+04, 3.22552319e+03,
          1.15163809e+04, 3.24562012e+03, 1.14039465e+03, 1.61276160e+03,
          1.61276160e+03, 1.14039465e+03, 3.24562012e+03, 8.06380798e+02,
          1.12230075e+06, 3.48864500e+05, 9.23719688e+04, 1.08861406e+05,
          6.90261438e+05, 9.80739375e+04, 3.12908063e+05, 9.27337891e+04,
          1.15312775e+06, 3.56213031e+05, 1.06056703e+05, 1.16118836e+05,
          6.07937813e+05, 1.01495125e+05, 3.19448344e+05, 9.83784609e+04 ]
      - [ 0., 0., 0., 0., 0., 0., 0., 0., 0., 0., 0., 0., 0., 0., 0., 0.,
          3.76919023e+04, 1.50782090e+04, 1.14039465e+03, 2.41914233e+03,
          1.28327617e+04, 0., 7.21248901e+02, 0., 2040., 7.21248901e+02,
          0., 1.61276160e+03, 1.60582852e+04, 4.56157861e+03,
          7.32953174e+03, 1.61276160e+03, 1.18955234e+04, 1.77876406e+04,
          6.84236816e+03, 4.83828467e+03, 2.40874277e+04, 7.98276270e+03,
          1.12964004e+04, 4.03190405e+03, 11220., 3.60624463e+03,
          1.14039465e+03, 8.06380798e+02, 2.33638086e+03, 0.,
          3.24562012e+03, 8.06380798e+02, 1.03177463e+06, 2.68911875e+05,
          8.89507813e+04, 1.02410359e+05, 7.87361625e+05, 1.08337492e+05,
          3.36378688e+05, 1.04829500e+05, 1.05109313e+06, 3.38844531e+05,
          1.04916305e+05, 1.12893313e+05, 7.34866313e+05, 1.20881836e+05,
          372090., 1.01603984e+05 ]
      - [ 0., 0., 0., 0., 0., 0., 0., 0., 0., 0., 0., 0., 0., 0., 0., 0.,
          1.15991426e+04, 1.42399180e+04, 1.14039465e+03, 2.41914233e+03,
          1.38527617e+04, 0., 2.88499561e+03, 1.61276160e+03,
          1.61276160e+03, 2.88499561e+03, 0., 1.61276160e+03,
          1.46591426e+04, 1.14039465e+03, 1.42399180e+04, 2.41914233e+03,
          1.39355234e+04, 1.23197529e+04, 3.42118408e+03, 4.03190405e+03,
          3.66719063e+04, 3.42118408e+03, 1.23197529e+04, 3.22552319e+03,
          1.15163809e+04, 3.24562012e+03, 1.14039465e+03, 1.61276160e+03,
          1.61276160e+03, 1.14039465e+03, 3.24562012e+03, 8.06380798e+02,
          1.12669050e+06, 3.48932531e+05, 1.04916305e+05, 1.11280547e+05,
          6.97222500e+05, 1.08337492e+05, 3.27431094e+05, 1.04829500e+05,
          1142335., 3.46895313e+05, 1.08337492e+05, 1.12086930e+05,
          6.79420563e+05, 1.00354727e+05, 3.23113094e+05, 1.01603984e+05 ]
      - [ 0., 0., 0., 0., 0., 0., 0., 0., 0., 0., 0., 0., 0., 0., 0., 0.,
          8.06380798e+02, 4.02539038e+03, 3.42118408e+03, 2.41914233e+03,
          12240., 0., 0., 0., 0., 0., 0., 0., 1.50863809e+04,
          1.14039465e+03, 6.13061572e+03, 0., 1.13855234e+04,
          1.67057676e+04, 9.12315723e+03, 6.45104639e+03, 3.17374277e+04,
          9.12315723e+03, 1.56238945e+04, 3.22552319e+03, 9.47638086e+03,
          3.24562012e+03, 1.14039465e+03, 1.61276160e+03, 1.61276160e+03,
          0., 2.88499561e+03, 1.61276160e+03, 1.13378813e+06,
          1.95433047e+05, 3.30714453e+04, 3.62871367e+04, 8.47308938e+05,
          2.01849859e+05, 4.52792375e+05, 9.11210313e+04, 1.05955513e+06,
          1.80607922e+05, 4.33349961e+04, 4.27381836e+04, 8.71679313e+05,
          2.25798141e+05, 4.80103313e+05, 1.12086930e+05 ]
      - [ 0., 0., 0., 0., 0., 0., 0., 0., 0., 0., 0., 0., 0., 0., 0., 0.,
          4.30055234e+04, 1.21932139e+04, 3.42118408e+03, 3.22552319e+03,
          1.81463809e+04, 0., 3.24562012e+03, 8.06380798e+02,
          2.12276172e+03, 1.80312231e+03, 0., 1.61276160e+03,
          2.21782852e+04, 2.28078931e+03, 1.03315703e+04, 4.83828467e+03,
          2.95665703e+04, 3.03414785e+04, 1.14039463e+04, 8.87018848e+03,
          1.98080203e+05, 1.14039463e+04, 2.88404609e+04, 8.87018848e+03,
          2.63891426e+04, 6.85186475e+03, 0., 3.22552319e+03,
          7.30552344e+03, 0., 8.35288379e+03, 3.22552319e+03,
          1.46193175e+06, 2.40101453e+05, 6.27217070e+04, 5.88657969e+04,
          5.48390875e+05, 8.89507813e+04, 2.88591188e+05, 8.95082656e+04,
          1.26698863e+06, 3.42714906e+05, 1.11758680e+05, 1.01603984e+05,
          6.12341063e+05, 1.02635516e+05, 3.14614688e+05, 9.19274141e+04 ]
      - [ 0., 0., 0., 0., 0., 0., 0., 0., 0., 0., 0., 0., 0., 0., 0., 0.,
          4.78919023e+04, 1.39963359e+04, 3.42118408e+03, 3.22552319e+03,
          1.50863809e+04, 0., 2.16374683e+03, 8.06380798e+02,
          1.82638086e+03, 2.16374683e+03, 0., 8.06380798e+02,
          1.87391426e+04, 2.28078931e+03, 1.35771904e+04, 3.22552319e+03,
          1.13855234e+04, 1.52632695e+04, 4.56157861e+03, 3.22552319e+03,
          4.35982852e+04, 5.70197314e+03, 1.13549219e+04, 4.83828467e+03,
          8.53914258e+03, 4.38601465e+03, 0., 1.61276160e+03,
          5.69276172e+03, 0., 2.88499561e+03, 1.61276160e+03, 1573360.,
          3.12186813e+05, 9.80739375e+04, 9.75720781e+04, 7.06125125e+05,
          6.27217070e+04, 2.46962813e+05, 8.38636016e+04, 1.59118313e+06,
          3.59147063e+05, 1.31145391e+05, 1.23376266e+05, 6.75786875e+05,
          5.35985469e+04, 2.28814547e+05, 8.87018906e+04 ]
      - [ 0., 0., 0., 0., 0., 0., 0., 0., 0., 0., 0., 0., 0., 0., 0., 0.,
          1.82638086e+03, 6.91038623e+03, 3.42118408e+03, 2.41914233e+03,
          10200., 0., 0., 0., 0., 0., 0., 0., 1.21919043e+04,
          4.56157861e+03, 5.88703369e+03, 2.41914233e+03, 1.09582852e+04,
          1.32165654e+04, 6.84236816e+03, 4.83828467e+03, 3.95182852e+04,
          6.84236816e+03, 1.30995234e+04, 3.22552319e+03, 9.77276172e+03,
          2.88499561e+03, 0., 1.61276160e+03, 5.69276172e+03, 0.,
          2.88499561e+03, 1.61276160e+03, 9.05238750e+05, 1.64340281e+05,
          3.53522344e+04, 4.75764688e+04, 8.28385250e+05, 2.45184844e+05,
          6.25863625e+05, 1.13699695e+05, 9.29539813e+05, 1.81095078e+05,
          3.07906563e+04, 4.59637070e+04, 7.82252563e+05, 3.06766156e+05,
          7.05953813e+05, 1.61276156e+05 ]
      - [ 0., 0., 0., 0., 0., 0., 0., 0., 0., 0., 0., 0., 0., 0., 0., 0.,
          1.13855234e+04, 1.09942979e+04, 3.42118408e+03, 4.03190405e+03,
          1.13027617e+04, 0., 2.52437109e+03, 1.61276160e+03,
          1.61276160e+03, 2.16374683e+03, 1.14039465e+03, 2.41914233e+03,
          9.34552344e+03, 3.42118408e+03, 1.53217910e+04, 2.41914233e+03,
          1.59755234e+04, 7.27101074e+03, 5.70197314e+03, 4.83828467e+03,
          3.39082852e+04, 5.70197314e+03, 8.77202930e+03, 4.03190405e+03,
          1.15163809e+04, 3.24562012e+03, 0., 8.06380798e+02,
          2.33638086e+03, 0., 3.24562012e+03, 8.06380798e+02,
          1.10803975e+06, 1.93375313e+05, 4.44753906e+04, 6.04785586e+04,
          8.02153813e+05, 1.95007484e+05, 6.52804438e+05, 1.48374063e+05,
          1.18715913e+06, 2.47567031e+05, 4.90369688e+04, 6.53168438e+04,
          6.69879188e+05, 2.47465641e+05, 7.14393750e+05, 1.60469781e+05 ]
      - [ 0., 0., 0., 0., 0., 0., 0., 0., 0., 0., 0., 0., 0., 0., 0., 0.,
          1.82638086e+03, 6.91038623e+03, 3.42118408e+03, 2.41914233e+03,
          10200., 0., 0., 0., 0., 3.60624451e+02, 1.14039465e+03,
          8.06380798e+02, 1.01519043e+04, 4.56157861e+03, 5.88703369e+03,
          2.41914233e+03, 1.13855234e+04, 8.77202930e+03, 9.12315723e+03,
          8.06380811e+03, 3.09310469e+04, 9.12315723e+03, 1.16570254e+04,
          1.61276160e+03, 10200., 7.21248901e+02, 0., 1.61276160e+03,
          1.61276160e+03, 0., 2.22226807e+03, 8.06380798e+02,
          9.04955813e+05, 1.45353734e+05, 2.73694727e+04, 3.46743750e+04,
          9.30764375e+05, 2.56588797e+05, 5.47198438e+05, 1.00797602e+05,
          9.45397875e+05, 1.75432641e+05, 4.21946016e+04, 4.19318008e+04,
          8.30123188e+05, 3.05625781e+05, 6.66723250e+05, 1.42729406e+05 ]
      - [ 0., 0., 0., 0., 0., 0., 0., 0., 0., 0., 0., 0., 0., 0., 0., 0.,
          1.05391047e+05, 1.69983750e+04, 3.42118408e+03, 4.03190405e+03,
          1.31291426e+04, 0., 1.44249780e+03, 1.61276160e+03,
          1.31638086e+03, 2.16374683e+03, 1.14039465e+03, 1.61276160e+03,
          1.62719043e+04, 3.42118408e+03, 1.38792930e+04, 3.22552319e+03,
          1.54655234e+04, 1.05166309e+04, 3.42118408e+03, 3.22552319e+03,
          3.99455234e+04, 4.56157861e+03, 1.53803125e+04, 4.83828467e+03,
          6.49914258e+03, 4.38601465e+03, 0., 1.61276160e+03,
          5.69276172e+03, 0., 2.88499561e+03, 1.61276160e+03,
          1.40342038e+06, 4.21544594e+05, 1.26583805e+05, 1.20957117e+05,
          6.84635813e+05, 4.90369688e+04, 2.54887063e+05, 8.87018906e+04,
          1.44835625e+06, 4.52763875e+05, 1.39128141e+05, 1.34665594e+05,
          5.25943063e+05, 4.78965742e+04, 2.11221469e+05, 7.49934141e+04 ]
      - [ 0., 0., 0., 0., 0., 0., 0., 0., 0., 0., 0., 0., 0., 0., 0., 0.,
          3.19991426e+04, 1.42399180e+04, 1.14039465e+03, 2.41914233e+03,
          1.99727617e+04, 0., 2.88499561e+03, 1.61276160e+03,
          1.61276160e+03, 2.88499561e+03, 0., 1.61276160e+03,
          2.15855234e+04, 2.28078931e+03, 1.16570254e+04, 1.61276160e+03,
          2.85465703e+04, 2.12088242e+04, 7.98276270e+03, 6.45104639e+03,
          2.53801063e+05, 3.42118408e+03, 1.88695156e+04, 8.87018848e+03,
          2.74091426e+04, 9.37623633e+03, 2.28078931e+03, 4.03190405e+03,
          1.01519043e+04, 0., 1.05166309e+04, 4.83828467e+03,
          1.52817013e+06, 2.76505531e+05, 6.27217070e+04, 6.69296094e+04,
          6.22775875e+05, 1.08337492e+05, 3.41057313e+05, 1.01603984e+05,
          1.49354613e+06, 3.45658406e+05, 8.78103906e+04, 9.03146484e+04,
          7.68291438e+05, 1.08337492e+05, 3.18640063e+05, 1.03216742e+05 ]
      - [ 0., 0., 0., 0., 0., 0., 0., 0., 0., 0., 0., 0., 0., 0., 0., 0.,
          1.29064664e+05, 1.99418906e+04, 3.42118408e+03, 2.41914233e+03,
          12750., 0., 3.96686914e+03, 0., 2.84638086e+03, 2.16374683e+03,
          1.14039465e+03, 1.61276160e+03, 1.80982852e+04, 3.42118408e+03,
          1.24367959e+04, 4.03190405e+03, 1.29982852e+04, 1.13549219e+04,
          5.70197314e+03, 4.83828467e+03, 3.79055234e+04, 4.56157861e+03,
          1.52632695e+04, 3.22552319e+03, 9.77276172e+03, 2.88499561e+03,
          0., 1.61276160e+03, 5.69276172e+03, 0., 2.88499561e+03,
          1.61276160e+03, 1.47975488e+06, 4.11086469e+05, 1.17460648e+05,
          1.11280547e+05, 6.51127938e+05, 6.72832813e+04, 2.44262891e+05,
          8.06380781e+04, 1.60323075e+06, 4.35931563e+05, 1.23162625e+05,
          1.20957117e+05, 4.92648750e+05, 6.27217070e+04, 2.31748578e+05,
          8.87018906e+04 ]
      - [ 0., 0., 0., 0., 0., 0., 0., 0., 0., 0., 0., 0., 0., 0., 0., 0.,
          8.53914258e+03, 8.05078076e+03, 2.28078931e+03, 2.41914233e+03,
          10200., 0., 0., 0., 0., 0., 0., 0., 1.26191426e+04,
          3.42118408e+03, 7.02742871e+03, 2.41914233e+03, 1.13855234e+04,
          1.52632695e+04, 4.56157861e+03, 3.22552319e+03, 3.58655234e+04,
          4.56157861e+03, 1.52632695e+04, 3.22552319e+03, 9.77276172e+03,
          2.88499561e+03, 0., 1.61276160e+03, 1.61276160e+03, 0.,
          2.88499561e+03, 1.61276160e+03, 9.16755125e+05, 1.78999359e+05,
          4.10542070e+04, 4.11254219e+04, 9.42796375e+05, 2.04130641e+05,
          5.62189688e+05, 1.29827305e+05, 9.17809813e+05, 2.02303906e+05,
          4.33349961e+04, 4.11254219e+04, 7.08011750e+05, 2.57729188e+05,
          6.90437500e+05, 1.71759109e+05 ]
      - [ 0., 0., 0., 0., 0., 0., 0., 0., 0., 0., 0., 0., 0., 0., 0., 0.,
          1.53165516e+05, 1.25538379e+04, 3.42118408e+03, 2.41914233e+03,
          10200., 0., 0., 0., 0., 0., 0., 0., 1.34255234e+04,
          4.56157861e+03, 9.97094531e+03, 2.41914233e+03, 1.26191426e+04,
          1.12964004e+04, 7.98276270e+03, 6.45104639e+03, 3.09310469e+04,
          7.98276270e+03, 9.79538184e+03, 1.61276160e+03, 12240.,
          7.21248901e+02, 0., 1.61276160e+03, 1.61276160e+03, 0.,
          7.21248901e+02, 0., 1.21089425e+06, 3.65549750e+05,
          1.48251313e+05, 1.24182641e+05, 6.62719250e+05, 4.21946016e+04,
          1.90286250e+05, 7.17678906e+04, 1.42367613e+06, 4.20960906e+05,
          1.85884328e+05, 1.59663391e+05, 6.36661125e+05, 4.44753906e+04,
          1.64632891e+05, 6.85423672e+04 ]
      - [ 0., 0., 0., 0., 0., 0., 0., 0., 0., 0., 0., 0., 0., 0., 0., 0.,
          1.75055234e+04, 8.46992676e+03, 3.42118408e+03, 3.22552319e+03,
          8160., 0., 0., 0., 0., 0., 0., 0., 8.53914258e+03,
          3.42118408e+03, 1.29729834e+04, 4.83828467e+03, 2.53210469e+04,
          1.42984395e+04, 5.70197314e+03, 5.64466553e+03, 1.07348289e+05,
          3.42118408e+03, 1.60430400e+04, 5.64466553e+03, 2.23091426e+04,
          6.13061572e+03, 1.14039465e+03, 3.22552319e+03, 5.26552344e+03,
          1.14039465e+03, 6.13061572e+03, 2.41914233e+03, 1.17185913e+06,
          2.38785500e+05, 5.35985469e+04, 6.20913203e+04, 6.03451813e+05,
          1.35706969e+05, 6.07199688e+05, 1.36278359e+05, 1.23822850e+06,
          2.96641969e+05, 7.86872344e+04, 7.82189375e+04, 5.73011688e+05,
          1.80182359e+05, 6.74471938e+05, 1.65308063e+05 ]
      - [ 0., 0., 0., 0., 0., 0., 0., 0., 0., 0., 0., 0., 0., 0., 0., 0.,
          4.35982852e+04, 1.54973555e+04, 2.28078931e+03, 1.61276160e+03,
          8160., 0., 0., 0., 0., 0., 0., 0., 1.38527617e+04,
          2.28078931e+03, 9.49327832e+03, 1.61276160e+03, 1.54655234e+04,
          1.05166309e+04, 3.42118408e+03, 3.22552319e+03, 2.77055234e+04,
          3.42118408e+03, 1.05166309e+04, 3.22552319e+03, 1.38527617e+04,
          2.88499561e+03, 0., 1.61276160e+03, 1.61276160e+03, 0.,
          2.88499561e+03, 1.61276160e+03, 1.16011575e+06, 2.72499125e+05,
          5.70197344e+04, 7.09615078e+04, 7.64536875e+05, 1.60795641e+05,
          6.25153438e+05, 1.52405969e+05, 1.29024850e+06, 2.74175719e+05,
          6.50024961e+04, 7.33806563e+04, 5.80992750e+05, 1.95007484e+05,
          6.97055250e+05, 1.72565484e+05 ]
      - [ 0., 0., 0., 0., 0., 0., 0., 0., 0., 0., 0., 0., 0., 0., 0., 0.,
          1.82828281e+05, 1.25538379e+04, 5.70197314e+03, 4.03190405e+03,
          1.35563809e+04, 1.14039465e+03, 5.46788818e+03, 8.06380798e+02,
          2.33638086e+03, 3.24562012e+03, 1.14039465e+03, 1.61276160e+03,
          2.05655234e+04, 4.56157861e+03, 9.49327832e+03, 1.61276160e+03,
          1.61891426e+04, 9.19117578e+03, 6.84236816e+03, 4.83828467e+03,
          3.02555234e+04, 3.42118408e+03, 1.38792930e+04, 3.22552319e+03,
          1.33427617e+04, 2.88499561e+03, 0., 1.61276160e+03,
          5.69276172e+03, 1.14039465e+03, 3.24562012e+03, 8.06380798e+02,
          1.37853438e+06, 4.09381406e+05, 1.24303016e+05, 1.21763500e+05,
          8.31240688e+05, 6.38621016e+04, 2.53648609e+05, 8.38636016e+04,
          1.45622763e+06, 496488., 1.63076438e+05, 1.54018734e+05,
          7.74857750e+05, 5.93005234e+04, 1.97702797e+05, 7.25742734e+04 ]
      - [ 0., 0., 0., 0., 0., 0., 0., 0., 0., 0., 0., 0., 0., 0., 0., 0.,
          4.81882852e+04, 1.47175850e+04, 2.28078931e+03, 4.03190405e+03,
          1.13027617e+04, 0., 7.21248901e+02, 8.06380798e+02, 1530.,
          2.16374683e+03, 0., 8.06380798e+02, 1.70782852e+04,
          4.56157861e+03, 7.32953174e+03, 1.61276160e+03, 3.17374277e+04,
          2.15109277e+04, 6.84236816e+03, 6.45104639e+03, 5.59210469e+04,
          6.84236816e+03, 2.56533613e+04, 8.87018848e+03, 2.13719043e+04,
          7.27101074e+03, 0., 3.22552319e+03, 5.26552344e+03, 0.,
          5.76999121e+03, 3.22552319e+03, 1598785., 3.25618469e+05,
          5.81601289e+04, 7.33806563e+04, 5.73167250e+05, 7.52660469e+04,
          3.09088281e+05, 1.04023125e+05, 1.58514025e+06, 4.24051500e+05,
          1.14039469e+05, 1.08861406e+05, 4.69458281e+05, 8.43892031e+04,
          332967., 9.83784609e+04 ]
      - [ 0., 0., 0., 0., 0., 0., 0., 0., 0., 0., 0., 0., 0., 0., 0., 0.,
          1.35053813e+05, 1.81972891e+04, 3.42118408e+03, 4.03190405e+03,
          1.28327617e+04, 0., 1.80312231e+03, 2.41914233e+03,
          4.67276172e+03, 3.24562012e+03, 1.14039465e+03, 2.41914233e+03,
          1.55482852e+04, 4.56157861e+03, 1.25538379e+04, 4.83828467e+03,
          1.62719043e+04, 1.06921943e+04, 5.70197314e+03, 4.83828467e+03,
          2.97455234e+04, 3.42118408e+03, 1.14719648e+04, 4.83828467e+03,
          1.38527617e+04, 2.88499561e+03, 0., 1.61276160e+03,
          5.69276172e+03, 0., 2.88499561e+03, 1.61276160e+03,
          1.47414488e+06, 4.41613031e+05, 1.27724203e+05, 1.13699695e+05,
          7.95850500e+05, 6.15813125e+04, 2.25198813e+05, 8.46699844e+04,
          1.55857213e+06, 4.80611031e+05, 1.57374469e+05, 1.43535781e+05,
          6.42636875e+05, 6.61428906e+04, 1.82917203e+05, 6.77359844e+04 ]
      - [ 0., 0., 0., 0., 0., 0., 0., 0., 0., 0., 0., 0., 0., 0., 0., 0.,
          1.84868281e+05, 1.69983750e+04, 5.70197314e+03, 4.03190405e+03,
          1.48727617e+04, 1.14039465e+03, 3.24562012e+03, 8.06380798e+02,
          2.84638086e+03, 3.24562012e+03, 1.14039465e+03, 1.61276160e+03,
          2.15855234e+04, 3.42118408e+03, 1.36357109e+04, 3.22552319e+03,
          1.13855234e+04, 1.85088906e+04, 5.70197314e+03, 4.03190405e+03,
          2.78710469e+04, 7.98276270e+03, 1.09942979e+04, 4.03190405e+03,
          1.15163809e+04, 3.24562012e+03, 1.14039465e+03, 1.61276160e+03,
          3.65276172e+03, 0., 2.88499561e+03, 1.61276160e+03,
          1.25179825e+06, 4.33590719e+05, 1.33426172e+05, 1.32246453e+05,
          8.75183438e+05, 5.24581523e+04, 2.10256641e+05, 8.46699844e+04,
          1.53831650e+06, 4.94090156e+05, 1.80182359e+05, 1.63695297e+05,
          7.99620688e+05, 6.50024961e+04, 1.86153313e+05, 7.57997969e+04 ]
      - [ 0., 0., 0., 0., 0., 0., 0., 0., 0., 0., 0., 0., 0., 0., 0., 0.,
          8.80510469e+04, 1.95227461e+04, 3.42118408e+03, 4.83828467e+03,
          9.77276172e+03, 0., 2.88499561e+03, 1.61276160e+03,
          1.61276160e+03, 2.88499561e+03, 0., 1.61276160e+03,
          1.91182852e+04, 2.28078931e+03, 1.17740684e+04, 4.83828467e+03,
          1.16819043e+04, 1.43569600e+04, 4.56157861e+03, 3.22552319e+03,
          3.02555254e+04, 3.42118408e+03, 9.49327832e+03, 2.41914233e+03,
          1.74227617e+04, 2.88499561e+03, 0., 1.61276160e+03,
          3.65276172e+03, 0., 4.38601465e+03, 2.41914233e+03,
          1.55403588e+06, 3.54409906e+05, 9.69335469e+04, 1.03216742e+05,
          8.62219813e+05, 6.50024961e+04, 2.46494641e+05, 8.46699844e+04,
          1.67274288e+06, 4.25288406e+05, 1.09477891e+05, 1.17731594e+05,
          7.05732563e+05, 6.84236797e+04, 2.21084875e+05, 7.66061797e+04 ]
   decision_functions:
      -
         sv_count: 1
         rho: -1.1873416651097743e+01
         alpha: [ 1. ]
         index: [ 0 ]
      -
         sv_count: 1
         rho: -5.4560676578379272e+00
         alpha: [ 1. ]
         index: [ 1 ]
      -
         sv_count: 1
         rho: -3.7028948591113426e+00
         alpha: [ 1. ]
         index: [ 2 ]
      -
         sv_count: 1
         rho: -2.9999372134138147e+00
         alpha: [ 1. ]
         index: [ 3 ]
      -
         sv_count: 1
         rho: -2.1509106322650748e+01
         alpha: [ 1. ]
         index: [ 4 ]
      -
         sv_count: 1
         rho: -8.7843542356182169e+00
         alpha: [ 1. ]
         index: [ 5 ]
      -
         sv_count: 1
         rho: -5.6307350779545269e+00
         alpha: [ 1. ]
         index: [ 6 ]
      -
         sv_count: 1
         rho: -2.3558682960594986e+01
         alpha: [ 1. ]
         index: [ 7 ]
      -
         sv_count: 1
         rho: -1.0802385517014505e+01
         alpha: [ 1. ]
         index: [ 8 ]
      -
         sv_count: 1
         rho: -4.3342094314238295e+01
         alpha: [ 1. ]
         index: [ 9 ]
